<?xml version="1.0"?>
<MethodSetup Method="BDT::BDT2">
  <GeneralInfo>
    <Info name="TMVA Release" value="4.2.0 [262656]"/>
    <Info name="ROOT Release" value="5.34/36 [336420]"/>
    <Info name="Creator" value="gpaspala"/>
    <Info name="Date" value="Tue Dec 20 14:26:37 2016"/>
    <Info name="Host" value="Linux buildvm-19.phx2.fedoraproject.org 4.3.5-300.fc23.x86_64 #1 SMP Mon Feb 1 03:18:41 UTC 2016 x86_64 x86_64 x86_64 GNU/Linux"/>
    <Info name="Dir" value="/afs/cern.ch/work/g/gpaspala/private/cms/T5gg_8_0_5/CMSSW_8_0_5/src/TTH_analysis/MVA_Analysis/CAT0_TTbar_VariableSearch"/>
    <Info name="Training events" value="40000"/>
    <Info name="TrainingTime" value="3.62347109e+01"/>
    <Info name="AnalysisType" value="Classification"/>
  </GeneralInfo>
  <Options>
    <Option name="V" modified="No">False</Option>
    <Option name="VerbosityLevel" modified="No">Default</Option>
    <Option name="VarTransform" modified="No">None</Option>
    <Option name="H" modified="No">False</Option>
    <Option name="CreateMVAPdfs" modified="No">False</Option>
    <Option name="IgnoreNegWeightsInTraining" modified="No">False</Option>
    <Option name="NTrees" modified="Yes">200</Option>
    <Option name="MaxDepth" modified="No">3</Option>
    <Option name="MinNodeSize" modified="No">5%</Option>
    <Option name="nCuts" modified="No">20</Option>
    <Option name="BoostType" modified="Yes">Grad</Option>
    <Option name="AdaBoostR2Loss" modified="No">quadratic</Option>
    <Option name="UseBaggedBoost" modified="No">False</Option>
    <Option name="Shrinkage" modified="Yes">5.000000e-01</Option>
    <Option name="AdaBoostBeta" modified="No">5.000000e-01</Option>
    <Option name="UseRandomisedTrees" modified="No">False</Option>
    <Option name="UseNvars" modified="No">4</Option>
    <Option name="UsePoissonNvars" modified="No">True</Option>
    <Option name="BaggedSampleFraction" modified="No">6.000000e-01</Option>
    <Option name="UseYesNoLeaf" modified="No">True</Option>
    <Option name="NegWeightTreatment" modified="No">ignorenegweightsintraining</Option>
    <Option name="Css" modified="No">1.000000e+00</Option>
    <Option name="Cts_sb" modified="No">1.000000e+00</Option>
    <Option name="Ctb_ss" modified="No">1.000000e+00</Option>
    <Option name="Cbb" modified="No">1.000000e+00</Option>
    <Option name="NodePurityLimit" modified="No">5.000000e-01</Option>
    <Option name="SeparationType" modified="No">giniindex</Option>
    <Option name="DoBoostMonitor" modified="Yes">True</Option>
    <Option name="UseFisherCuts" modified="No">False</Option>
    <Option name="MinLinCorrForFisher" modified="No">8.000000e-01</Option>
    <Option name="UseExclusiveVars" modified="No">False</Option>
    <Option name="DoPreselection" modified="No">False</Option>
    <Option name="SigToBkgFraction" modified="No">1.000000e+00</Option>
    <Option name="PruneMethod" modified="No">nopruning</Option>
    <Option name="PruneStrength" modified="No">0.000000e+00</Option>
    <Option name="PruningValFraction" modified="No">5.000000e-01</Option>
    <Option name="nEventsMin" modified="No">0</Option>
    <Option name="UseBaggedGrad" modified="No">False</Option>
    <Option name="GradBaggingFraction" modified="No">6.000000e-01</Option>
    <Option name="UseNTrainEvents" modified="No">0</Option>
    <Option name="NNodesMax" modified="No">0</Option>
  </Options>
  <Variables NVar="14">
    <Variable VarIndex="0" Expression="nJets" Label="nJets" Title="nJets" Unit="" Internal="nJets" Type="I" Min="6.00000000e+00" Max="1.70000000e+01"/>
    <Variable VarIndex="1" Expression="ht" Label="ht" Title="ht" Unit="" Internal="ht" Type="F" Min="4.50032867e+02" Max="5.77427832e+03"/>
    <Variable VarIndex="2" Expression="jetPt[5]" Label="jetPt[5]" Title="jetPt[5]" Unit="" Internal="jetPt_5_" Type="F" Min="4.00013695e+01" Max="3.88609406e+02"/>
    <Variable VarIndex="3" Expression="mbbMin" Label="mbbMin" Title="mbbMin" Unit="" Internal="mbbMin" Type="F" Min="1.64972858e+01" Max="2.44820117e+03"/>
    <Variable VarIndex="4" Expression="dRbbMin" Label="dRbbMin" Title="dRbbMin" Unit="" Internal="dRbbMin" Type="F" Min="3.90618265e-01" Max="3.38527465e+00"/>
    <Variable VarIndex="5" Expression="qglMedian" Label="qglMedian" Title="qglMedian" Unit="" Internal="qglMedian" Type="F" Min="1.84731174e-03" Max="9.99487817e-01"/>
    <Variable VarIndex="6" Expression="aplanarity" Label="aplanarity" Title="aplanarity" Unit="" Internal="aplanarity" Type="F" Min="2.14769971e-04" Max="4.54633385e-01"/>
    <Variable VarIndex="7" Expression="centrality" Label="centrality" Title="centrality" Unit="" Internal="centrality" Type="F" Min="2.67401785e-01" Max="9.84874368e-01"/>
    <Variable VarIndex="8" Expression="foxWolfram[0]" Label="foxWolfram[0]" Title="foxWolfram[0]" Unit="" Internal="foxWolfram_0_" Type="F" Min="1.99929491e-01" Max="4.55862284e-01"/>
    <Variable VarIndex="9" Expression="foxWolfram[1]" Label="foxWolfram[1]" Title="foxWolfram[1]" Unit="" Internal="foxWolfram_1_" Type="F" Min="-2.08652526e-01" Max="3.18641573e-01"/>
    <Variable VarIndex="10" Expression="mTop[0]" Label="mTop[0]" Title="mTop[0]" Unit="" Internal="mTop_0_" Type="F" Min="9.29236298e+01" Max="1.74164417e+03"/>
    <Variable VarIndex="11" Expression="ptTTbar" Label="ptTTbar" Title="ptTTbar" Unit="" Internal="ptTTbar" Type="F" Min="1.02882648e+00" Max="2.09527026e+03"/>
    <Variable VarIndex="12" Expression="mTTbar" Label="mTTbar" Title="mTTbar" Unit="" Internal="mTTbar" Type="F" Min="2.28944565e+02" Max="6.91642139e+03"/>
    <Variable VarIndex="13" Expression="chi2" Label="chi2" Title="chi2" Unit="" Internal="chi2" Type="F" Min="1.93243570e-04" Max="4.89513031e+02"/>
  </Variables>
  <Spectators NSpec="0"/>
  <Classes NClass="2">
    <Class Name="Signal" Index="0"/>
    <Class Name="Background" Index="1"/>
  </Classes>
  <Transformations NTransformations="0"/>
  <MVAPdfs/>
  <Weights NTrees="200" AnalysisType="1">
    <BinaryTree type="DecisionTree" boostWeight="1.0000000000000000e+00" itree="0">
      <Node pos="s" depth="0" NCoef="0" IVar="7" Cut="6.7738610506057739e-01" cType="1" res="2.4950549006462097e-01" rms="0.0000000000000000e+00" purity="5.0000000000000000e-01" nType="0">
        <Node pos="l" depth="1" NCoef="0" IVar="0" Cut="9.0000000000000000e+00" cType="1" res="-1.6263613104820251e-01" rms="4.7281020879745483e-01" purity="3.3736386895179749e-01" nType="0">
          <Node pos="l" depth="2" NCoef="0" IVar="0" Cut="8.0000000000000000e+00" cType="1" res="-2.4929498136043549e-01" rms="4.3341898918151855e-01" purity="2.5070503354072571e-01" nType="0">
            <Node pos="l" depth="3" NCoef="0" IVar="-1" Cut="0.0000000000000000e+00" cType="1" res="-2.8955632820725441e-02" rms="3.7329253554344177e-01" purity="1.6735500097274780e-01" nType="-99"/>
            <Node pos="r" depth="3" NCoef="0" IVar="-1" Cut="0.0000000000000000e+00" cType="1" res="-1.8350740894675255e-02" rms="4.7886571288108826e-01" purity="3.5616800189018250e-01" nType="-99"/>
          </Node>
          <Node pos="r" depth="2" NCoef="0" IVar="5" Cut="4.7991380095481873e-01" cType="1" res="2.1284706890583038e-03" rms="3.1829336285591125e-01" purity="6.0789120197296143e-01" nType="0">
            <Node pos="l" depth="3" NCoef="0" IVar="-1" Cut="0.0000000000000000e+00" cType="1" res="-4.0481127798557281e-03" rms="4.9981755018234253e-01" purity="4.8649442195892334e-01" nType="-99"/>
            <Node pos="r" depth="3" NCoef="0" IVar="-1" Cut="0.0000000000000000e+00" cType="1" res="6.5367698669433594e-02" rms="4.5394507050514221e-01" purity="7.0960408449172974e-01" nType="-99"/>
          </Node>
        </Node>
        <Node pos="r" depth="1" NCoef="0" IVar="5" Cut="4.2995649576187134e-01" cType="1" res="2.4964125454425812e-01" rms="0.0000000000000000e+00" purity="6.5262418985366821e-01" nType="0">
          <Node pos="l" depth="2" NCoef="0" IVar="0" Cut="8.0000000000000000e+00" cType="1" res="-1.3911309652030468e-03" rms="4.9999806284904480e-01" purity="4.9860885739326477e-01" nType="0">
            <Node pos="l" depth="3" NCoef="0" IVar="-1" Cut="0.0000000000000000e+00" cType="1" res="-2.6430493220686913e-02" rms="4.7335004806518555e-01" purity="3.3894181251525879e-01" nType="-99"/>
            <Node pos="r" depth="3" NCoef="0" IVar="-1" Cut="0.0000000000000000e+00" cType="1" res="3.0321070924401283e-02" rms="4.8677104711532593e-01" purity="6.1425381898880005e-01" nType="-99"/>
          </Node>
          <Node pos="r" depth="2" NCoef="0" IVar="0" Cut="8.0000000000000000e+00" cType="1" res="2.5440824031829834e-01" rms="4.3043750524520874e-01" purity="7.5440824031829834e-01" nType="0">
            <Node pos="l" depth="3" NCoef="0" IVar="-1" Cut="0.0000000000000000e+00" cType="1" res="3.5320356488227844e-02" rms="4.8434564471244812e-01" purity="6.2413418292999268e-01" nType="-99"/>
            <Node pos="r" depth="3" NCoef="0" IVar="-1" Cut="0.0000000000000000e+00" cType="1" res="1.8099185824394226e-01" rms="3.5939982533454895e-01" purity="8.4760862588882446e-01" nType="-99"/>
          </Node>
        </Node>
      </Node>
    </BinaryTree>
    <BinaryTree type="DecisionTree" boostWeight="1.0000000000000000e+00" itree="1">
      <Node pos="s" depth="0" NCoef="0" IVar="7" Cut="6.4322078227996826e-01" cType="1" res="2.3532401025295258e-01" rms="0.0000000000000000e+00" purity="5.0000000000000000e-01" nType="0">
        <Node pos="l" depth="1" NCoef="0" IVar="0" Cut="9.0000000000000000e+00" cType="1" res="-1.8248376250267029e-01" rms="4.5821607112884521e-01" purity="3.1227701902389526e-01" nType="0">
          <Node pos="l" depth="2" NCoef="0" IVar="0" Cut="8.0000000000000000e+00" cType="1" res="-2.6024642586708069e-01" rms="4.1879987716674805e-01" purity="2.2765381634235382e-01" nType="0">
            <Node pos="l" depth="3" NCoef="0" IVar="-1" Cut="0.0000000000000000e+00" cType="1" res="-2.8435457497835159e-02" rms="3.5926315188407898e-01" purity="1.5225011110305786e-01" nType="-99"/>
            <Node pos="r" depth="3" NCoef="0" IVar="-1" Cut="0.0000000000000000e+00" cType="1" res="-1.9532462581992149e-02" rms="4.6669602394104004e-01" purity="3.2057088613510132e-01" nType="-99"/>
          </Node>
          <Node pos="r" depth="2" NCoef="0" IVar="-1" Cut="0.0000000000000000e+00" cType="1" res="2.1065978333353996e-02" rms="4.8879954218864441e-01" purity="5.8619892597198486e-01" nType="-99"/>
        </Node>
        <Node pos="r" depth="1" NCoef="0" IVar="5" Cut="5.2481335401535034e-01" cType="1" res="2.3030678927898407e-01" rms="0.0000000000000000e+00" purity="6.2918972969055176e-01" nType="0">
          <Node pos="l" depth="2" NCoef="0" IVar="0" Cut="8.0000000000000000e+00" cType="1" res="-8.9588835835456848e-03" rms="4.9290198087692261e-01" purity="5.0157046318054199e-01" nType="0">
            <Node pos="l" depth="3" NCoef="0" IVar="-1" Cut="0.0000000000000000e+00" cType="1" res="-2.2981317713856697e-02" rms="4.7097411751747131e-01" purity="3.3752226829528809e-01" nType="-99"/>
            <Node pos="r" depth="3" NCoef="0" IVar="-1" Cut="0.0000000000000000e+00" cType="1" res="2.8217427432537079e-02" rms="4.8022308945655823e-01" purity="6.2652719020843506e-01" nType="-99"/>
          </Node>
          <Node pos="r" depth="2" NCoef="0" IVar="7" Cut="7.8957062959671021e-01" cType="1" res="2.1781580150127411e-01" rms="0.0000000000000000e+00" purity="7.6042050123214722e-01" nType="0">
            <Node pos="l" depth="3" NCoef="0" IVar="-1" Cut="0.0000000000000000e+00" cType="1" res="3.7774827331304550e-02" rms="4.5783984661102295e-01" purity="6.7873048782348633e-01" nType="-99"/>
            <Node pos="r" depth="3" NCoef="0" IVar="-1" Cut="0.0000000000000000e+00" cType="1" res="2.1041326224803925e-01" rms="3.4499388933181763e-01" purity="8.5653638839721680e-01" nType="-99"/>
          </Node>
        </Node>
      </Node>
    </BinaryTree>
    <BinaryTree type="DecisionTree" boostWeight="1.0000000000000000e+00" itree="2">
      <Node pos="s" depth="0" NCoef="0" IVar="7" Cut="6.4322078227996826e-01" cType="1" res="2.2499743103981018e-01" rms="0.0000000000000000e+00" purity="5.0000000000000000e-01" nType="0">
        <Node pos="l" depth="1" NCoef="0" IVar="0" Cut="9.0000000000000000e+00" cType="1" res="-1.7563752830028534e-01" rms="4.5507064461708069e-01" purity="3.1227701902389526e-01" nType="0">
          <Node pos="l" depth="2" NCoef="0" IVar="0" Cut="8.0000000000000000e+00" cType="1" res="-2.4804161489009857e-01" rms="4.1837880015373230e-01" purity="2.2765381634235382e-01" nType="0">
            <Node pos="l" depth="3" NCoef="0" IVar="-1" Cut="0.0000000000000000e+00" cType="1" res="-2.7291607111692429e-02" rms="3.5926315188407898e-01" purity="1.5225011110305786e-01" nType="-99"/>
            <Node pos="r" depth="3" NCoef="0" IVar="-1" Cut="0.0000000000000000e+00" cType="1" res="-1.8433183431625366e-02" rms="4.6669602394104004e-01" purity="3.2057088613510132e-01" nType="-99"/>
          </Node>
          <Node pos="r" depth="2" NCoef="0" IVar="-1" Cut="0.0000000000000000e+00" cType="1" res="1.7904302105307579e-02" rms="4.8880547285079956e-01" purity="5.8619892597198486e-01" nType="-99"/>
        </Node>
        <Node pos="r" depth="1" NCoef="0" IVar="0" Cut="8.0000000000000000e+00" cType="1" res="6.8456336855888367e-02" rms="4.6056026220321655e-01" purity="6.2918972969055176e-01" nType="0">
          <Node pos="l" depth="2" NCoef="0" IVar="7" Cut="7.7338314056396484e-01" cType="1" res="0.0000000000000000e+00" rms="6.8940019607543945e-01" purity="4.7527259588241577e-01" nType="0">
            <Node pos="l" depth="3" NCoef="0" IVar="-1" Cut="0.0000000000000000e+00" cType="1" res="-2.4220695719122887e-02" rms="4.6418872475624084e-01" purity="3.3166909217834473e-01" nType="-99"/>
            <Node pos="r" depth="3" NCoef="0" IVar="-1" Cut="0.0000000000000000e+00" cType="1" res="1.7323838546872139e-02" rms="4.6997603774070740e-01" purity="6.0971087217330933e-01" nType="-99"/>
          </Node>
          <Node pos="r" depth="2" NCoef="0" IVar="4" Cut="6.6277104616165161e-01" cType="1" res="2.0415507256984711e-01" rms="0.0000000000000000e+00" purity="7.4053901433944702e-01" nType="0">
            <Node pos="l" depth="3" NCoef="0" IVar="-1" Cut="0.0000000000000000e+00" cType="1" res="-5.2465675253188238e-05" rms="4.7515457868576050e-01" purity="5.7876342535018921e-01" nType="-99"/>
            <Node pos="r" depth="3" NCoef="0" IVar="-1" Cut="0.0000000000000000e+00" cType="1" res="8.7055593729019165e-02" rms="3.9967381954193115e-01" purity="7.8472393751144409e-01" nType="-99"/>
          </Node>
        </Node>
      </Node>
    </BinaryTree>
    <BinaryTree type="DecisionTree" boostWeight="1.0000000000000000e+00" itree="3">
      <Node pos="s" depth="0" NCoef="0" IVar="7" Cut="6.0905539989471436e-01" cType="1" res="2.1866315603256226e-01" rms="0.0000000000000000e+00" purity="5.0000000000000000e-01" nType="0">
        <Node pos="l" depth="1" NCoef="0" IVar="0" Cut="9.0000000000000000e+00" cType="1" res="-1.9339048862457275e-01" rms="4.4136714935302734e-01" purity="2.8694596886634827e-01" nType="0">
          <Node pos="l" depth="2" NCoef="0" IVar="0" Cut="8.0000000000000000e+00" cType="1" res="-2.5768113136291504e-01" rms="4.0336912870407104e-01" purity="2.0633281767368317e-01" nType="0">
            <Node pos="l" depth="3" NCoef="0" IVar="-1" Cut="0.0000000000000000e+00" cType="1" res="-2.5989225134253502e-02" rms="3.4300571680068970e-01" purity="1.3620463013648987e-01" nType="-99"/>
            <Node pos="r" depth="3" NCoef="0" IVar="-1" Cut="0.0000000000000000e+00" cType="1" res="-1.9028753042221069e-02" rms="4.5578935742378235e-01" purity="2.9443719983100891e-01" nType="-99"/>
          </Node>
          <Node pos="r" depth="2" NCoef="0" IVar="-1" Cut="0.0000000000000000e+00" cType="1" res="8.3639901131391525e-03" rms="4.9203190207481384e-01" purity="5.6382608413696289e-01" nType="-99"/>
        </Node>
        <Node pos="r" depth="1" NCoef="0" IVar="8" Cut="4.1718000173568726e-01" cType="1" res="0.0000000000000000e+00" rms="2.2085253149271011e-02" purity="6.0669642686843872e-01" nType="0">
          <Node pos="l" depth="2" NCoef="0" IVar="5" Cut="4.2924034595489502e-01" cType="1" res="3.4317487734369934e-04" rms="4.8403540253639221e-01" purity="5.4437333345413208e-01" nType="0">
            <Node pos="l" depth="3" NCoef="0" IVar="-1" Cut="0.0000000000000000e+00" cType="1" res="-1.9863223657011986e-02" rms="4.7586455941200256e-01" purity="3.9256647229194641e-01" nType="-99"/>
            <Node pos="r" depth="3" NCoef="0" IVar="-1" Cut="0.0000000000000000e+00" cType="1" res="2.1410634741187096e-02" rms="4.5364764332771301e-01" purity="6.5754663944244385e-01" nType="-99"/>
          </Node>
          <Node pos="r" depth="2" NCoef="0" IVar="5" Cut="4.8024153709411621e-01" cType="1" res="1.7886102199554443e-01" rms="0.0000000000000000e+00" purity="8.0994123220443726e-01" nType="0">
            <Node pos="l" depth="3" NCoef="0" IVar="-1" Cut="0.0000000000000000e+00" cType="1" res="3.0739586800336838e-02" rms="4.5176750421524048e-01" purity="6.8763011693954468e-01" nType="-99"/>
            <Node pos="r" depth="3" NCoef="0" IVar="-1" Cut="0.0000000000000000e+00" cType="1" res="1.3202086091041565e-01" rms="2.9666396975517273e-01" purity="8.9449697732925415e-01" nType="-99"/>
          </Node>
        </Node>
      </Node>
    </BinaryTree>
    <BinaryTree type="DecisionTree" boostWeight="1.0000000000000000e+00" itree="4">
      <Node pos="s" depth="0" NCoef="0" IVar="7" Cut="7.4571681022644043e-01" cType="1" res="2.1380324661731720e-01" rms="0.0000000000000000e+00" purity="5.0000000000000000e-01" nType="0">
        <Node pos="l" depth="1" NCoef="0" IVar="0" Cut="9.0000000000000000e+00" cType="1" res="-1.1933119595050812e-01" rms="4.6117833256721497e-01" purity="3.8776826858520508e-01" nType="0">
          <Node pos="l" depth="2" NCoef="0" IVar="5" Cut="8.5696774721145630e-01" cType="1" res="5.2047391363885254e-05" rms="0.0000000000000000e+00" purity="2.9906433820724487e-01" nType="0">
            <Node pos="l" depth="3" NCoef="0" IVar="-1" Cut="0.0000000000000000e+00" cType="1" res="-2.4471478536725044e-02" rms="4.2521774768829346e-01" purity="2.6274758577346802e-01" nType="-99"/>
            <Node pos="r" depth="3" NCoef="0" IVar="-1" Cut="0.0000000000000000e+00" cType="1" res="2.9037080239504576e-03" rms="4.8239913582801819e-01" purity="5.2644950151443481e-01" nType="-99"/>
          </Node>
          <Node pos="r" depth="2" NCoef="0" IVar="5" Cut="5.2694511413574219e-01" cType="1" res="1.5537407016381621e-03" rms="0.0000000000000000e+00" purity="6.5257108211517334e-01" nType="0">
            <Node pos="l" depth="3" NCoef="0" IVar="-1" Cut="0.0000000000000000e+00" cType="1" res="-8.0688734306022525e-04" rms="4.9155023694038391e-01" purity="5.4481160640716553e-01" nType="-99"/>
            <Node pos="r" depth="3" NCoef="0" IVar="-1" Cut="0.0000000000000000e+00" cType="1" res="6.7694813013076782e-02" rms="4.1340285539627075e-01" purity="7.6572018861770630e-01" nType="-99"/>
          </Node>
        </Node>
        <Node pos="r" depth="1" NCoef="0" IVar="4" Cut="6.5426391363143921e-01" cType="1" res="1.9136996567249298e-01" rms="0.0000000000000000e+00" purity="7.0059496164321899e-01" nType="0">
          <Node pos="l" depth="2" NCoef="0" IVar="-1" Cut="0.0000000000000000e+00" cType="1" res="-1.7366567626595497e-02" rms="4.6904277801513672e-01" purity="4.9261701107025146e-01" nType="-99"/>
          <Node pos="r" depth="2" NCoef="0" IVar="9" Cut="-7.9607509076595306e-02" cType="1" res="1.8165664374828339e-01" rms="0.0000000000000000e+00" purity="7.5670444965362549e-01" nType="0">
            <Node pos="l" depth="3" NCoef="0" IVar="-1" Cut="0.0000000000000000e+00" cType="1" res="2.4770183488726616e-02" rms="4.5491188764572144e-01" purity="6.4953023195266724e-01" nType="-99"/>
            <Node pos="r" depth="3" NCoef="0" IVar="-1" Cut="0.0000000000000000e+00" cType="1" res="7.1782901883125305e-02" rms="3.6182212829589844e-01" purity="8.1768167018890381e-01" nType="-99"/>
          </Node>
        </Node>
      </Node>
    </BinaryTree>
    <BinaryTree type="DecisionTree" boostWeight="1.0000000000000000e+00" itree="5">
      <Node pos="s" depth="0" NCoef="0" IVar="7" Cut="5.7489001750946045e-01" cType="1" res="2.0886620879173279e-01" rms="0.0000000000000000e+00" purity="5.0000000000000000e-01" nType="0">
        <Node pos="l" depth="1" NCoef="0" IVar="0" Cut="8.0000000000000000e+00" cType="1" res="-2.0598505437374115e-01" rms="4.2340704798698425e-01" purity="2.6169022917747498e-01" nType="0">
          <Node pos="l" depth="2" NCoef="0" IVar="-1" Cut="0.0000000000000000e+00" cType="1" res="-2.4162886664271355e-02" rms="3.2782459259033203e-01" purity="1.2299931049346924e-01" nType="-99"/>
          <Node pos="r" depth="2" NCoef="0" IVar="5" Cut="4.3341332674026489e-01" cType="1" res="1.5048820059746504e-03" rms="2.7123743295669556e-01" purity="3.6802726984024048e-01" nType="0">
            <Node pos="l" depth="3" NCoef="0" IVar="-1" Cut="0.0000000000000000e+00" cType="1" res="-2.7132365852594376e-02" rms="4.1678836941719055e-01" purity="2.3478759825229645e-01" nType="-99"/>
            <Node pos="r" depth="3" NCoef="0" IVar="-1" Cut="0.0000000000000000e+00" cType="1" res="-4.6139243058860302e-03" rms="4.8711806535720825e-01" purity="4.8058384656906128e-01" nType="-99"/>
          </Node>
        </Node>
        <Node pos="r" depth="1" NCoef="0" IVar="0" Cut="8.0000000000000000e+00" cType="1" res="9.9890697747468948e-03" rms="4.5236909389495850e-01" purity="5.8554583787918091e-01" nType="0">
          <Node pos="l" depth="2" NCoef="0" IVar="7" Cut="7.8968143463134766e-01" cType="1" res="8.1717225839383900e-05" rms="9.0393889695405960e-03" purity="4.2574673891067505e-01" nType="0">
            <Node pos="l" depth="3" NCoef="0" IVar="-1" Cut="0.0000000000000000e+00" cType="1" res="-2.3462075740098953e-02" rms="4.4820979237556458e-01" purity="3.0529364943504333e-01" nType="-99"/>
            <Node pos="r" depth="3" NCoef="0" IVar="-1" Cut="0.0000000000000000e+00" cType="1" res="1.3615208677947521e-02" rms="4.5963460206985474e-01" purity="6.2673461437225342e-01" nType="-99"/>
          </Node>
          <Node pos="r" depth="2" NCoef="0" IVar="5" Cut="1.9552469253540039e-01" cType="1" res="1.9087797403335571e-01" rms="0.0000000000000000e+00" purity="6.9926005601882935e-01" nType="0">
            <Node pos="l" depth="3" NCoef="0" IVar="-1" Cut="0.0000000000000000e+00" cType="1" res="-1.3220277614891529e-02" rms="4.8173102736473083e-01" purity="4.7240597009658813e-01" nType="-99"/>
            <Node pos="r" depth="3" NCoef="0" IVar="-1" Cut="0.0000000000000000e+00" cType="1" res="4.6866994351148605e-02" rms="4.0938159823417664e-01" purity="7.4958598613739014e-01" nType="-99"/>
          </Node>
        </Node>
      </Node>
    </BinaryTree>
    <BinaryTree type="DecisionTree" boostWeight="1.0000000000000000e+00" itree="6">
      <Node pos="s" depth="0" NCoef="0" IVar="7" Cut="6.0905539989471436e-01" cType="1" res="2.0532840490341187e-01" rms="0.0000000000000000e+00" purity="5.0000000000000000e-01" nType="0">
        <Node pos="l" depth="1" NCoef="0" IVar="0" Cut="9.0000000000000000e+00" cType="1" res="-1.7486970126628876e-01" rms="4.3248569965362549e-01" purity="2.8694596886634827e-01" nType="0">
          <Node pos="l" depth="2" NCoef="0" IVar="5" Cut="4.3166297674179077e-01" cType="1" res="0.0000000000000000e+00" rms="9.8353251814842224e-03" purity="2.0633281767368317e-01" nType="0">
            <Node pos="l" depth="3" NCoef="0" IVar="-1" Cut="0.0000000000000000e+00" cType="1" res="-2.6625998318195343e-02" rms="3.3276230096817017e-01" purity="1.2829209864139557e-01" nType="-99"/>
            <Node pos="r" depth="3" NCoef="0" IVar="-1" Cut="0.0000000000000000e+00" cType="1" res="-1.6069918870925903e-02" rms="4.3799793720245361e-01" purity="2.6906332373619080e-01" nType="-99"/>
          </Node>
          <Node pos="r" depth="2" NCoef="0" IVar="-1" Cut="0.0000000000000000e+00" cType="1" res="2.3786453530192375e-03" rms="4.8622483015060425e-01" purity="5.6382608413696289e-01" nType="-99"/>
        </Node>
        <Node pos="r" depth="1" NCoef="0" IVar="4" Cut="6.7582362890243530e-01" cType="1" res="0.0000000000000000e+00" rms="2.2085253149271011e-02" purity="6.0669642686843872e-01" nType="0">
          <Node pos="l" depth="2" NCoef="0" IVar="0" Cut="8.0000000000000000e+00" cType="1" res="-1.2667539715766907e-01" rms="4.5531314611434937e-01" purity="4.2917713522911072e-01" nType="0">
            <Node pos="l" depth="3" NCoef="0" IVar="-1" Cut="0.0000000000000000e+00" cType="1" res="-4.2532246559858322e-02" rms="4.0606975555419922e-01" purity="2.4356940388679504e-01" nType="-99"/>
            <Node pos="r" depth="3" NCoef="0" IVar="-1" Cut="0.0000000000000000e+00" cType="1" res="-8.3644157275557518e-03" rms="4.6577629446983337e-01" purity="5.6637269258499146e-01" nType="-99"/>
          </Node>
          <Node pos="r" depth="2" NCoef="0" IVar="7" Cut="7.7004325389862061e-01" cType="1" res="0.0000000000000000e+00" rms="2.5106003507971764e-02" purity="6.5857851505279541e-01" nType="0">
            <Node pos="l" depth="3" NCoef="0" IVar="-1" Cut="0.0000000000000000e+00" cType="1" res="-1.6002507181838155e-03" rms="4.6452143788337708e-01" purity="5.5463457107543945e-01" nType="-99"/>
            <Node pos="r" depth="3" NCoef="0" IVar="-1" Cut="0.0000000000000000e+00" cType="1" res="6.8759694695472717e-02" rms="3.8323697447776794e-01" purity="7.8868782520294189e-01" nType="-99"/>
          </Node>
        </Node>
      </Node>
    </BinaryTree>
    <BinaryTree type="DecisionTree" boostWeight="1.0000000000000000e+00" itree="7">
      <Node pos="s" depth="0" NCoef="0" IVar="6" Cut="4.3492734432220459e-02" cType="1" res="0.0000000000000000e+00" rms="1.8027756363153458e-02" purity="5.0000000000000000e-01" nType="0">
        <Node pos="l" depth="1" NCoef="0" IVar="5" Cut="8.5751163959503174e-01" cType="1" res="2.1468621492385864e-01" rms="0.0000000000000000e+00" purity="3.4050485491752625e-01" nType="0">
          <Node pos="l" depth="2" NCoef="0" IVar="0" Cut="9.0000000000000000e+00" cType="1" res="-1.8737354874610901e-01" rms="4.2510044574737549e-01" purity="3.0150422453880310e-01" nType="0">
            <Node pos="l" depth="3" NCoef="0" IVar="-1" Cut="0.0000000000000000e+00" cType="1" res="-2.7538213878870010e-02" rms="4.0454629063606262e-01" purity="2.4767482280731201e-01" nType="-99"/>
            <Node pos="r" depth="3" NCoef="0" IVar="-1" Cut="0.0000000000000000e+00" cType="1" res="-1.4462469145655632e-02" rms="4.7868406772613525e-01" purity="5.4750233888626099e-01" nType="-99"/>
          </Node>
          <Node pos="r" depth="2" NCoef="0" IVar="-1" Cut="0.0000000000000000e+00" cType="1" res="1.2678317725658417e-02" rms="4.5264872908592224e-01" purity="6.0144251585006714e-01" nType="-99"/>
        </Node>
        <Node pos="r" depth="1" NCoef="0" IVar="5" Cut="3.8150468468666077e-01" cType="1" res="1.9407853484153748e-01" rms="0.0000000000000000e+00" purity="6.0047429800033569e-01" nType="0">
          <Node pos="l" depth="2" NCoef="0" IVar="0" Cut="9.0000000000000000e+00" cType="1" res="-8.4985546767711639e-02" rms="4.6248948574066162e-01" purity="4.3084004521369934e-01" nType="0">
            <Node pos="l" depth="3" NCoef="0" IVar="-1" Cut="0.0000000000000000e+00" cType="1" res="-1.6535399481654167e-02" rms="4.4875037670135498e-01" purity="3.5408082604408264e-01" nType="-99"/>
            <Node pos="r" depth="3" NCoef="0" IVar="-1" Cut="0.0000000000000000e+00" cType="1" res="2.1882383152842522e-02" rms="4.6459648013114929e-01" purity="6.5061652660369873e-01" nType="-99"/>
          </Node>
          <Node pos="r" depth="2" NCoef="0" IVar="0" Cut="8.0000000000000000e+00" cType="1" res="7.0451170206069946e-02" rms="4.1740906238555908e-01" purity="6.9741785526275635e-01" nType="0">
            <Node pos="l" depth="3" NCoef="0" IVar="-1" Cut="0.0000000000000000e+00" cType="1" res="-3.8506498094648123e-04" rms="4.6076098084449768e-01" purity="5.4826581478118896e-01" nType="-99"/>
            <Node pos="r" depth="3" NCoef="0" IVar="-1" Cut="0.0000000000000000e+00" cType="1" res="4.0410783141851425e-02" rms="3.8320454955101013e-01" purity="7.8541648387908936e-01" nType="-99"/>
          </Node>
        </Node>
      </Node>
    </BinaryTree>
    <BinaryTree type="DecisionTree" boostWeight="1.0000000000000000e+00" itree="8">
      <Node pos="s" depth="0" NCoef="0" IVar="7" Cut="5.7489001750946045e-01" cType="1" res="1.9904996454715729e-01" rms="0.0000000000000000e+00" purity="5.0000000000000000e-01" nType="0">
        <Node pos="l" depth="1" NCoef="0" IVar="0" Cut="8.0000000000000000e+00" cType="1" res="-1.8417042493820190e-01" rms="4.1793772578239441e-01" purity="2.6169022917747498e-01" nType="0">
          <Node pos="l" depth="2" NCoef="0" IVar="-1" Cut="0.0000000000000000e+00" cType="1" res="-2.2218747064471245e-02" rms="3.2639575004577637e-01" purity="1.2299931049346924e-01" nType="-99"/>
          <Node pos="r" depth="2" NCoef="0" IVar="5" Cut="4.3341332674026489e-01" cType="1" res="1.5048820059746504e-03" rms="2.7123743295669556e-01" purity="3.6802726984024048e-01" nType="0">
            <Node pos="l" depth="3" NCoef="0" IVar="-1" Cut="0.0000000000000000e+00" cType="1" res="-2.4304004386067390e-02" rms="4.1418695449829102e-01" purity="2.3478759825229645e-01" nType="-99"/>
            <Node pos="r" depth="3" NCoef="0" IVar="-1" Cut="0.0000000000000000e+00" cType="1" res="-4.1819280013442039e-03" rms="4.8462748527526855e-01" purity="4.8058384656906128e-01" nType="-99"/>
          </Node>
        </Node>
        <Node pos="r" depth="1" NCoef="0" IVar="8" Cut="4.0750959515571594e-01" cType="1" res="1.9584839046001434e-01" rms="0.0000000000000000e+00" purity="5.8554583787918091e-01" nType="0">
          <Node pos="l" depth="2" NCoef="0" IVar="5" Cut="6.1919277906417847e-01" cType="1" res="4.4072695891372859e-04" rms="4.2567774653434753e-01" purity="4.7554439306259155e-01" nType="0">
            <Node pos="l" depth="3" NCoef="0" IVar="-1" Cut="0.0000000000000000e+00" cType="1" res="-2.3016396909952164e-02" rms="4.5494440197944641e-01" purity="3.8262841105461121e-01" nType="-99"/>
            <Node pos="r" depth="3" NCoef="0" IVar="-1" Cut="0.0000000000000000e+00" cType="1" res="1.1589674279093742e-02" rms="4.4741779565811157e-01" purity="6.4174365997314453e-01" nType="-99"/>
          </Node>
          <Node pos="r" depth="2" NCoef="0" IVar="5" Cut="2.4416746199131012e-01" cType="1" res="0.0000000000000000e+00" rms="3.0972940847277641e-02" purity="7.1447426080703735e-01" nType="0">
            <Node pos="l" depth="3" NCoef="0" IVar="-1" Cut="0.0000000000000000e+00" cType="1" res="-6.0865581035614014e-03" rms="4.6803995966911316e-01" purity="5.0556147098541260e-01" nType="-99"/>
            <Node pos="r" depth="3" NCoef="0" IVar="-1" Cut="0.0000000000000000e+00" cType="1" res="3.2888479530811310e-02" rms="3.9065375924110413e-01" purity="7.6832306385040283e-01" nType="-99"/>
          </Node>
        </Node>
      </Node>
    </BinaryTree>
    <BinaryTree type="DecisionTree" boostWeight="1.0000000000000000e+00" itree="9">
      <Node pos="s" depth="0" NCoef="0" IVar="7" Cut="6.4322078227996826e-01" cType="1" res="1.9669979810714722e-01" rms="0.0000000000000000e+00" purity="5.0000000000000000e-01" nType="0">
        <Node pos="l" depth="1" NCoef="0" IVar="0" Cut="8.0000000000000000e+00" cType="1" res="-1.4135240018367767e-01" rms="4.3437790870666504e-01" purity="3.1227701902389526e-01" nType="0">
          <Node pos="l" depth="2" NCoef="0" IVar="5" Cut="4.7691422700881958e-01" cType="1" res="0.0000000000000000e+00" rms="1.2058838270604610e-02" purity="1.5225011110305786e-01" nType="0">
            <Node pos="l" depth="3" NCoef="0" IVar="-1" Cut="0.0000000000000000e+00" cType="1" res="-2.7157759293913841e-02" rms="3.0167481303215027e-01" purity="1.0225679725408554e-01" nType="-99"/>
            <Node pos="r" depth="3" NCoef="0" IVar="-1" Cut="0.0000000000000000e+00" cType="1" res="-1.7755510285496712e-02" rms="3.9321061968803406e-01" purity="1.9773511588573456e-01" nType="-99"/>
          </Node>
          <Node pos="r" depth="2" NCoef="0" IVar="5" Cut="4.3341332674026489e-01" cType="1" res="9.5448258798569441e-04" rms="3.2582014799118042e-01" purity="4.2898690700531006e-01" nType="0">
            <Node pos="l" depth="3" NCoef="0" IVar="-1" Cut="0.0000000000000000e+00" cType="1" res="-2.0670246332883835e-02" rms="4.3790552020072937e-01" purity="2.8944239020347595e-01" nType="-99"/>
            <Node pos="r" depth="3" NCoef="0" IVar="-1" Cut="0.0000000000000000e+00" cType="1" res="2.1929715294390917e-03" rms="4.8024189472198486e-01" purity="5.4062563180923462e-01" nType="-99"/>
          </Node>
        </Node>
        <Node pos="r" depth="1" NCoef="0" IVar="4" Cut="6.6277104616165161e-01" cType="1" res="1.8883301317691803e-01" rms="0.0000000000000000e+00" purity="6.2918972969055176e-01" nType="0">
          <Node pos="l" depth="2" NCoef="0" IVar="0" Cut="8.0000000000000000e+00" cType="1" res="-1.0848981142044067e-01" rms="4.5044708251953125e-01" purity="4.4177538156509399e-01" nType="0">
            <Node pos="l" depth="3" NCoef="0" IVar="-1" Cut="0.0000000000000000e+00" cType="1" res="-3.9549607783555984e-02" rms="4.1127434372901917e-01" purity="2.5623977184295654e-01" nType="-99"/>
            <Node pos="r" depth="3" NCoef="0" IVar="-1" Cut="0.0000000000000000e+00" cType="1" res="-7.1831759996712208e-03" rms="4.6065464615821838e-01" purity="5.7876342535018921e-01" nType="-99"/>
          </Node>
          <Node pos="r" depth="2" NCoef="0" IVar="7" Cut="7.8957062959671021e-01" cType="1" res="1.8176020681858063e-01" rms="0.0000000000000000e+00" purity="6.8094199895858765e-01" nType="0">
            <Node pos="l" depth="3" NCoef="0" IVar="-1" Cut="0.0000000000000000e+00" cType="1" res="-7.7665946446359158e-04" rms="4.5408043265342712e-01" purity="5.8686751127243042e-01" nType="-99"/>
            <Node pos="r" depth="3" NCoef="0" IVar="-1" Cut="0.0000000000000000e+00" cType="1" res="6.7627519369125366e-02" rms="3.7124818563461304e-01" purity="8.0588352680206299e-01" nType="-99"/>
          </Node>
        </Node>
      </Node>
    </BinaryTree>
    <BinaryTree type="DecisionTree" boostWeight="1.0000000000000000e+00" itree="10">
      <Node pos="s" depth="0" NCoef="0" IVar="0" Cut="9.0000000000000000e+00" cType="1" res="-5.1850065588951111e-02" rms="4.3784135580062866e-01" purity="5.0000000000000000e-01" nType="0">
        <Node pos="l" depth="1" NCoef="0" IVar="7" Cut="7.1155148744583130e-01" cType="1" res="3.2866410037968308e-05" rms="5.7328292168676853e-03" purity="4.3031990528106689e-01" nType="0">
          <Node pos="l" depth="2" NCoef="0" IVar="5" Cut="5.2442091703414917e-01" cType="1" res="5.9153579059056938e-05" rms="0.0000000000000000e+00" purity="2.7595144510269165e-01" nType="0">
            <Node pos="l" depth="3" NCoef="0" IVar="-1" Cut="0.0000000000000000e+00" cType="1" res="-2.4177147075533867e-02" rms="3.8009357452392578e-01" purity="1.9311945140361786e-01" nType="-99"/>
            <Node pos="r" depth="3" NCoef="0" IVar="-1" Cut="0.0000000000000000e+00" cType="1" res="-1.0940263979136944e-02" rms="4.5879393815994263e-01" purity="3.7599650025367737e-01" nType="-99"/>
          </Node>
          <Node pos="r" depth="2" NCoef="0" IVar="3" Cut="9.0126647949218750e+01" cType="1" res="9.6442186832427979e-01" rms="0.0000000000000000e+00" purity="6.2332415580749512e-01" nType="0">
            <Node pos="l" depth="3" NCoef="0" IVar="-1" Cut="0.0000000000000000e+00" cType="1" res="-1.7652157694101334e-02" rms="4.4671690464019775e-01" purity="5.0958639383316040e-01" nType="-99"/>
            <Node pos="r" depth="3" NCoef="0" IVar="-1" Cut="0.0000000000000000e+00" cType="1" res="3.0320432037115097e-02" rms="4.1779142618179321e-01" purity="7.1967732906341553e-01" nType="-99"/>
          </Node>
        </Node>
        <Node pos="r" depth="1" NCoef="0" IVar="6" Cut="3.9487138390541077e-02" cType="1" res="1.0445174993947148e-03" rms="0.0000000000000000e+00" purity="7.2144830226898193e-01" nType="0">
          <Node pos="l" depth="2" NCoef="0" IVar="-1" Cut="0.0000000000000000e+00" cType="1" res="-7.3127583600580692e-03" rms="4.7125557065010071e-01" purity="5.5910545587539673e-01" nType="-99"/>
          <Node pos="r" depth="2" NCoef="0" IVar="5" Cut="5.7401782274246216e-01" cType="1" res="1.4045184943825006e-03" rms="3.8693630695343018e-01" purity="7.7740097045898438e-01" nType="0">
            <Node pos="l" depth="3" NCoef="0" IVar="-1" Cut="0.0000000000000000e+00" cType="1" res="2.2402631118893623e-02" rms="4.4198670983314514e-01" purity="6.9263136386871338e-01" nType="-99"/>
            <Node pos="r" depth="3" NCoef="0" IVar="-1" Cut="0.0000000000000000e+00" cType="1" res="1.1395051330327988e-01" rms="3.1067857146263123e-01" purity="8.8523524999618530e-01" nType="-99"/>
          </Node>
        </Node>
      </Node>
    </BinaryTree>
    <BinaryTree type="DecisionTree" boostWeight="1.0000000000000000e+00" itree="11">
      <Node pos="s" depth="0" NCoef="0" IVar="7" Cut="5.7489001750946045e-01" cType="1" res="1.9129860401153564e-01" rms="0.0000000000000000e+00" purity="5.0000000000000000e-01" nType="0">
        <Node pos="l" depth="1" NCoef="0" IVar="0" Cut="8.0000000000000000e+00" cType="1" res="-1.6491584479808807e-01" rms="4.1280514001846313e-01" purity="2.6169022917747498e-01" nType="0">
          <Node pos="l" depth="2" NCoef="0" IVar="-1" Cut="0.0000000000000000e+00" cType="1" res="-2.0434208214282990e-02" rms="3.2593235373497009e-01" purity="1.2299931049346924e-01" nType="-99"/>
          <Node pos="r" depth="2" NCoef="0" IVar="5" Cut="4.3341332674026489e-01" cType="1" res="1.5048820059746504e-03" rms="2.7123743295669556e-01" purity="3.6802726984024048e-01" nType="0">
            <Node pos="l" depth="3" NCoef="0" IVar="-1" Cut="0.0000000000000000e+00" cType="1" res="-2.1539753302931786e-02" rms="4.1303792595863342e-01" purity="2.3478759825229645e-01" nType="-99"/>
            <Node pos="r" depth="3" NCoef="0" IVar="-1" Cut="0.0000000000000000e+00" cType="1" res="-4.7419364564120770e-03" rms="4.8150497674942017e-01" purity="4.8058384656906128e-01" nType="-99"/>
          </Node>
        </Node>
        <Node pos="r" depth="1" NCoef="0" IVar="0" Cut="8.0000000000000000e+00" cType="1" res="-1.3184408657252789e-02" rms="4.3506652116775513e-01" purity="5.8554583787918091e-01" nType="0">
          <Node pos="l" depth="2" NCoef="0" IVar="5" Cut="6.6621637344360352e-01" cType="1" res="4.2566502094268799e-01" rms="4.9452605843544006e-01" purity="4.2574673891067505e-01" nType="0">
            <Node pos="l" depth="3" NCoef="0" IVar="-1" Cut="0.0000000000000000e+00" cType="1" res="-2.0675357431173325e-02" rms="4.3726402521133423e-01" purity="3.3833479881286621e-01" nType="-99"/>
            <Node pos="r" depth="3" NCoef="0" IVar="-1" Cut="0.0000000000000000e+00" cType="1" res="6.7836288362741470e-03" rms="4.4774493575096130e-01" purity="6.1474931240081787e-01" nType="-99"/>
          </Node>
          <Node pos="r" depth="2" NCoef="0" IVar="5" Cut="1.9552469253540039e-01" cType="1" res="0.0000000000000000e+00" rms="0.0000000000000000e+00" purity="6.9926005601882935e-01" nType="0">
            <Node pos="l" depth="3" NCoef="0" IVar="-1" Cut="0.0000000000000000e+00" cType="1" res="-1.1529190465807915e-02" rms="4.6991872787475586e-01" purity="4.7240597009658813e-01" nType="-99"/>
            <Node pos="r" depth="3" NCoef="0" IVar="-1" Cut="0.0000000000000000e+00" cType="1" res="2.6069046929478645e-02" rms="4.0357458591461182e-01" purity="7.4958598613739014e-01" nType="-99"/>
          </Node>
        </Node>
      </Node>
    </BinaryTree>
    <BinaryTree type="DecisionTree" boostWeight="1.0000000000000000e+00" itree="12">
      <Node pos="s" depth="0" NCoef="0" IVar="6" Cut="6.5131716430187225e-02" cType="1" res="1.8956974148750305e-01" rms="0.0000000000000000e+00" purity="5.0000000000000000e-01" nType="0">
        <Node pos="l" depth="1" NCoef="0" IVar="2" Cut="5.4520542144775391e+01" cType="1" res="1.9848737120628357e-01" rms="0.0000000000000000e+00" purity="3.8552278280258179e-01" nType="0">
          <Node pos="l" depth="2" NCoef="0" IVar="3" Cut="6.8380767822265625e+01" cType="1" res="5.2601046627387404e-04" rms="4.0119686722755432e-01" purity="2.9960054159164429e-01" nType="0">
            <Node pos="l" depth="3" NCoef="0" IVar="-1" Cut="0.0000000000000000e+00" cType="1" res="-2.3423301056027412e-02" rms="3.6138418316841125e-01" purity="2.0246669650077820e-01" nType="-99"/>
            <Node pos="r" depth="3" NCoef="0" IVar="-1" Cut="0.0000000000000000e+00" cType="1" res="-1.6058662906289101e-02" rms="4.2722183465957642e-01" purity="3.5933506488800049e-01" nType="-99"/>
          </Node>
          <Node pos="r" depth="2" NCoef="0" IVar="5" Cut="5.2623385190963745e-01" cType="1" res="2.0270556211471558e-01" rms="0.0000000000000000e+00" purity="5.1109153032302856e-01" nType="0">
            <Node pos="l" depth="3" NCoef="0" IVar="-1" Cut="0.0000000000000000e+00" cType="1" res="-2.6501109823584557e-02" rms="4.5101541280746460e-01" purity="3.8391354680061340e-01" nType="-99"/>
            <Node pos="r" depth="3" NCoef="0" IVar="-1" Cut="0.0000000000000000e+00" cType="1" res="3.3969685435295105e-02" rms="4.3633943796157837e-01" purity="6.5047585964202881e-01" nType="-99"/>
          </Node>
        </Node>
        <Node pos="r" depth="1" NCoef="0" IVar="5" Cut="3.8149526715278625e-01" cType="1" res="1.7852336168289185e-01" rms="0.0000000000000000e+00" purity="6.4590126276016235e-01" nType="0">
          <Node pos="l" depth="2" NCoef="0" IVar="2" Cut="5.3977912902832031e+01" cType="1" res="2.1042908728122711e-01" rms="0.0000000000000000e+00" purity="4.7434610128402710e-01" nType="0">
            <Node pos="l" depth="3" NCoef="0" IVar="-1" Cut="0.0000000000000000e+00" cType="1" res="-1.1837006546556950e-02" rms="4.4627270102500916e-01" purity="3.8004422187805176e-01" nType="-99"/>
            <Node pos="r" depth="3" NCoef="0" IVar="-1" Cut="0.0000000000000000e+00" cType="1" res="1.1138906702399254e-02" rms="4.5457449555397034e-01" purity="5.8473992347717285e-01" nType="-99"/>
          </Node>
          <Node pos="r" depth="2" NCoef="0" IVar="13" Cut="3.0667528152465820e+01" cType="1" res="1.6085061430931091e-01" rms="0.0000000000000000e+00" purity="7.4244552850723267e-01" nType="0">
            <Node pos="l" depth="3" NCoef="0" IVar="-1" Cut="0.0000000000000000e+00" cType="1" res="2.8781374916434288e-02" rms="3.7655863165855408e-01" purity="7.9246568679809570e-01" nType="-99"/>
            <Node pos="r" depth="3" NCoef="0" IVar="-1" Cut="0.0000000000000000e+00" cType="1" res="-6.9718509912490845e-03" rms="4.4342544674873352e-01" purity="5.8914023637771606e-01" nType="-99"/>
          </Node>
        </Node>
      </Node>
    </BinaryTree>
    <BinaryTree type="DecisionTree" boostWeight="1.0000000000000000e+00" itree="13">
      <Node pos="s" depth="0" NCoef="0" IVar="7" Cut="5.7489001750946045e-01" cType="1" res="1.8764035403728485e-01" rms="0.0000000000000000e+00" purity="5.0000000000000000e-01" nType="0">
        <Node pos="l" depth="1" NCoef="0" IVar="0" Cut="8.0000000000000000e+00" cType="1" res="-1.5342316031455994e-01" rms="4.1009053587913513e-01" purity="2.6169022917747498e-01" nType="0">
          <Node pos="l" depth="2" NCoef="0" IVar="-1" Cut="0.0000000000000000e+00" cType="1" res="-1.9562846049666405e-02" rms="3.2480528950691223e-01" purity="1.2299931049346924e-01" nType="-99"/>
          <Node pos="r" depth="2" NCoef="0" IVar="3" Cut="9.0429061889648438e+01" cType="1" res="1.5048820059746504e-03" rms="2.7123743295669556e-01" purity="3.6802726984024048e-01" nType="0">
            <Node pos="l" depth="3" NCoef="0" IVar="-1" Cut="0.0000000000000000e+00" cType="1" res="-1.8696552142500877e-02" rms="4.2886748909950256e-01" purity="2.9418680071830750e-01" nType="-99"/>
            <Node pos="r" depth="3" NCoef="0" IVar="-1" Cut="0.0000000000000000e+00" cType="1" res="-2.4943619500845671e-03" rms="4.6940541267395020e-01" purity="4.4677704572677612e-01" nType="-99"/>
          </Node>
        </Node>
        <Node pos="r" depth="1" NCoef="0" IVar="4" Cut="6.7582362890243530e-01" cType="1" res="1.8639655411243439e-01" rms="0.0000000000000000e+00" purity="5.8554583787918091e-01" nType="0">
          <Node pos="l" depth="2" NCoef="0" IVar="0" Cut="8.0000000000000000e+00" cType="1" res="-1.1403445154428482e-01" rms="4.3527829647064209e-01" purity="4.1460150480270386e-01" nType="0">
            <Node pos="l" depth="3" NCoef="0" IVar="-1" Cut="0.0000000000000000e+00" cType="1" res="-3.4574337303638458e-02" rms="3.9151117205619812e-01" purity="2.3151674866676331e-01" nType="-99"/>
            <Node pos="r" depth="3" NCoef="0" IVar="-1" Cut="0.0000000000000000e+00" cType="1" res="-1.3791416771709919e-02" rms="4.5455792546272278e-01" purity="5.4677248001098633e-01" nType="-99"/>
          </Node>
          <Node pos="r" depth="2" NCoef="0" IVar="9" Cut="-8.3371296525001526e-02" cType="1" res="1.8180020153522491e-01" rms="0.0000000000000000e+00" purity="6.3499391078948975e-01" nType="0">
            <Node pos="l" depth="3" NCoef="0" IVar="-1" Cut="0.0000000000000000e+00" cType="1" res="-1.6038630157709122e-02" rms="4.4879370927810669e-01" purity="4.8944479227066040e-01" nType="-99"/>
            <Node pos="r" depth="3" NCoef="0" IVar="-1" Cut="0.0000000000000000e+00" cType="1" res="1.2088317424058914e-02" rms="4.1352021694183350e-01" purity="6.9037884473800659e-01" nType="-99"/>
          </Node>
        </Node>
      </Node>
    </BinaryTree>
    <BinaryTree type="DecisionTree" boostWeight="1.0000000000000000e+00" itree="14">
      <Node pos="s" depth="0" NCoef="0" IVar="2" Cut="5.6601753234863281e+01" cType="1" res="1.8615952134132385e-01" rms="0.0000000000000000e+00" purity="5.0000000000000000e-01" nType="0">
        <Node pos="l" depth="1" NCoef="0" IVar="7" Cut="7.4571681022644043e-01" cType="1" res="2.8360568103380501e-04" rms="0.0000000000000000e+00" purity="4.2573267221450806e-01" nType="0">
          <Node pos="l" depth="2" NCoef="0" IVar="3" Cut="8.1731307983398438e+01" cType="1" res="4.3028156505897641e-04" rms="3.6990451812744141e-01" purity="3.1232294440269470e-01" nType="0">
            <Node pos="l" depth="3" NCoef="0" IVar="-1" Cut="0.0000000000000000e+00" cType="1" res="-1.9555676728487015e-02" rms="3.8434627652168274e-01" purity="2.4257528781890869e-01" nType="-99"/>
            <Node pos="r" depth="3" NCoef="0" IVar="-1" Cut="0.0000000000000000e+00" cType="1" res="-1.0672322474420071e-02" rms="4.4123902916908264e-01" purity="3.7754523754119873e-01" nType="-99"/>
          </Node>
          <Node pos="r" depth="2" NCoef="0" IVar="4" Cut="7.8685903549194336e-01" cType="1" res="8.3197240019217134e-04" rms="6.4413958787918091e-01" purity="6.4501637220382690e-01" nType="0">
            <Node pos="l" depth="3" NCoef="0" IVar="-1" Cut="0.0000000000000000e+00" cType="1" res="-1.6179440543055534e-02" rms="4.3906357884407043e-01" purity="4.6156874299049377e-01" nType="-99"/>
            <Node pos="r" depth="3" NCoef="0" IVar="-1" Cut="0.0000000000000000e+00" cType="1" res="1.6522420570254326e-02" rms="4.0294194221496582e-01" purity="7.3732519149780273e-01" nType="-99"/>
          </Node>
        </Node>
        <Node pos="r" depth="1" NCoef="0" IVar="8" Cut="4.1975805163383484e-01" cType="1" res="1.8033099174499512e-01" rms="0.0000000000000000e+00" purity="6.1966955661773682e-01" nType="0">
          <Node pos="l" depth="2" NCoef="0" IVar="5" Cut="4.2940753698348999e-01" cType="1" res="1.9453799724578857e-01" rms="0.0000000000000000e+00" purity="5.5899965763092041e-01" nType="0">
            <Node pos="l" depth="3" NCoef="0" IVar="-1" Cut="0.0000000000000000e+00" cType="1" res="-1.9814364612102509e-02" rms="4.5299607515335083e-01" purity="4.0985444188117981e-01" nType="-99"/>
            <Node pos="r" depth="3" NCoef="0" IVar="-1" Cut="0.0000000000000000e+00" cType="1" res="3.0753239989280701e-02" rms="4.2593225836753845e-01" purity="6.6823887825012207e-01" nType="-99"/>
          </Node>
          <Node pos="r" depth="2" NCoef="0" IVar="-1" Cut="0.0000000000000000e+00" cType="1" res="1.1148343235254288e-01" rms="3.4462320804595947e-01" purity="8.3275437355041504e-01" nType="-99"/>
        </Node>
      </Node>
    </BinaryTree>
    <BinaryTree type="DecisionTree" boostWeight="1.0000000000000000e+00" itree="15">
      <Node pos="s" depth="0" NCoef="0" IVar="7" Cut="6.4322078227996826e-01" cType="1" res="1.8414595723152161e-01" rms="0.0000000000000000e+00" purity="5.0000000000000000e-01" nType="0">
        <Node pos="l" depth="1" NCoef="0" IVar="0" Cut="8.0000000000000000e+00" cType="1" res="-1.1970804631710052e-01" rms="4.2180490493774414e-01" purity="3.1227701902389526e-01" nType="0">
          <Node pos="l" depth="2" NCoef="0" IVar="5" Cut="4.7691422700881958e-01" cType="1" res="0.0000000000000000e+00" rms="1.2058838270604610e-02" purity="1.5225011110305786e-01" nType="0">
            <Node pos="l" depth="3" NCoef="0" IVar="-1" Cut="0.0000000000000000e+00" cType="1" res="-2.3463152348995209e-02" rms="3.0053237080574036e-01" purity="1.0225679725408554e-01" nType="-99"/>
            <Node pos="r" depth="3" NCoef="0" IVar="-1" Cut="0.0000000000000000e+00" cType="1" res="-1.5578204765915871e-02" rms="3.8846412301063538e-01" purity="1.9773511588573456e-01" nType="-99"/>
          </Node>
          <Node pos="r" depth="2" NCoef="0" IVar="4" Cut="6.7987781763076782e-01" cType="1" res="9.5448258798569441e-04" rms="3.2582014799118042e-01" purity="4.2898690700531006e-01" nType="0">
            <Node pos="l" depth="3" NCoef="0" IVar="-1" Cut="0.0000000000000000e+00" cType="1" res="-2.3816794157028198e-02" rms="4.1765519976615906e-01" purity="2.8970196843147278e-01" nType="-99"/>
            <Node pos="r" depth="3" NCoef="0" IVar="-1" Cut="0.0000000000000000e+00" cType="1" res="-4.2404583655297756e-03" rms="4.6348378062248230e-01" purity="4.7108468413352966e-01" nType="-99"/>
          </Node>
        </Node>
        <Node pos="r" depth="1" NCoef="0" IVar="5" Cut="7.6195555925369263e-01" cType="1" res="1.7887724936008453e-01" rms="0.0000000000000000e+00" purity="6.2918972969055176e-01" nType="0">
          <Node pos="l" depth="2" NCoef="0" IVar="0" Cut="9.0000000000000000e+00" cType="1" res="-3.1686160713434219e-02" rms="4.3974107503890991e-01" purity="5.6611305475234985e-01" nType="0">
            <Node pos="l" depth="3" NCoef="0" IVar="-1" Cut="0.0000000000000000e+00" cType="1" res="-1.3111084699630737e-02" rms="4.4942525029182434e-01" purity="4.9869692325592041e-01" nType="-99"/>
            <Node pos="r" depth="3" NCoef="0" IVar="-1" Cut="0.0000000000000000e+00" cType="1" res="3.1009551137685776e-02" rms="3.9506572484970093e-01" purity="7.7090150117874146e-01" nType="-99"/>
          </Node>
          <Node pos="r" depth="2" NCoef="0" IVar="5" Cut="8.9748251438140869e-01" cType="1" res="0.0000000000000000e+00" rms="5.3883045911788940e-01" purity="8.0920606851577759e-01" nType="0">
            <Node pos="l" depth="3" NCoef="0" IVar="-1" Cut="0.0000000000000000e+00" cType="1" res="1.3514323160052299e-02" rms="3.8801464438438416e-01" purity="7.6069879531860352e-01" nType="-99"/>
            <Node pos="r" depth="3" NCoef="0" IVar="-1" Cut="0.0000000000000000e+00" cType="1" res="1.4958088099956512e-01" rms="3.1664848327636719e-01" purity="8.6666858196258545e-01" nType="-99"/>
          </Node>
        </Node>
      </Node>
    </BinaryTree>
    <BinaryTree type="DecisionTree" boostWeight="1.0000000000000000e+00" itree="16">
      <Node pos="s" depth="0" NCoef="0" IVar="7" Cut="7.7988219261169434e-01" cType="1" res="1.8224820494651794e-01" rms="0.0000000000000000e+00" purity="5.0000000000000000e-01" nType="0">
        <Node pos="l" depth="1" NCoef="0" IVar="0" Cut="8.0000000000000000e+00" cType="1" res="-8.5039809346199036e-02" rms="4.3189778923988342e-01" purity="4.0921658277511597e-01" nType="0">
          <Node pos="l" depth="2" NCoef="0" IVar="7" Cut="6.5783941745758057e-01" cType="1" res="0.0000000000000000e+00" rms="9.1801341623067856e-03" purity="2.3116593062877655e-01" nType="0">
            <Node pos="l" depth="3" NCoef="0" IVar="-1" Cut="0.0000000000000000e+00" cType="1" res="-1.8488179892301559e-02" rms="3.5300859808921814e-01" purity="1.5653721988201141e-01" nType="-99"/>
            <Node pos="r" depth="3" NCoef="0" IVar="-1" Cut="0.0000000000000000e+00" cType="1" res="-1.6289982944726944e-02" rms="4.5057311654090881e-01" purity="3.5906150937080383e-01" nType="-99"/>
          </Node>
          <Node pos="r" depth="2" NCoef="0" IVar="0" Cut="1.0000000000000000e+01" cType="1" res="-3.3985313028097153e-02" rms="4.4914844632148743e-01" purity="5.3384310007095337e-01" nType="0">
            <Node pos="l" depth="3" NCoef="0" IVar="-1" Cut="0.0000000000000000e+00" cType="1" res="-1.1087773367762566e-02" rms="4.5247480273246765e-01" purity="4.9256467819213867e-01" nType="-99"/>
            <Node pos="r" depth="3" NCoef="0" IVar="-1" Cut="0.0000000000000000e+00" cType="1" res="5.4681375622749329e-02" rms="4.0622037649154663e-01" purity="7.5624096393585205e-01" nType="-99"/>
          </Node>
        </Node>
        <Node pos="r" depth="1" NCoef="0" IVar="4" Cut="7.6169055700302124e-01" cType="1" res="6.2603305559605360e-04" rms="5.6258690357208252e-01" purity="7.3397904634475708e-01" nType="0">
          <Node pos="l" depth="2" NCoef="0" IVar="-1" Cut="0.0000000000000000e+00" cType="1" res="-7.5392825528979301e-03" rms="4.3245166540145874e-01" purity="5.7977473735809326e-01" nType="-99"/>
          <Node pos="r" depth="2" NCoef="0" IVar="13" Cut="1.6665981292724609e+01" cType="1" res="0.0000000000000000e+00" rms="0.0000000000000000e+00" purity="8.0498838424682617e-01" nType="0">
            <Node pos="l" depth="3" NCoef="0" IVar="-1" Cut="0.0000000000000000e+00" cType="1" res="5.5233303457498550e-02" rms="3.2392328977584839e-01" purity="8.5859847068786621e-01" nType="-99"/>
            <Node pos="r" depth="3" NCoef="0" IVar="-1" Cut="0.0000000000000000e+00" cType="1" res="1.4091166667640209e-02" rms="4.1540455818176270e-01" purity="7.2785818576812744e-01" nType="-99"/>
          </Node>
        </Node>
      </Node>
    </BinaryTree>
    <BinaryTree type="DecisionTree" boostWeight="1.0000000000000000e+00" itree="17">
      <Node pos="s" depth="0" NCoef="0" IVar="7" Cut="5.7489001750946045e-01" cType="1" res="1.8070097267627716e-01" rms="0.0000000000000000e+00" purity="5.0000000000000000e-01" nType="0">
        <Node pos="l" depth="1" NCoef="0" IVar="0" Cut="8.0000000000000000e+00" cType="1" res="-1.3534526526927948e-01" rms="4.0461000800132751e-01" purity="2.6169022917747498e-01" nType="0">
          <Node pos="l" depth="2" NCoef="0" IVar="-1" Cut="0.0000000000000000e+00" cType="1" res="-1.7842562869191170e-02" rms="3.2394766807556152e-01" purity="1.2299931049346924e-01" nType="-99"/>
          <Node pos="r" depth="2" NCoef="0" IVar="3" Cut="9.0429061889648438e+01" cType="1" res="1.5048820059746504e-03" rms="2.7123743295669556e-01" purity="3.6802726984024048e-01" nType="0">
            <Node pos="l" depth="3" NCoef="0" IVar="-1" Cut="0.0000000000000000e+00" cType="1" res="-1.7046976834535599e-02" rms="4.2365506291389465e-01" purity="2.9418680071830750e-01" nType="-99"/>
            <Node pos="r" depth="3" NCoef="0" IVar="-1" Cut="0.0000000000000000e+00" cType="1" res="-2.6078918017446995e-03" rms="4.6625888347625732e-01" purity="4.4677704572677612e-01" nType="-99"/>
          </Node>
        </Node>
        <Node pos="r" depth="1" NCoef="0" IVar="4" Cut="6.7582362890243530e-01" cType="1" res="1.8041606247425079e-01" rms="0.0000000000000000e+00" purity="5.8554583787918091e-01" nType="0">
          <Node pos="l" depth="2" NCoef="0" IVar="0" Cut="8.0000000000000000e+00" cType="1" res="-1.0273028165102005e-01" rms="4.2828974127769470e-01" purity="4.1460150480270386e-01" nType="0">
            <Node pos="l" depth="3" NCoef="0" IVar="-1" Cut="0.0000000000000000e+00" cType="1" res="-3.1097741797566414e-02" rms="3.8806354999542236e-01" purity="2.3151674866676331e-01" nType="-99"/>
            <Node pos="r" depth="3" NCoef="0" IVar="-1" Cut="0.0000000000000000e+00" cType="1" res="-1.4006444253027439e-02" rms="4.4855567812919617e-01" purity="5.4677248001098633e-01" nType="-99"/>
          </Node>
          <Node pos="r" depth="2" NCoef="0" IVar="9" Cut="-8.3371296525001526e-02" cType="1" res="1.7653848230838776e-01" rms="0.0000000000000000e+00" purity="6.3499391078948975e-01" nType="0">
            <Node pos="l" depth="3" NCoef="0" IVar="-1" Cut="0.0000000000000000e+00" cType="1" res="-1.5166301280260086e-02" rms="4.4329062104225159e-01" purity="4.8944479227066040e-01" nType="-99"/>
            <Node pos="r" depth="3" NCoef="0" IVar="-1" Cut="0.0000000000000000e+00" cType="1" res="7.4961055070161819e-03" rms="4.0863600373268127e-01" purity="6.9037884473800659e-01" nType="-99"/>
          </Node>
        </Node>
      </Node>
    </BinaryTree>
    <BinaryTree type="DecisionTree" boostWeight="1.0000000000000000e+00" itree="18">
      <Node pos="s" depth="0" NCoef="0" IVar="7" Cut="5.7489001750946045e-01" cType="1" res="1.7960593104362488e-01" rms="0.0000000000000000e+00" purity="5.0000000000000000e-01" nType="0">
        <Node pos="l" depth="1" NCoef="0" IVar="0" Cut="8.0000000000000000e+00" cType="1" res="-1.2928871810436249e-01" rms="4.0410026907920837e-01" purity="2.6169022917747498e-01" nType="0">
          <Node pos="l" depth="2" NCoef="0" IVar="-1" Cut="0.0000000000000000e+00" cType="1" res="-1.7383476719260216e-02" rms="3.2398915290832520e-01" purity="1.2299931049346924e-01" nType="-99"/>
          <Node pos="r" depth="2" NCoef="0" IVar="5" Cut="3.8626739382743835e-01" cType="1" res="1.5048820059746504e-03" rms="2.7123743295669556e-01" purity="3.6802726984024048e-01" nType="0">
            <Node pos="l" depth="3" NCoef="0" IVar="-1" Cut="0.0000000000000000e+00" cType="1" res="-1.8592612817883492e-02" rms="4.0346038341522217e-01" purity="2.2576177120208740e-01" nType="-99"/>
            <Node pos="r" depth="3" NCoef="0" IVar="-1" Cut="0.0000000000000000e+00" cType="1" res="-4.1023646481335163e-03" rms="4.7140231728553772e-01" purity="4.6701920032501221e-01" nType="-99"/>
          </Node>
        </Node>
        <Node pos="r" depth="1" NCoef="0" IVar="2" Cut="5.6601753234863281e+01" cType="1" res="1.7965303361415863e-01" rms="0.0000000000000000e+00" purity="5.8554583787918091e-01" nType="0">
          <Node pos="l" depth="2" NCoef="0" IVar="3" Cut="8.1308380126953125e+01" cType="1" res="3.9842154365032911e-04" rms="5.8140528202056885e-01" purity="5.1732194423675537e-01" nType="0">
            <Node pos="l" depth="3" NCoef="0" IVar="-1" Cut="0.0000000000000000e+00" cType="1" res="-1.7170540988445282e-02" rms="4.1941872239112854e-01" purity="4.2704844474792480e-01" nType="-99"/>
            <Node pos="r" depth="3" NCoef="0" IVar="-1" Cut="0.0000000000000000e+00" cType="1" res="-2.0203126769047230e-04" rms="4.3230071663856506e-01" purity="5.9516102075576782e-01" nType="-99"/>
          </Node>
          <Node pos="r" depth="2" NCoef="0" IVar="4" Cut="6.6836565732955933e-01" cType="1" res="1.6728901863098145e-01" rms="0.0000000000000000e+00" purity="6.8657201528549194e-01" nType="0">
            <Node pos="l" depth="3" NCoef="0" IVar="-1" Cut="0.0000000000000000e+00" cType="1" res="-1.8953436985611916e-02" rms="4.4292470812797546e-01" purity="5.3590047359466553e-01" nType="-99"/>
            <Node pos="r" depth="3" NCoef="0" IVar="-1" Cut="0.0000000000000000e+00" cType="1" res="3.5105828195810318e-02" rms="3.9583873748779297e-01" purity="7.2970098257064819e-01" nType="-99"/>
          </Node>
        </Node>
      </Node>
    </BinaryTree>
    <BinaryTree type="DecisionTree" boostWeight="1.0000000000000000e+00" itree="19">
      <Node pos="s" depth="0" NCoef="0" IVar="0" Cut="8.0000000000000000e+00" cType="1" res="-4.7885544598102570e-02" rms="4.2005622386932373e-01" purity="5.0000000000000000e-01" nType="0">
        <Node pos="l" depth="1" NCoef="0" IVar="7" Cut="6.7738610506057739e-01" cType="1" res="5.9443442296469584e-05" rms="7.7097280882298946e-03" purity="3.4322640299797058e-01" nType="0">
          <Node pos="l" depth="2" NCoef="0" IVar="3" Cut="1.0289552307128906e+02" cType="1" res="0.0000000000000000e+00" rms="6.3275784254074097e-01" purity="1.6735500097274780e-01" nType="0">
            <Node pos="l" depth="3" NCoef="0" IVar="-1" Cut="0.0000000000000000e+00" cType="1" res="-1.8035659566521645e-02" rms="3.1435075402259827e-01" purity="1.2034646421670914e-01" nType="-99"/>
            <Node pos="r" depth="3" NCoef="0" IVar="-1" Cut="0.0000000000000000e+00" cType="1" res="-1.5010387636721134e-02" rms="4.0179771184921265e-01" purity="2.2546286880970001e-01" nType="-99"/>
          </Node>
          <Node pos="r" depth="2" NCoef="0" IVar="4" Cut="9.1706627607345581e-01" cType="1" res="3.8004541397094727e-01" rms="0.0000000000000000e+00" purity="5.1016467809677124e-01" nType="0">
            <Node pos="l" depth="3" NCoef="0" IVar="-1" Cut="0.0000000000000000e+00" cType="1" res="-2.3434774950146675e-02" rms="4.3540111184120178e-01" purity="3.7168273329734802e-01" nType="-99"/>
            <Node pos="r" depth="3" NCoef="0" IVar="-1" Cut="0.0000000000000000e+00" cType="1" res="2.2940139751881361e-03" rms="4.4537079334259033e-01" purity="6.0587704181671143e-01" nType="-99"/>
          </Node>
        </Node>
        <Node pos="r" depth="1" NCoef="0" IVar="7" Cut="4.8684743046760559e-01" cType="1" res="1.7852109670639038e-01" rms="0.0000000000000000e+00" purity="6.1379063129425049e-01" nType="0">
          <Node pos="l" depth="2" NCoef="0" IVar="-1" Cut="0.0000000000000000e+00" cType="1" res="-1.7088627442717552e-02" rms="4.3160089850425720e-01" purity="2.9486823081970215e-01" nType="-99"/>
          <Node pos="r" depth="2" NCoef="0" IVar="5" Cut="1.9553740322589874e-01" cType="1" res="1.7532429099082947e-01" rms="0.0000000000000000e+00" purity="6.5245735645294189e-01" nType="0">
            <Node pos="l" depth="3" NCoef="0" IVar="-1" Cut="0.0000000000000000e+00" cType="1" res="-1.3107441365718842e-02" rms="4.4584944844245911e-01" purity="4.1452160477638245e-01" nType="-99"/>
            <Node pos="r" depth="3" NCoef="0" IVar="-1" Cut="0.0000000000000000e+00" cType="1" res="1.0058491490781307e-02" rms="4.0962401032447815e-01" purity="7.0771872997283936e-01" nType="-99"/>
          </Node>
        </Node>
      </Node>
    </BinaryTree>
    <BinaryTree type="DecisionTree" boostWeight="1.0000000000000000e+00" itree="20">
      <Node pos="s" depth="0" NCoef="0" IVar="7" Cut="7.7988219261169434e-01" cType="1" res="1.7752142250537872e-01" rms="0.0000000000000000e+00" purity="5.0000000000000000e-01" nType="0">
        <Node pos="l" depth="1" NCoef="0" IVar="0" Cut="8.0000000000000000e+00" cType="1" res="-7.4684791266918182e-02" rms="4.2739024758338928e-01" purity="4.0921658277511597e-01" nType="0">
          <Node pos="l" depth="2" NCoef="0" IVar="7" Cut="6.5783941745758057e-01" cType="1" res="8.4274855908006430e-05" rms="9.1797467321157455e-03" purity="2.3116593062877655e-01" nType="0">
            <Node pos="l" depth="3" NCoef="0" IVar="-1" Cut="0.0000000000000000e+00" cType="1" res="-1.6711084172129631e-02" rms="3.5174247622489929e-01" purity="1.5653721988201141e-01" nType="-99"/>
            <Node pos="r" depth="3" NCoef="0" IVar="-1" Cut="0.0000000000000000e+00" cType="1" res="-1.3938166201114655e-02" rms="4.4758683443069458e-01" purity="3.5906150937080383e-01" nType="-99"/>
          </Node>
          <Node pos="r" depth="2" NCoef="0" IVar="4" Cut="8.1842631101608276e-01" cType="1" res="1.9949203729629517e-01" rms="0.0000000000000000e+00" purity="5.3384310007095337e-01" nType="0">
            <Node pos="l" depth="3" NCoef="0" IVar="-1" Cut="0.0000000000000000e+00" cType="1" res="-1.8635982647538185e-02" rms="4.4141945242881775e-01" purity="4.2960408329963684e-01" nType="-99"/>
            <Node pos="r" depth="3" NCoef="0" IVar="-1" Cut="0.0000000000000000e+00" cType="1" res="7.5412826845422387e-04" rms="4.4347390532493591e-01" purity="5.8720821142196655e-01" nType="-99"/>
          </Node>
        </Node>
        <Node pos="r" depth="1" NCoef="0" IVar="5" Cut="2.4008807539939880e-01" cType="1" res="6.2603305559605360e-04" rms="5.6258690357208252e-01" purity="7.3397904634475708e-01" nType="0">
          <Node pos="l" depth="2" NCoef="0" IVar="-1" Cut="0.0000000000000000e+00" cType="1" res="-9.1621391475200653e-03" rms="4.5676091313362122e-01" purity="5.0518536567687988e-01" nType="-99"/>
          <Node pos="r" depth="2" NCoef="0" IVar="13" Cut="1.8543251037597656e+01" cType="1" res="7.9400633694604039e-04" rms="5.8933895826339722e-01" purity="7.9536747932434082e-01" nType="0">
            <Node pos="l" depth="3" NCoef="0" IVar="-1" Cut="0.0000000000000000e+00" cType="1" res="6.7334875464439392e-02" rms="3.2679280638694763e-01" purity="8.5869020223617554e-01" nType="-99"/>
            <Node pos="r" depth="3" NCoef="0" IVar="-1" Cut="0.0000000000000000e+00" cType="1" res="2.2885883226990700e-03" rms="4.1004875302314758e-01" purity="6.9965618848800659e-01" nType="-99"/>
          </Node>
        </Node>
      </Node>
    </BinaryTree>
    <BinaryTree type="DecisionTree" boostWeight="1.0000000000000000e+00" itree="21">
      <Node pos="s" depth="0" NCoef="0" IVar="6" Cut="2.1853752434253693e-02" cType="1" res="1.7634977400302887e-01" rms="0.0000000000000000e+00" purity="5.0000000000000000e-01" nType="0">
        <Node pos="l" depth="1" NCoef="0" IVar="3" Cut="1.0188951873779297e+02" cType="1" res="1.0291243670508265e-03" rms="2.3448579013347626e-01" purity="2.6771935820579529e-01" nType="0">
          <Node pos="l" depth="2" NCoef="0" IVar="-1" Cut="0.0000000000000000e+00" cType="1" res="-2.7151554822921753e-02" rms="3.6017265915870667e-01" purity="1.9705517590045929e-01" nType="-99"/>
          <Node pos="r" depth="2" NCoef="0" IVar="-1" Cut="0.0000000000000000e+00" cType="1" res="-1.5461120754480362e-02" rms="4.2947322130203247e-01" purity="3.6884227395057678e-01" nType="-99"/>
        </Node>
        <Node pos="r" depth="1" NCoef="0" IVar="5" Cut="3.8175222277641296e-01" cType="1" res="1.7641784250736237e-01" rms="0.0000000000000000e+00" purity="5.4759156703948975e-01" nType="0">
          <Node pos="l" depth="2" NCoef="0" IVar="0" Cut="9.0000000000000000e+00" cType="1" res="-7.9390235245227814e-02" rms="4.3282663822174072e-01" purity="3.8927617669105530e-01" nType="0">
            <Node pos="l" depth="3" NCoef="0" IVar="-1" Cut="0.0000000000000000e+00" cType="1" res="-1.4236371032893658e-02" rms="4.2021763324737549e-01" purity="3.1666889786720276e-01" nType="-99"/>
            <Node pos="r" depth="3" NCoef="0" IVar="-1" Cut="0.0000000000000000e+00" cType="1" res="4.7789346426725388e-03" rms="4.5799547433853149e-01" purity="6.1702466011047363e-01" nType="-99"/>
          </Node>
          <Node pos="r" depth="2" NCoef="0" IVar="10" Cut="2.4467074584960938e+02" cType="1" res="1.6687044501304626e-01" rms="0.0000000000000000e+00" purity="6.3895750045776367e-01" nType="0">
            <Node pos="l" depth="3" NCoef="0" IVar="-1" Cut="0.0000000000000000e+00" cType="1" res="8.1852721050381660e-03" rms="3.9915886521339417e-01" purity="6.9023197889328003e-01" nType="-99"/>
            <Node pos="r" depth="3" NCoef="0" IVar="-1" Cut="0.0000000000000000e+00" cType="1" res="-1.1376667767763138e-02" rms="4.1999536752700806e-01" purity="5.4785090684890747e-01" nType="-99"/>
          </Node>
        </Node>
      </Node>
    </BinaryTree>
    <BinaryTree type="DecisionTree" boostWeight="1.0000000000000000e+00" itree="22">
      <Node pos="s" depth="0" NCoef="0" IVar="2" Cut="5.6601753234863281e+01" cType="1" res="1.7539951205253601e-01" rms="0.0000000000000000e+00" purity="5.0000000000000000e-01" nType="0">
        <Node pos="l" depth="1" NCoef="0" IVar="3" Cut="8.1308380126953125e+01" cType="1" res="2.8360568103380501e-04" rms="5.2888196706771851e-01" purity="4.2573267221450806e-01" nType="0">
          <Node pos="l" depth="2" NCoef="0" IVar="6" Cut="5.6711733341217041e-02" cType="1" res="5.9825443895533681e-04" rms="4.2243388295173645e-01" purity="3.4331259131431580e-01" nType="0">
            <Node pos="l" depth="3" NCoef="0" IVar="-1" Cut="0.0000000000000000e+00" cType="1" res="-1.9034150987863541e-02" rms="3.6006376147270203e-01" purity="2.1066710352897644e-01" nType="-99"/>
            <Node pos="r" depth="3" NCoef="0" IVar="-1" Cut="0.0000000000000000e+00" cType="1" res="-9.7993090748786926e-03" rms="4.2409729957580566e-01" purity="4.9648711085319519e-01" nType="-99"/>
          </Node>
          <Node pos="r" depth="2" NCoef="0" IVar="10" Cut="2.3290216064453125e+02" cType="1" res="5.3923093946650624e-04" rms="5.4832422733306885e-01" purity="5.0002115964889526e-01" nType="0">
            <Node pos="l" depth="3" NCoef="0" IVar="-1" Cut="0.0000000000000000e+00" cType="1" res="3.3827265724539757e-03" rms="4.2041370272636414e-01" purity="5.8931225538253784e-01" nType="-99"/>
            <Node pos="r" depth="3" NCoef="0" IVar="-1" Cut="0.0000000000000000e+00" cType="1" res="-1.6004754230380058e-02" rms="4.2467528581619263e-01" purity="3.7101238965988159e-01" nType="-99"/>
          </Node>
        </Node>
        <Node pos="r" depth="1" NCoef="0" IVar="0" Cut="1.0000000000000000e+01" cType="1" res="1.1427650228142738e-02" rms="4.1516342759132385e-01" purity="6.1966955661773682e-01" nType="0">
          <Node pos="l" depth="2" NCoef="0" IVar="5" Cut="1.9187407195568085e-01" cType="1" res="4.6869871020317078e-01" rms="6.0185939073562622e-01" purity="5.8300030231475830e-01" nType="0">
            <Node pos="l" depth="3" NCoef="0" IVar="-1" Cut="0.0000000000000000e+00" cType="1" res="-2.2553054615855217e-02" rms="4.3055552244186401e-01" purity="3.5146445035934448e-01" nType="-99"/>
            <Node pos="r" depth="3" NCoef="0" IVar="-1" Cut="0.0000000000000000e+00" cType="1" res="9.2526851221919060e-03" rms="4.1692209243774414e-01" purity="6.3453286886215210e-01" nType="-99"/>
          </Node>
          <Node pos="r" depth="2" NCoef="0" IVar="-1" Cut="0.0000000000000000e+00" cType="1" res="8.9560970664024353e-02" rms="3.6976206302642822e-01" purity="8.1323713064193726e-01" nType="-99"/>
        </Node>
      </Node>
    </BinaryTree>
    <BinaryTree type="DecisionTree" boostWeight="1.0000000000000000e+00" itree="23">
      <Node pos="s" depth="0" NCoef="0" IVar="6" Cut="8.6770698428153992e-02" cType="1" res="1.7426060140132904e-01" rms="0.0000000000000000e+00" purity="5.0000000000000000e-01" nType="0">
        <Node pos="l" depth="1" NCoef="0" IVar="5" Cut="8.5714679956436157e-01" cType="1" res="1.8159174919128418e-01" rms="0.0000000000000000e+00" purity="4.1681563854217529e-01" nType="0">
          <Node pos="l" depth="2" NCoef="0" IVar="0" Cut="8.0000000000000000e+00" cType="1" res="-8.8027149438858032e-02" rms="4.1907250881195068e-01" purity="3.7629705667495728e-01" nType="0">
            <Node pos="l" depth="3" NCoef="0" IVar="-1" Cut="0.0000000000000000e+00" cType="1" res="-1.7488040030002594e-02" rms="3.8276764750480652e-01" purity="2.3700530827045441e-01" nType="-99"/>
            <Node pos="r" depth="3" NCoef="0" IVar="-1" Cut="0.0000000000000000e+00" cType="1" res="-1.0408702306449413e-02" rms="4.4409692287445068e-01" purity="4.9982413649559021e-01" nType="-99"/>
          </Node>
          <Node pos="r" depth="2" NCoef="0" IVar="-1" Cut="0.0000000000000000e+00" cType="1" res="1.1780920438468456e-02" rms="4.1144704818725586e-01" purity="6.5903115272521973e-01" nType="-99"/>
        </Node>
        <Node pos="r" depth="1" NCoef="0" IVar="13" Cut="1.5333860397338867e+01" cType="1" res="1.5878689289093018e-01" rms="0.0000000000000000e+00" purity="6.8115735054016113e-01" nType="0">
          <Node pos="l" depth="2" NCoef="0" IVar="3" Cut="8.0426315307617188e+01" cType="1" res="1.3906247913837433e-01" rms="0.0000000000000000e+00" purity="7.6818495988845825e-01" nType="0">
            <Node pos="l" depth="3" NCoef="0" IVar="-1" Cut="0.0000000000000000e+00" cType="1" res="-1.7023535910993814e-03" rms="4.0910384058952332e-01" purity="6.7559748888015747e-01" nType="-99"/>
            <Node pos="r" depth="3" NCoef="0" IVar="-1" Cut="0.0000000000000000e+00" cType="1" res="3.9668515324592590e-02" rms="3.3342283964157104e-01" purity="8.2974445819854736e-01" nType="-99"/>
          </Node>
          <Node pos="r" depth="2" NCoef="0" IVar="5" Cut="3.8147267699241638e-01" cType="1" res="1.8020977079868317e-01" rms="0.0000000000000000e+00" purity="5.8676457405090332e-01" nType="0">
            <Node pos="l" depth="3" NCoef="0" IVar="-1" Cut="0.0000000000000000e+00" cType="1" res="-1.3073223643004894e-02" rms="4.3942084908485413e-01" purity="4.2404401302337646e-01" nType="-99"/>
            <Node pos="r" depth="3" NCoef="0" IVar="-1" Cut="0.0000000000000000e+00" cType="1" res="4.6785469166934490e-03" rms="4.1066944599151611e-01" purity="6.9363325834274292e-01" nType="-99"/>
          </Node>
        </Node>
      </Node>
    </BinaryTree>
    <BinaryTree type="DecisionTree" boostWeight="1.0000000000000000e+00" itree="24">
      <Node pos="s" depth="0" NCoef="0" IVar="7" Cut="4.7239395976066589e-01" cType="1" res="1.7325825989246368e-01" rms="0.0000000000000000e+00" purity="5.0000000000000000e-01" nType="0">
        <Node pos="l" depth="1" NCoef="0" IVar="-1" Cut="0.0000000000000000e+00" cType="1" res="-1.6746083274483681e-02" rms="3.6198520660400391e-01" purity="1.8932794034481049e-01" nType="-99"/>
        <Node pos="r" depth="1" NCoef="0" IVar="5" Cut="3.8177764415740967e-01" cType="1" res="1.7505235970020294e-01" rms="0.0000000000000000e+00" purity="5.3309118747711182e-01" nType="0">
          <Node pos="l" depth="2" NCoef="0" IVar="7" Cut="7.8966742753982544e-01" cType="1" res="1.8665477633476257e-01" rms="0.0000000000000000e+00" purity="3.7094897031784058e-01" nType="0">
            <Node pos="l" depth="3" NCoef="0" IVar="-1" Cut="0.0000000000000000e+00" cType="1" res="-1.5552472323179245e-02" rms="4.1541329026222229e-01" purity="3.0084526538848877e-01" nType="-99"/>
            <Node pos="r" depth="3" NCoef="0" IVar="-1" Cut="0.0000000000000000e+00" cType="1" res="2.6291194371879101e-03" rms="4.4238936901092529e-01" purity="5.7906460762023926e-01" nType="-99"/>
          </Node>
          <Node pos="r" depth="2" NCoef="0" IVar="4" Cut="8.1842631101608276e-01" cType="1" res="1.6823913156986237e-01" rms="0.0000000000000000e+00" purity="6.3085371255874634e-01" nType="0">
            <Node pos="l" depth="3" NCoef="0" IVar="-1" Cut="0.0000000000000000e+00" cType="1" res="-1.2310076504945755e-02" rms="4.2228636145591736e-01" purity="5.2981787919998169e-01" nType="-99"/>
            <Node pos="r" depth="3" NCoef="0" IVar="-1" Cut="0.0000000000000000e+00" cType="1" res="7.6559609733521938e-03" rms="4.0216335654258728e-01" purity="6.7894136905670166e-01" nType="-99"/>
          </Node>
        </Node>
      </Node>
    </BinaryTree>
    <BinaryTree type="DecisionTree" boostWeight="1.0000000000000000e+00" itree="25">
      <Node pos="s" depth="0" NCoef="0" IVar="0" Cut="8.0000000000000000e+00" cType="1" res="-3.8176719099283218e-02" rms="4.1393458843231201e-01" purity="5.0000000000000000e-01" nType="0">
        <Node pos="l" depth="1" NCoef="0" IVar="7" Cut="6.7738610506057739e-01" cType="1" res="5.9443442296469584e-05" rms="0.0000000000000000e+00" purity="3.4322640299797058e-01" nType="0">
          <Node pos="l" depth="2" NCoef="0" IVar="3" Cut="1.0289552307128906e+02" cType="1" res="1.2206783867441118e-04" rms="1.1047757230699062e-02" purity="1.6735500097274780e-01" nType="0">
            <Node pos="l" depth="3" NCoef="0" IVar="-1" Cut="0.0000000000000000e+00" cType="1" res="-1.6136705875396729e-02" rms="3.1264299154281616e-01" purity="1.2034646421670914e-01" nType="-99"/>
            <Node pos="r" depth="3" NCoef="0" IVar="-1" Cut="0.0000000000000000e+00" cType="1" res="-1.2311007827520370e-02" rms="3.9907532930374146e-01" purity="2.2546286880970001e-01" nType="-99"/>
          </Node>
          <Node pos="r" depth="2" NCoef="0" IVar="4" Cut="9.1706627607345581e-01" cType="1" res="1.1586750042624772e-04" rms="0.0000000000000000e+00" purity="5.1016467809677124e-01" nType="0">
            <Node pos="l" depth="3" NCoef="0" IVar="-1" Cut="0.0000000000000000e+00" cType="1" res="-1.8942134454846382e-02" rms="4.3158465623855591e-01" purity="3.7168273329734802e-01" nType="-99"/>
            <Node pos="r" depth="3" NCoef="0" IVar="-1" Cut="0.0000000000000000e+00" cType="1" res="2.2897676099091768e-03" rms="4.4043654203414917e-01" purity="6.0587704181671143e-01" nType="-99"/>
          </Node>
        </Node>
        <Node pos="r" depth="1" NCoef="0" IVar="7" Cut="4.8684743046760559e-01" cType="1" res="1.7442810535430908e-01" rms="0.0000000000000000e+00" purity="6.1379063129425049e-01" nType="0">
          <Node pos="l" depth="2" NCoef="0" IVar="-1" Cut="0.0000000000000000e+00" cType="1" res="-1.4217508956789970e-02" rms="4.2742693424224854e-01" purity="2.9486823081970215e-01" nType="-99"/>
          <Node pos="r" depth="2" NCoef="0" IVar="4" Cut="6.7582362890243530e-01" cType="1" res="1.7196488380432129e-01" rms="0.0000000000000000e+00" purity="6.5245735645294189e-01" nType="0">
            <Node pos="l" depth="3" NCoef="0" IVar="-1" Cut="0.0000000000000000e+00" cType="1" res="-1.1403509415686131e-02" rms="4.3525147438049316e-01" purity="4.9003100395202637e-01" nType="-99"/>
            <Node pos="r" depth="3" NCoef="0" IVar="-1" Cut="0.0000000000000000e+00" cType="1" res="8.7723713368177414e-03" rms="4.0663900971412659e-01" purity="7.0076417922973633e-01" nType="-99"/>
          </Node>
        </Node>
      </Node>
    </BinaryTree>
    <BinaryTree type="DecisionTree" boostWeight="1.0000000000000000e+00" itree="26">
      <Node pos="s" depth="0" NCoef="0" IVar="7" Cut="8.1404757499694824e-01" cType="1" res="1.7191985249519348e-01" rms="0.0000000000000000e+00" purity="5.0000000000000000e-01" nType="0">
        <Node pos="l" depth="1" NCoef="0" IVar="0" Cut="8.0000000000000000e+00" cType="1" res="-5.5689796805381775e-02" rms="4.2021408677101135e-01" purity="4.3438771367073059e-01" nType="0">
          <Node pos="l" depth="2" NCoef="0" IVar="5" Cut="7.1444767713546753e-01" cType="1" res="2.5591057538986206e-01" rms="4.3654760718345642e-01" purity="2.5606405735015869e-01" nType="0">
            <Node pos="l" depth="3" NCoef="0" IVar="-1" Cut="0.0000000000000000e+00" cType="1" res="-1.6331985592842102e-02" rms="3.7524574995040894e-01" purity="2.0658308267593384e-01" nType="-99"/>
            <Node pos="r" depth="3" NCoef="0" IVar="-1" Cut="0.0000000000000000e+00" cType="1" res="-6.2740533612668514e-03" rms="4.3954971432685852e-01" purity="4.0128806233406067e-01" nType="-99"/>
          </Node>
          <Node pos="r" depth="2" NCoef="0" IVar="5" Cut="3.8462612032890320e-01" cType="1" res="0.0000000000000000e+00" rms="3.0218068510293961e-02" purity="5.5921256542205811e-01" nType="0">
            <Node pos="l" depth="3" NCoef="0" IVar="-1" Cut="0.0000000000000000e+00" cType="1" res="-1.2770648114383221e-02" rms="4.4471353292465210e-01" purity="3.9779859781265259e-01" nType="-99"/>
            <Node pos="r" depth="3" NCoef="0" IVar="-1" Cut="0.0000000000000000e+00" cType="1" res="3.3298581838607788e-03" rms="4.2389196157455444e-01" purity="6.6024434566497803e-01" nType="-99"/>
          </Node>
        </Node>
        <Node pos="r" depth="1" NCoef="0" IVar="3" Cut="8.2306861877441406e+01" cType="1" res="8.3823758177459240e-04" rms="5.6268429756164551e-01" purity="7.4866592884063721e-01" nType="0">
          <Node pos="l" depth="2" NCoef="0" IVar="-1" Cut="0.0000000000000000e+00" cType="1" res="-1.4708283124491572e-03" rms="4.0157508850097656e-01" purity="6.3710832595825195e-01" nType="-99"/>
          <Node pos="r" depth="2" NCoef="0" IVar="2" Cut="5.4522865295410156e+01" cType="1" res="1.3887276872992516e-03" rms="5.3523147106170654e-01" purity="8.2192844152450562e-01" nType="0">
            <Node pos="l" depth="3" NCoef="0" IVar="-1" Cut="0.0000000000000000e+00" cType="1" res="2.5889283046126366e-02" rms="3.8595277070999146e-01" purity="7.7634358406066895e-01" nType="-99"/>
            <Node pos="r" depth="3" NCoef="0" IVar="-1" Cut="0.0000000000000000e+00" cType="1" res="1.3329613208770752e-01" rms="3.3127766847610474e-01" purity="8.6039853096008301e-01" nType="-99"/>
          </Node>
        </Node>
      </Node>
    </BinaryTree>
    <BinaryTree type="DecisionTree" boostWeight="1.0000000000000000e+00" itree="27">
      <Node pos="s" depth="0" NCoef="0" IVar="7" Cut="4.7239395976066589e-01" cType="1" res="1.7093634605407715e-01" rms="0.0000000000000000e+00" purity="5.0000000000000000e-01" nType="0">
        <Node pos="l" depth="1" NCoef="0" IVar="-1" Cut="0.0000000000000000e+00" cType="1" res="-1.5487532131373882e-02" rms="3.6174890398979187e-01" purity="1.8932794034481049e-01" nType="-99"/>
        <Node pos="r" depth="1" NCoef="0" IVar="5" Cut="3.8177764415740967e-01" cType="1" res="1.7303015291690826e-01" rms="0.0000000000000000e+00" purity="5.3309118747711182e-01" nType="0">
          <Node pos="l" depth="2" NCoef="0" IVar="2" Cut="5.3958148956298828e+01" cType="1" res="1.8329204618930817e-01" rms="0.0000000000000000e+00" purity="3.7094897031784058e-01" nType="0">
            <Node pos="l" depth="3" NCoef="0" IVar="-1" Cut="0.0000000000000000e+00" cType="1" res="-1.3492432422935963e-02" rms="4.0510085225105286e-01" purity="2.8821641206741333e-01" nType="-99"/>
            <Node pos="r" depth="3" NCoef="0" IVar="-1" Cut="0.0000000000000000e+00" cType="1" res="-6.2959352508187294e-03" rms="4.3861427903175354e-01" purity="4.7508952021598816e-01" nType="-99"/>
          </Node>
          <Node pos="r" depth="2" NCoef="0" IVar="6" Cut="2.1863309666514397e-02" cType="1" res="1.6702391207218170e-01" rms="0.0000000000000000e+00" purity="6.3085371255874634e-01" nType="0">
            <Node pos="l" depth="3" NCoef="0" IVar="-1" Cut="0.0000000000000000e+00" cType="1" res="-1.4343387447297573e-02" rms="4.2904242873191833e-01" purity="3.7807545065879822e-01" nType="-99"/>
            <Node pos="r" depth="3" NCoef="0" IVar="-1" Cut="0.0000000000000000e+00" cType="1" res="4.1641327552497387e-03" rms="4.0414831042289734e-01" purity="6.6907918453216553e-01" nType="-99"/>
          </Node>
        </Node>
      </Node>
    </BinaryTree>
    <BinaryTree type="DecisionTree" boostWeight="1.0000000000000000e+00" itree="28">
      <Node pos="s" depth="0" NCoef="0" IVar="0" Cut="9.0000000000000000e+00" cType="1" res="-3.5269286483526230e-02" rms="4.1162914037704468e-01" purity="5.0000000000000000e-01" nType="0">
        <Node pos="l" depth="1" NCoef="0" IVar="7" Cut="6.0905539989471436e-01" cType="1" res="3.2866410037968308e-05" rms="5.7328292168676853e-03" purity="4.3031990528106689e-01" nType="0">
          <Node pos="l" depth="2" NCoef="0" IVar="3" Cut="9.0429061889648438e+01" cType="1" res="9.6733623649924994e-05" rms="9.0511715412139893e-01" purity="2.0633281767368317e-01" nType="0">
            <Node pos="l" depth="3" NCoef="0" IVar="-1" Cut="0.0000000000000000e+00" cType="1" res="-1.4148737303912640e-02" rms="3.4129333496093750e-01" purity="1.5304787456989288e-01" nType="-99"/>
            <Node pos="r" depth="3" NCoef="0" IVar="-1" Cut="0.0000000000000000e+00" cType="1" res="-8.8896220549941063e-03" rms="4.1437748074531555e-01" purity="2.5854039192199707e-01" nType="-99"/>
          </Node>
          <Node pos="r" depth="2" NCoef="0" IVar="6" Cut="8.6971133947372437e-02" cType="1" res="0.0000000000000000e+00" rms="0.0000000000000000e+00" purity="5.4558485746383667e-01" nType="0">
            <Node pos="l" depth="3" NCoef="0" IVar="-1" Cut="0.0000000000000000e+00" cType="1" res="-1.2404369190335274e-02" rms="4.3314504623413086e-01" purity="4.6843078732490540e-01" nType="-99"/>
            <Node pos="r" depth="3" NCoef="0" IVar="-1" Cut="0.0000000000000000e+00" cType="1" res="4.4047827832400799e-03" rms="4.1157183051109314e-01" purity="6.6663134098052979e-01" nType="-99"/>
          </Node>
        </Node>
        <Node pos="r" depth="1" NCoef="0" IVar="12" Cut="8.0661627197265625e+02" cType="1" res="1.0445174993947148e-03" rms="0.0000000000000000e+00" purity="7.2144830226898193e-01" nType="0">
          <Node pos="l" depth="2" NCoef="0" IVar="3" Cut="8.7441932678222656e+01" cType="1" res="1.4488362940028310e-03" rms="4.2726019024848938e-01" purity="7.5976973772048950e-01" nType="0">
            <Node pos="l" depth="3" NCoef="0" IVar="-1" Cut="0.0000000000000000e+00" cType="1" res="2.6213445235043764e-03" rms="4.0736541152000427e-01" purity="6.9407278299331665e-01" nType="-99"/>
            <Node pos="r" depth="3" NCoef="0" IVar="-1" Cut="0.0000000000000000e+00" cType="1" res="5.7580254971981049e-02" rms="3.5092234611511230e-01" purity="8.2911568880081177e-01" nType="-99"/>
          </Node>
          <Node pos="r" depth="2" NCoef="0" IVar="-1" Cut="0.0000000000000000e+00" cType="1" res="-1.3625459745526314e-02" rms="4.3762534856796265e-01" purity="6.2244856357574463e-01" nType="-99"/>
        </Node>
      </Node>
    </BinaryTree>
    <BinaryTree type="DecisionTree" boostWeight="1.0000000000000000e+00" itree="29">
      <Node pos="s" depth="0" NCoef="0" IVar="2" Cut="5.6601753234863281e+01" cType="1" res="1.6973325610160828e-01" rms="0.0000000000000000e+00" purity="5.0000000000000000e-01" nType="0">
        <Node pos="l" depth="1" NCoef="0" IVar="3" Cut="8.1308380126953125e+01" cType="1" res="2.8360568103380501e-04" rms="5.2888196706771851e-01" purity="4.2573267221450806e-01" nType="0">
          <Node pos="l" depth="2" NCoef="0" IVar="7" Cut="7.7657467126846313e-01" cType="1" res="5.9825443895533681e-04" rms="4.2243388295173645e-01" purity="3.4331259131431580e-01" nType="0">
            <Node pos="l" depth="3" NCoef="0" IVar="-1" Cut="0.0000000000000000e+00" cType="1" res="-1.4258573763072491e-02" rms="3.7990319728851318e-01" purity="2.5831899046897888e-01" nType="-99"/>
            <Node pos="r" depth="3" NCoef="0" IVar="-1" Cut="0.0000000000000000e+00" cType="1" res="-5.2779568359255791e-03" rms="4.1242536902427673e-01" purity="5.8957564830780029e-01" nType="-99"/>
          </Node>
          <Node pos="r" depth="2" NCoef="0" IVar="10" Cut="2.3290216064453125e+02" cType="1" res="0.0000000000000000e+00" rms="0.0000000000000000e+00" purity="5.0002115964889526e-01" nType="0">
            <Node pos="l" depth="3" NCoef="0" IVar="-1" Cut="0.0000000000000000e+00" cType="1" res="3.5549153108149767e-03" rms="4.1630700230598450e-01" purity="5.8931225538253784e-01" nType="-99"/>
            <Node pos="r" depth="3" NCoef="0" IVar="-1" Cut="0.0000000000000000e+00" cType="1" res="-1.3422465883195400e-02" rms="4.2127147316932678e-01" purity="3.7101238965988159e-01" nType="-99"/>
          </Node>
        </Node>
        <Node pos="r" depth="1" NCoef="0" IVar="9" Cut="-7.3275886476039886e-02" cType="1" res="1.6752712428569794e-01" rms="0.0000000000000000e+00" purity="6.1966955661773682e-01" nType="0">
          <Node pos="l" depth="2" NCoef="0" IVar="10" Cut="2.5103221130371094e+02" cType="1" res="1.8603418767452240e-01" rms="0.0000000000000000e+00" purity="5.2543413639068604e-01" nType="0">
            <Node pos="l" depth="3" NCoef="0" IVar="-1" Cut="0.0000000000000000e+00" cType="1" res="3.8184688892215490e-03" rms="4.2018163204193115e-01" purity="5.9221130609512329e-01" nType="-99"/>
            <Node pos="r" depth="3" NCoef="0" IVar="-1" Cut="0.0000000000000000e+00" cType="1" res="-4.0525600314140320e-02" rms="4.3725907802581787e-01" purity="4.5628574490547180e-01" nType="-99"/>
          </Node>
          <Node pos="r" depth="2" NCoef="0" IVar="13" Cut="2.2388906478881836e+01" cType="1" res="1.5374438464641571e-01" rms="0.0000000000000000e+00" purity="6.9029718637466431e-01" nType="0">
            <Node pos="l" depth="3" NCoef="0" IVar="-1" Cut="0.0000000000000000e+00" cType="1" res="4.3669704347848892e-02" rms="3.6278262734413147e-01" purity="7.7400159835815430e-01" nType="-99"/>
            <Node pos="r" depth="3" NCoef="0" IVar="-1" Cut="0.0000000000000000e+00" cType="1" res="3.6753260064870119e-03" rms="4.1736513376235962e-01" purity="6.0527026653289795e-01" nType="-99"/>
          </Node>
        </Node>
      </Node>
    </BinaryTree>
    <BinaryTree type="DecisionTree" boostWeight="1.0000000000000000e+00" itree="30">
      <Node pos="s" depth="0" NCoef="0" IVar="7" Cut="4.7239395976066589e-01" cType="1" res="1.6894115507602692e-01" rms="0.0000000000000000e+00" purity="5.0000000000000000e-01" nType="0">
        <Node pos="l" depth="1" NCoef="0" IVar="-1" Cut="0.0000000000000000e+00" cType="1" res="-1.4474958181381226e-02" rms="3.6028975248336792e-01" purity="1.8932794034481049e-01" nType="-99"/>
        <Node pos="r" depth="1" NCoef="0" IVar="5" Cut="3.8177764415740967e-01" cType="1" res="1.7131865024566650e-01" rms="0.0000000000000000e+00" purity="5.3309118747711182e-01" nType="0">
          <Node pos="l" depth="2" NCoef="0" IVar="2" Cut="5.3958148956298828e+01" cType="1" res="1.8058833479881287e-01" rms="0.0000000000000000e+00" purity="3.7094897031784058e-01" nType="0">
            <Node pos="l" depth="3" NCoef="0" IVar="-1" Cut="0.0000000000000000e+00" cType="1" res="-1.2432378716766834e-02" rms="4.0399110317230225e-01" purity="2.8821641206741333e-01" nType="-99"/>
            <Node pos="r" depth="3" NCoef="0" IVar="-1" Cut="0.0000000000000000e+00" cType="1" res="-5.6741922162473202e-03" rms="4.3627324700355530e-01" purity="4.7508952021598816e-01" nType="-99"/>
          </Node>
          <Node pos="r" depth="2" NCoef="0" IVar="5" Cut="9.4037199020385742e-01" cType="1" res="1.6590961813926697e-01" rms="0.0000000000000000e+00" purity="6.3085371255874634e-01" nType="0">
            <Node pos="l" depth="3" NCoef="0" IVar="-1" Cut="0.0000000000000000e+00" cType="1" res="-2.1637594327330589e-03" rms="4.1261410713195801e-01" purity="6.1001783609390259e-01" nType="-99"/>
            <Node pos="r" depth="3" NCoef="0" IVar="-1" Cut="0.0000000000000000e+00" cType="1" res="4.9801766872406006e-02" rms="3.4454473853111267e-01" purity="8.1343770027160645e-01" nType="-99"/>
          </Node>
        </Node>
      </Node>
    </BinaryTree>
    <BinaryTree type="DecisionTree" boostWeight="1.0000000000000000e+00" itree="31">
      <Node pos="s" depth="0" NCoef="0" IVar="4" Cut="5.3322094678878784e-01" cType="1" res="-0.0000000000000000e+00" rms="1.8027756363153458e-02" purity="5.0000000000000000e-01" nType="0">
        <Node pos="l" depth="1" NCoef="0" IVar="-1" Cut="0.0000000000000000e+00" cType="1" res="-2.1940374746918678e-02" rms="3.7610319256782532e-01" purity="2.8020295500755310e-01" nType="-99"/>
        <Node pos="r" depth="1" NCoef="0" IVar="4" Cut="2.0271625518798828e+00" cType="1" res="1.6959966719150543e-01" rms="0.0000000000000000e+00" purity="5.2358198165893555e-01" nType="0">
          <Node pos="l" depth="2" NCoef="0" IVar="3" Cut="8.5881858825683594e+01" cType="1" res="1.7012488842010498e-01" rms="0.0000000000000000e+00" purity="5.4523265361785889e-01" nType="0">
            <Node pos="l" depth="3" NCoef="0" IVar="-1" Cut="0.0000000000000000e+00" cType="1" res="-9.9839577451348305e-03" rms="4.0631845593452454e-01" purity="4.4405362010002136e-01" nType="-99"/>
            <Node pos="r" depth="3" NCoef="0" IVar="-1" Cut="0.0000000000000000e+00" cType="1" res="9.1494694352149963e-03" rms="4.1328632831573486e-01" purity="6.2475121021270752e-01" nType="-99"/>
          </Node>
          <Node pos="r" depth="2" NCoef="0" IVar="-1" Cut="0.0000000000000000e+00" cType="1" res="-1.6192251816391945e-02" rms="3.8935443758964539e-01" purity="3.2440975308418274e-01" nType="-99"/>
        </Node>
      </Node>
    </BinaryTree>
    <BinaryTree type="DecisionTree" boostWeight="1.0000000000000000e+00" itree="32">
      <Node pos="s" depth="0" NCoef="0" IVar="0" Cut="8.0000000000000000e+00" cType="1" res="-2.9876505956053734e-02" rms="4.0883871912956238e-01" purity="5.0000000000000000e-01" nType="0">
        <Node pos="l" depth="1" NCoef="0" IVar="7" Cut="6.7738610506057739e-01" cType="1" res="5.9443442296469584e-05" rms="7.7097280882298946e-03" purity="3.4322640299797058e-01" nType="0">
          <Node pos="l" depth="2" NCoef="0" IVar="3" Cut="1.0289552307128906e+02" cType="1" res="0.0000000000000000e+00" rms="1.1048431508243084e-02" purity="1.6735500097274780e-01" nType="0">
            <Node pos="l" depth="3" NCoef="0" IVar="-1" Cut="0.0000000000000000e+00" cType="1" res="-1.4430833049118519e-02" rms="3.1141752004623413e-01" purity="1.2034646421670914e-01" nType="-99"/>
            <Node pos="r" depth="3" NCoef="0" IVar="-1" Cut="0.0000000000000000e+00" cType="1" res="-9.9308686330914497e-03" rms="3.9603132009506226e-01" purity="2.2546286880970001e-01" nType="-99"/>
          </Node>
          <Node pos="r" depth="2" NCoef="0" IVar="5" Cut="2.8747212886810303e-01" cType="1" res="1.1586750042624772e-04" rms="0.0000000000000000e+00" purity="5.1016467809677124e-01" nType="0">
            <Node pos="l" depth="3" NCoef="0" IVar="-1" Cut="0.0000000000000000e+00" cType="1" res="-1.5222546644508839e-02" rms="4.2843899130821228e-01" purity="2.9843410849571228e-01" nType="-99"/>
            <Node pos="r" depth="3" NCoef="0" IVar="-1" Cut="0.0000000000000000e+00" cType="1" res="3.1348617631010711e-04" rms="4.3415310978889465e-01" purity="5.8687657117843628e-01" nType="-99"/>
          </Node>
        </Node>
        <Node pos="r" depth="1" NCoef="0" IVar="4" Cut="5.3322094678878784e-01" cType="1" res="1.7087544500827789e-01" rms="0.0000000000000000e+00" purity="6.1379063129425049e-01" nType="0">
          <Node pos="l" depth="2" NCoef="0" IVar="-1" Cut="0.0000000000000000e+00" cType="1" res="-1.8626801669597626e-02" rms="4.2110130190849304e-01" purity="3.9672529697418213e-01" nType="-99"/>
          <Node pos="r" depth="2" NCoef="0" IVar="5" Cut="1.4825569093227386e-01" cType="1" res="1.6933789849281311e-01" rms="0.0000000000000000e+00" purity="6.3592892885208130e-01" nType="0">
            <Node pos="l" depth="3" NCoef="0" IVar="-1" Cut="0.0000000000000000e+00" cType="1" res="-1.3095713220536709e-02" rms="4.3111613392829895e-01" purity="3.8876876235008240e-01" nType="-99"/>
            <Node pos="r" depth="3" NCoef="0" IVar="-1" Cut="0.0000000000000000e+00" cType="1" res="4.9608708359301090e-03" rms="4.0749830007553101e-01" purity="6.7214512825012207e-01" nType="-99"/>
          </Node>
        </Node>
      </Node>
    </BinaryTree>
    <BinaryTree type="DecisionTree" boostWeight="1.0000000000000000e+00" itree="33">
      <Node pos="s" depth="0" NCoef="0" IVar="7" Cut="4.7239395976066589e-01" cType="1" res="1.6738313436508179e-01" rms="0.0000000000000000e+00" purity="5.0000000000000000e-01" nType="0">
        <Node pos="l" depth="1" NCoef="0" IVar="-1" Cut="0.0000000000000000e+00" cType="1" res="-1.3694814406335354e-02" rms="3.5909500718116760e-01" purity="1.8932794034481049e-01" nType="-99"/>
        <Node pos="r" depth="1" NCoef="0" IVar="5" Cut="9.6829891204833984e-02" cType="1" res="1.6995896399021149e-01" rms="0.0000000000000000e+00" purity="5.3309118747711182e-01" nType="0">
          <Node pos="l" depth="2" NCoef="0" IVar="-1" Cut="0.0000000000000000e+00" cType="1" res="-1.7813064157962799e-02" rms="3.9440971612930298e-01" purity="2.6512485742568970e-01" nType="-99"/>
          <Node pos="r" depth="2" NCoef="0" IVar="4" Cut="5.3322094678878784e-01" cType="1" res="1.7001776397228241e-01" rms="0.0000000000000000e+00" purity="5.5676531791687012e-01" nType="0">
            <Node pos="l" depth="3" NCoef="0" IVar="-1" Cut="0.0000000000000000e+00" cType="1" res="-1.9653873518109322e-02" rms="3.9327898621559143e-01" purity="3.2089173793792725e-01" nType="-99"/>
            <Node pos="r" depth="3" NCoef="0" IVar="-1" Cut="0.0000000000000000e+00" cType="1" res="-1.5829334734007716e-04" rms="4.1335129737854004e-01" purity="5.8148360252380371e-01" nType="-99"/>
          </Node>
        </Node>
      </Node>
    </BinaryTree>
    <BinaryTree type="DecisionTree" boostWeight="1.0000000000000000e+00" itree="34">
      <Node pos="s" depth="0" NCoef="0" IVar="0" Cut="8.0000000000000000e+00" cType="1" res="-2.6761798188090324e-02" rms="4.0809628367424011e-01" purity="5.0000000000000000e-01" nType="0">
        <Node pos="l" depth="1" NCoef="0" IVar="7" Cut="6.7738610506057739e-01" cType="1" res="5.9443442296469584e-05" rms="7.7097280882298946e-03" purity="3.4322640299797058e-01" nType="0">
          <Node pos="l" depth="2" NCoef="0" IVar="3" Cut="1.0289552307128906e+02" cType="1" res="1.2206783867441118e-04" rms="5.4047768000000000e+07" purity="1.6735500097274780e-01" nType="0">
            <Node pos="l" depth="3" NCoef="0" IVar="-1" Cut="0.0000000000000000e+00" cType="1" res="-1.3933568261563778e-02" rms="3.1126120686531067e-01" purity="1.2034646421670914e-01" nType="-99"/>
            <Node pos="r" depth="3" NCoef="0" IVar="-1" Cut="0.0000000000000000e+00" cType="1" res="-9.2822713777422905e-03" rms="3.9590802788734436e-01" purity="2.2546286880970001e-01" nType="-99"/>
          </Node>
          <Node pos="r" depth="2" NCoef="0" IVar="7" Cut="8.6773771047592163e-01" cType="1" res="2.7727833732218880e+15" rms="0.0000000000000000e+00" purity="5.1016467809677124e-01" nType="0">
            <Node pos="l" depth="3" NCoef="0" IVar="-1" Cut="0.0000000000000000e+00" cType="1" res="-9.0616606175899506e-03" rms="4.3939387798309326e-01" purity="4.5833435654640198e-01" nType="-99"/>
            <Node pos="r" depth="3" NCoef="0" IVar="-1" Cut="0.0000000000000000e+00" cType="1" res="1.5923125669360161e-02" rms="4.0855383872985840e-01" purity="6.7886674404144287e-01" nType="-99"/>
          </Node>
        </Node>
        <Node pos="r" depth="1" NCoef="0" IVar="7" Cut="4.8684743046760559e-01" cType="1" res="1.7035236954689026e-01" rms="0.0000000000000000e+00" purity="6.1379063129425049e-01" nType="0">
          <Node pos="l" depth="2" NCoef="0" IVar="-1" Cut="0.0000000000000000e+00" cType="1" res="-1.0620292276144028e-02" rms="4.2335793375968933e-01" purity="2.9486823081970215e-01" nType="-99"/>
          <Node pos="r" depth="2" NCoef="0" IVar="0" Cut="1.0000000000000000e+01" cType="1" res="7.5381612405180931e-03" rms="4.1047507524490356e-01" purity="6.5245735645294189e-01" nType="0">
            <Node pos="l" depth="3" NCoef="0" IVar="-1" Cut="0.0000000000000000e+00" cType="1" res="-5.9539382345974445e-04" rms="4.1696551442146301e-01" purity="6.2491941452026367e-01" nType="-99"/>
            <Node pos="r" depth="3" NCoef="0" IVar="-1" Cut="0.0000000000000000e+00" cType="1" res="4.3621364980936050e-02" rms="3.6645901203155518e-01" purity="8.0983269214630127e-01" nType="-99"/>
          </Node>
        </Node>
      </Node>
    </BinaryTree>
    <BinaryTree type="DecisionTree" boostWeight="1.0000000000000000e+00" itree="35">
      <Node pos="s" depth="0" NCoef="0" IVar="6" Cut="2.1853752434253693e-02" cType="1" res="1.6659580171108246e-01" rms="0.0000000000000000e+00" purity="5.0000000000000000e-01" nType="0">
        <Node pos="l" depth="1" NCoef="0" IVar="3" Cut="1.0188951873779297e+02" cType="1" res="1.0291243670508265e-03" rms="2.3448579013347626e-01" purity="2.6771935820579529e-01" nType="0">
          <Node pos="l" depth="2" NCoef="0" IVar="-1" Cut="0.0000000000000000e+00" cType="1" res="-2.1417483687400818e-02" rms="3.5557523369789124e-01" purity="1.9705517590045929e-01" nType="-99"/>
          <Node pos="r" depth="2" NCoef="0" IVar="-1" Cut="0.0000000000000000e+00" cType="1" res="-7.4165691621601582e-03" rms="4.2216268181800842e-01" purity="3.6884227395057678e-01" nType="-99"/>
        </Node>
        <Node pos="r" depth="1" NCoef="0" IVar="7" Cut="6.5489417314529419e-01" cType="1" res="1.6830308735370636e-01" rms="0.0000000000000000e+00" purity="5.4759156703948975e-01" nType="0">
