<?xml version="1.0"?>
<MethodSetup Method="BDT::BDT">
  <GeneralInfo>
    <Info name="TMVA Release" value="4.2.1 [262657]"/>
    <Info name="ROOT Release" value="6.06/01 [394753]"/>
    <Info name="Creator" value="gpaspala"/>
    <Info name="Date" value="Mon Dec 19 14:53:31 2016"/>
    <Info name="Host" value="Linux vocms029.cern.ch 2.6.32-573.22.1.el6.x86_64 #1 SMP Wed Mar 23 17:13:03 CET 2016 x86_64 x86_64 x86_64 GNU/Linux"/>
    <Info name="Dir" value="/afs/cern.ch/work/g/gpaspala/private/cms/T5gg_8_0_5/CMSSW_8_0_5/src/TTH_analysis/MVA_Analysis/Search_Variables"/>
    <Info name="Training events" value="80000"/>
    <Info name="TrainingTime" value="8.04067760e+01"/>
    <Info name="AnalysisType" value="Classification"/>
  </GeneralInfo>
  <Options>
    <Option name="V" modified="No">False</Option>
    <Option name="VerbosityLevel" modified="No">Default</Option>
    <Option name="VarTransform" modified="No">None</Option>
    <Option name="H" modified="No">False</Option>
    <Option name="CreateMVAPdfs" modified="No">False</Option>
    <Option name="IgnoreNegWeightsInTraining" modified="No">False</Option>
    <Option name="NTrees" modified="Yes">200</Option>
    <Option name="MaxDepth" modified="No">3</Option>
    <Option name="MinNodeSize" modified="No">5%</Option>
    <Option name="nCuts" modified="No">20</Option>
    <Option name="BoostType" modified="Yes">Grad</Option>
    <Option name="AdaBoostR2Loss" modified="No">quadratic</Option>
    <Option name="UseBaggedBoost" modified="No">False</Option>
    <Option name="Shrinkage" modified="Yes">5.000000e-01</Option>
    <Option name="AdaBoostBeta" modified="No">5.000000e-01</Option>
    <Option name="UseRandomisedTrees" modified="No">False</Option>
    <Option name="UseNvars" modified="No">4</Option>
    <Option name="UsePoissonNvars" modified="No">True</Option>
    <Option name="BaggedSampleFraction" modified="No">6.000000e-01</Option>
    <Option name="UseYesNoLeaf" modified="No">True</Option>
    <Option name="NegWeightTreatment" modified="No">ignorenegweightsintraining</Option>
    <Option name="Css" modified="No">1.000000e+00</Option>
    <Option name="Cts_sb" modified="No">1.000000e+00</Option>
    <Option name="Ctb_ss" modified="No">1.000000e+00</Option>
    <Option name="Cbb" modified="No">1.000000e+00</Option>
    <Option name="NodePurityLimit" modified="No">5.000000e-01</Option>
    <Option name="SeparationType" modified="No">giniindex</Option>
    <Option name="DoBoostMonitor" modified="Yes">True</Option>
    <Option name="UseFisherCuts" modified="No">False</Option>
    <Option name="MinLinCorrForFisher" modified="No">8.000000e-01</Option>
    <Option name="UseExclusiveVars" modified="No">False</Option>
    <Option name="DoPreselection" modified="No">False</Option>
    <Option name="SigToBkgFraction" modified="No">1.000000e+00</Option>
    <Option name="PruneMethod" modified="No">nopruning</Option>
    <Option name="PruneStrength" modified="No">0.000000e+00</Option>
    <Option name="PruningValFraction" modified="No">5.000000e-01</Option>
    <Option name="nEventsMin" modified="No">0</Option>
    <Option name="UseBaggedGrad" modified="No">False</Option>
    <Option name="GradBaggingFraction" modified="No">6.000000e-01</Option>
    <Option name="UseNTrainEvents" modified="No">0</Option>
    <Option name="NNodesMax" modified="No">0</Option>
  </Options>
  <Variables NVar="13">
    <Variable VarIndex="0" Expression="jetPt[5]" Label="jetPt[5]" Title="jetPt[5]" Unit="" Internal="jetPt_5_" Type="F" Min="4.00007172e+01" Max="3.94668915e+02"/>
    <Variable VarIndex="1" Expression="mbbMin" Label="mbbMin" Title="mbbMin" Unit="" Internal="mbbMin" Type="F" Min="1.64972858e+01" Max="2.44820117e+03"/>
    <Variable VarIndex="2" Expression="dRbbMin" Label="dRbbMin" Title="dRbbMin" Unit="" Internal="dRbbMin" Type="F" Min="3.89696121e-01" Max="3.53336525e+00"/>
    <Variable VarIndex="3" Expression="qglMedian" Label="qglMedian" Title="qglMedian" Unit="" Internal="qglMedian" Type="F" Min="1.84731174e-03" Max="9.99487817e-01"/>
    <Variable VarIndex="4" Expression="sphericity" Label="sphericity" Title="sphericity" Unit="" Internal="sphericity" Type="F" Min="6.18433766e-03" Max="9.55098152e-01"/>
    <Variable VarIndex="5" Expression="aplanarity" Label="aplanarity" Title="aplanarity" Unit="" Internal="aplanarity" Type="F" Min="2.14769971e-04" Max="4.54633385e-01"/>
    <Variable VarIndex="6" Expression="centrality" Label="centrality" Title="centrality" Unit="" Internal="centrality" Type="F" Min="2.59660751e-01" Max="9.85729754e-01"/>
    <Variable VarIndex="7" Expression="foxWolfram[0]" Label="foxWolfram[0]" Title="foxWolfram[0]" Unit="" Internal="foxWolfram_0_" Type="F" Min="1.99929491e-01" Max="4.55862284e-01"/>
    <Variable VarIndex="8" Expression="foxWolfram[1]" Label="foxWolfram[1]" Title="foxWolfram[1]" Unit="" Internal="foxWolfram_1_" Type="F" Min="-2.09791765e-01" Max="3.18641573e-01"/>
    <Variable VarIndex="9" Expression="mTop[0]" Label="mTop[0]" Title="mTop[0]" Unit="" Internal="mTop_0_" Type="F" Min="9.29236298e+01" Max="1.85919800e+03"/>
    <Variable VarIndex="10" Expression="ptTTbar" Label="ptTTbar" Title="ptTTbar" Unit="" Internal="ptTTbar" Type="F" Min="1.02882648e+00" Max="2.23123120e+03"/>
    <Variable VarIndex="11" Expression="mTTbar" Label="mTTbar" Title="mTTbar" Unit="" Internal="mTTbar" Type="F" Min="2.28944565e+02" Max="6.91642139e+03"/>
    <Variable VarIndex="12" Expression="chi2" Label="chi2" Title="chi2" Unit="" Internal="chi2" Type="F" Min="1.93243570e-04" Max="6.26996887e+02"/>
  </Variables>
  <Spectators NSpec="0"/>
  <Classes NClass="2">
    <Class Name="Signal" Index="0"/>
    <Class Name="Background" Index="1"/>
  </Classes>
  <Transformations NTransformations="0"/>
  <MVAPdfs/>
  <Weights NTrees="200" AnalysisType="1">
    <BinaryTree type="DecisionTree" boostWeight="1.0000000000000000e+00" itree="0">
      <Node pos="s" depth="0" NCoef="0" IVar="6" Cut="6.7455732822418213e-01" cType="1" res="-1.3589403582460469e-13" rms="5.0000000000000000e-01" purity="5.0000000000000000e-01" nType="0">
        <Node pos="l" depth="1" NCoef="0" IVar="3" Cut="5.2442091703414917e-01" cType="1" res="-1.6449369490146637e-01" rms="4.7216716408729553e-01" purity="3.3550631999969482e-01" nType="0">
          <Node pos="l" depth="2" NCoef="0" IVar="0" Cut="5.3282398223876953e+01" cType="1" res="-2.6002091169357300e-01" rms="4.2707040905952454e-01" purity="2.3997911810874939e-01" nType="0">
            <Node pos="l" depth="3" NCoef="0" IVar="-1" Cut="0.0000000000000000e+00" cType="1" res="-2.7403622865676880e-02" rms="3.7555330991744995e-01" purity="1.6990953683853149e-01" nType="-99"/>
            <Node pos="r" depth="3" NCoef="0" IVar="-1" Cut="0.0000000000000000e+00" cType="1" res="-3.3398129045963287e-02" rms="4.7057840228080750e-01" purity="3.3101484179496765e-01" nType="-99"/>
          </Node>
          <Node pos="r" depth="2" NCoef="0" IVar="0" Cut="5.6608299255371094e+01" cType="1" res="-4.8686746507883072e-02" rms="4.9762395024299622e-01" purity="4.5131325721740723e-01" nType="0">
            <Node pos="l" depth="3" NCoef="0" IVar="-1" Cut="0.0000000000000000e+00" cType="1" res="-1.3809619471430779e-02" rms="4.8195728659629822e-01" purity="3.6689415574073792e-01" nType="-99"/>
            <Node pos="r" depth="3" NCoef="0" IVar="-1" Cut="0.0000000000000000e+00" cType="1" res="3.8485236465930939e-02" rms="4.9147880077362061e-01" purity="5.9191620349884033e-01" nType="-99"/>
          </Node>
        </Node>
        <Node pos="r" depth="1" NCoef="0" IVar="3" Cut="4.3011498451232910e-01" cType="1" res="1.5007238090038300e-01" rms="4.7694683074951172e-01" purity="6.5007233619689941e-01" nType="0">
          <Node pos="l" depth="2" NCoef="0" IVar="7" Cut="4.0801864862442017e-01" cType="1" res="5.6549080181866884e-04" rms="4.9999967217445374e-01" purity="5.0056552886962891e-01" nType="0">
            <Node pos="l" depth="3" NCoef="0" IVar="-1" Cut="0.0000000000000000e+00" cType="1" res="-2.1065911278128624e-02" rms="4.8998901247978210e-01" purity="4.0044710040092468e-01" nType="-99"/>
            <Node pos="r" depth="3" NCoef="0" IVar="-1" Cut="0.0000000000000000e+00" cType="1" res="2.4959251284599304e-02" rms="4.8385772109031677e-01" purity="6.2602269649505615e-01" nType="-99"/>
          </Node>
          <Node pos="r" depth="2" NCoef="0" IVar="7" Cut="4.0509748458862305e-01" cType="1" res="2.4837832152843475e-01" rms="4.3394494056701660e-01" purity="7.4837833642959595e-01" nType="0">
            <Node pos="l" depth="3" NCoef="0" IVar="-1" Cut="0.0000000000000000e+00" cType="1" res="5.0074983388185501e-02" rms="4.7979712486267090e-01" purity="6.4069366455078125e-01" nType="-99"/>
            <Node pos="r" depth="3" NCoef="0" IVar="-1" Cut="0.0000000000000000e+00" cType="1" res="1.1979947984218597e-01" rms="3.7730607390403748e-01" purity="8.2808560132980347e-01" nType="-99"/>
          </Node>
        </Node>
      </Node>
    </BinaryTree>
    <BinaryTree type="DecisionTree" boostWeight="1.0000000000000000e+00" itree="1">
      <Node pos="s" depth="0" NCoef="0" IVar="6" Cut="7.0913201570510864e-01" cType="1" res="-1.0802427306771278e-02" rms="4.8954629898071289e-01" purity="5.0000000000000000e-01" nType="0">
        <Node pos="l" depth="1" NCoef="0" IVar="7" Cut="4.1930046677589417e-01" cType="1" res="-1.3640291988849640e-01" rms="4.7530251741409302e-01" purity="3.6117723584175110e-01" nType="0">
          <Node pos="l" depth="2" NCoef="0" IVar="3" Cut="4.7691422700881958e-01" cType="1" res="-1.8179300427436829e-01" rms="4.5996931195259094e-01" purity="3.1448546051979065e-01" nType="0">
            <Node pos="l" depth="3" NCoef="0" IVar="-1" Cut="0.0000000000000000e+00" cType="1" res="-3.1094074249267578e-02" rms="4.0894943475723267e-01" purity="2.1317826211452484e-01" nType="-99"/>
            <Node pos="r" depth="3" NCoef="0" IVar="-1" Cut="0.0000000000000000e+00" cType="1" res="-1.2891175225377083e-02" rms="4.8940742015838623e-01" purity="4.1896384954452515e-01" nType="-99"/>
          </Node>
          <Node pos="r" depth="2" NCoef="0" IVar="-1" Cut="0.0000000000000000e+00" cType="1" res="1.9202528521418571e-02" rms="4.7956210374832153e-01" purity="6.2305486202239990e-01" nType="-99"/>
        </Node>
        <Node pos="r" depth="1" NCoef="0" IVar="3" Cut="4.7756102681159973e-01" cType="1" res="1.4702978730201721e-01" rms="4.6064159274101257e-01" purity="6.7444759607315063e-01" nType="0">
          <Node pos="l" depth="2" NCoef="0" IVar="2" Cut="7.9847413301467896e-01" cType="1" res="3.5314403474330902e-02" rms="4.9496364593505859e-01" purity="5.3993862867355347e-01" nType="0">
            <Node pos="l" depth="3" NCoef="0" IVar="-1" Cut="0.0000000000000000e+00" cType="1" res="-1.6358915716409683e-02" rms="4.8910200595855713e-01" purity="4.1066363453865051e-01" nType="-99"/>
            <Node pos="r" depth="3" NCoef="0" IVar="-1" Cut="0.0000000000000000e+00" cType="1" res="2.8494529426097870e-02" rms="4.8273622989654541e-01" purity="6.1592483520507812e-01" nType="-99"/>
          </Node>
          <Node pos="r" depth="2" NCoef="0" IVar="7" Cut="3.9763286709785461e-01" cType="1" res="2.3418916761875153e-01" rms="4.1142177581787109e-01" purity="7.7939039468765259e-01" nType="0">
            <Node pos="l" depth="3" NCoef="0" IVar="-1" Cut="0.0000000000000000e+00" cType="1" res="3.8607060909271240e-02" rms="4.8072049021720886e-01" purity="6.3750571012496948e-01" nType="-99"/>
            <Node pos="r" depth="3" NCoef="0" IVar="-1" Cut="0.0000000000000000e+00" cType="1" res="1.1645679920911789e-01" rms="3.7009000778198242e-01" purity="8.3498400449752808e-01" nType="-99"/>
          </Node>
        </Node>
      </Node>
    </BinaryTree>
    <BinaryTree type="DecisionTree" boostWeight="1.0000000000000000e+00" itree="2">
      <Node pos="s" depth="0" NCoef="0" IVar="6" Cut="6.3998258113861084e-01" cType="1" res="-1.9005481153726578e-02" rms="4.8075705766677856e-01" purity="5.0000000000000000e-01" nType="0">
        <Node pos="l" depth="1" NCoef="0" IVar="0" Cut="5.6601131439208984e+01" cType="1" res="-1.7485201358795166e-01" rms="4.5736283063888550e-01" purity="3.0992555618286133e-01" nType="0">
          <Node pos="l" depth="2" NCoef="0" IVar="3" Cut="4.7850030660629272e-01" cType="1" res="-2.4042521417140961e-01" rms="4.2445501685142517e-01" purity="2.3966501653194427e-01" nType="0">
            <Node pos="l" depth="3" NCoef="0" IVar="-1" Cut="0.0000000000000000e+00" cType="1" res="-2.6350816711783409e-02" rms="3.6241823434829712e-01" purity="1.5656378865242004e-01" nType="-99"/>
            <Node pos="r" depth="3" NCoef="0" IVar="-1" Cut="0.0000000000000000e+00" cType="1" res="-1.5600865706801414e-02" rms="4.6745178103446960e-01" purity="3.2535925507545471e-01" nType="-99"/>
          </Node>
          <Node pos="r" depth="2" NCoef="0" IVar="3" Cut="4.2940753698348999e-01" cType="1" res="-5.5228069424629211e-02" rms="4.8986223340034485e-01" purity="4.3810051679611206e-01" nType="0">
            <Node pos="l" depth="3" NCoef="0" IVar="-1" Cut="0.0000000000000000e+00" cType="1" res="-3.3607158809900284e-02" rms="4.5864191651344299e-01" purity="3.0543440580368042e-01" nType="-99"/>
            <Node pos="r" depth="3" NCoef="0" IVar="-1" Cut="0.0000000000000000e+00" cType="1" res="1.2964205816388130e-02" rms="4.9570417404174805e-01" purity="5.4136377573013306e-01" nType="-99"/>
          </Node>
        </Node>
        <Node pos="r" depth="1" NCoef="0" IVar="3" Cut="7.1479123830795288e-01" cType="1" res="8.4584973752498627e-02" rms="4.6780332922935486e-01" purity="6.2634158134460449e-01" nType="0">
          <Node pos="l" depth="2" NCoef="0" IVar="7" Cut="4.1872620582580566e-01" cType="1" res="2.3439135402441025e-02" rms="4.8490187525749207e-01" purity="5.5056720972061157e-01" nType="0">
            <Node pos="l" depth="3" NCoef="0" IVar="-1" Cut="0.0000000000000000e+00" cType="1" res="-5.6832693517208099e-03" rms="4.8904445767402649e-01" purity="4.9378100037574768e-01" nType="-99"/>
            <Node pos="r" depth="3" NCoef="0" IVar="-1" Cut="0.0000000000000000e+00" cType="1" res="7.5008705258369446e-02" rms="4.0122708678245544e-01" purity="7.8829973936080933e-01" nType="-99"/>
          </Node>
          <Node pos="r" depth="2" NCoef="0" IVar="12" Cut="2.2298755645751953e+01" cType="1" res="2.2725941240787506e-01" rms="3.8955119252204895e-01" purity="8.0314934253692627e-01" nType="0">
            <Node pos="l" depth="3" NCoef="0" IVar="-1" Cut="0.0000000000000000e+00" cType="1" res="1.4191561937332153e-01" rms="3.4441933035850525e-01" purity="8.5714733600616455e-01" nType="-99"/>
            <Node pos="r" depth="3" NCoef="0" IVar="-1" Cut="0.0000000000000000e+00" cType="1" res="5.7820290327072144e-02" rms="4.4883623719215393e-01" purity="7.0158571004867554e-01" nType="-99"/>
          </Node>
        </Node>
      </Node>
    </BinaryTree>
    <BinaryTree type="DecisionTree" boostWeight="1.0000000000000000e+00" itree="3">
      <Node pos="s" depth="0" NCoef="0" IVar="6" Cut="6.3998258113861084e-01" cType="1" res="-2.7371684089303017e-02" rms="4.7270888090133667e-01" purity="5.0000000000000000e-01" nType="0">
        <Node pos="l" depth="1" NCoef="0" IVar="0" Cut="5.6601131439208984e+01" cType="1" res="-1.6677379608154297e-01" rms="4.5563164353370667e-01" purity="3.0992555618286133e-01" nType="0">
          <Node pos="l" depth="2" NCoef="0" IVar="3" Cut="4.7850030660629272e-01" cType="1" res="-2.2993308305740356e-01" rms="4.2398297786712646e-01" purity="2.3966501653194427e-01" nType="0">
            <Node pos="l" depth="3" NCoef="0" IVar="-1" Cut="0.0000000000000000e+00" cType="1" res="-2.5347359478473663e-02" rms="3.6242040991783142e-01" purity="1.5656378865242004e-01" nType="-99"/>
            <Node pos="r" depth="3" NCoef="0" IVar="-1" Cut="0.0000000000000000e+00" cType="1" res="-1.4867675490677357e-02" rms="4.6745249629020691e-01" purity="3.2535925507545471e-01" nType="-99"/>
          </Node>
          <Node pos="r" depth="2" NCoef="0" IVar="7" Cut="4.0772330760955811e-01" cType="1" res="-5.1553480327129364e-02" rms="4.8768097162246704e-01" purity="4.3810051679611206e-01" nType="0">
            <Node pos="l" depth="3" NCoef="0" IVar="-1" Cut="0.0000000000000000e+00" cType="1" res="-3.5268809646368027e-02" rms="4.7120034694671631e-01" purity="3.5642018914222717e-01" nType="-99"/>
            <Node pos="r" depth="3" NCoef="0" IVar="-1" Cut="0.0000000000000000e+00" cType="1" res="1.5790872275829315e-02" rms="4.9071303009986877e-01" purity="5.5309438705444336e-01" nType="-99"/>
          </Node>
        </Node>
        <Node pos="r" depth="1" NCoef="0" IVar="2" Cut="6.6753131151199341e-01" cType="1" res="6.5288238227367401e-02" rms="4.6096482872962952e-01" purity="6.2634158134460449e-01" nType="0">
          <Node pos="l" depth="2" NCoef="0" IVar="0" Cut="5.2523227691650391e+01" cType="1" res="-9.8011046648025513e-02" rms="4.7450447082519531e-01" purity="4.4726338982582092e-01" nType="0">
            <Node pos="l" depth="3" NCoef="0" IVar="-1" Cut="0.0000000000000000e+00" cType="1" res="-2.8191115707159042e-02" rms="4.4933456182479858e-01" purity="3.3208933472633362e-01" nType="-99"/>
            <Node pos="r" depth="3" NCoef="0" IVar="-1" Cut="0.0000000000000000e+00" cType="1" res="-8.9316105004400015e-04" rms="4.7594934701919556e-01" purity="5.5002075433731079e-01" nType="-99"/>
          </Node>
          <Node pos="r" depth="2" NCoef="0" IVar="6" Cut="7.7169615030288696e-01" cType="1" res="1.1215311288833618e-01" rms="4.4609895348548889e-01" purity="6.7773485183715820e-01" nType="0">
            <Node pos="l" depth="3" NCoef="0" IVar="-1" Cut="0.0000000000000000e+00" cType="1" res="6.1835632659494877e-03" rms="4.7525200247764587e-01" purity="5.7689994573593140e-01" nType="-99"/>
            <Node pos="r" depth="3" NCoef="0" IVar="-1" Cut="0.0000000000000000e+00" cType="1" res="9.0317294001579285e-02" rms="3.9597073197364807e-01" purity="7.8203821182250977e-01" nType="-99"/>
          </Node>
        </Node>
      </Node>
    </BinaryTree>
    <BinaryTree type="DecisionTree" boostWeight="1.0000000000000000e+00" itree="4">
      <Node pos="s" depth="0" NCoef="0" IVar="6" Cut="6.0540789365768433e-01" cType="1" res="-3.3333793282508850e-02" rms="4.6658295392990112e-01" purity="5.0000000000000000e-01" nType="0">
        <Node pos="l" depth="1" NCoef="0" IVar="0" Cut="5.3068511962890625e+01" cType="1" res="-1.8080966174602509e-01" rms="4.4422593712806702e-01" purity="2.8655263781547546e-01" nType="0">
          <Node pos="l" depth="2" NCoef="0" IVar="7" Cut="3.8737127184867859e-01" cType="1" res="-2.5460502505302429e-01" rms="4.0064644813537598e-01" purity="2.0490561425685883e-01" nType="0">
            <Node pos="l" depth="3" NCoef="0" IVar="-1" Cut="0.0000000000000000e+00" cType="1" res="-2.8998766094446182e-02" rms="3.5228148102760315e-01" purity="1.4696545898914337e-01" nType="-99"/>
            <Node pos="r" depth="3" NCoef="0" IVar="-1" Cut="0.0000000000000000e+00" cType="1" res="-1.6516173258423805e-02" rms="4.2582497000694275e-01" purity="2.4339714646339417e-01" nType="-99"/>
          </Node>
          <Node pos="r" depth="2" NCoef="0" IVar="3" Cut="4.3017995357513428e-01" cType="1" res="-8.5994534194469452e-02" rms="4.7818034887313843e-01" purity="3.9145579934120178e-01" nType="0">
            <Node pos="l" depth="3" NCoef="0" IVar="-1" Cut="0.0000000000000000e+00" cType="1" res="-2.9847299680113792e-02" rms="4.3322798609733582e-01" purity="2.5632986426353455e-01" nType="-99"/>
            <Node pos="r" depth="3" NCoef="0" IVar="-1" Cut="0.0000000000000000e+00" cType="1" res="-1.0651771444827318e-03" rms="4.9563318490982056e-01" purity="4.9853399395942688e-01" nType="-99"/>
          </Node>
        </Node>
        <Node pos="r" depth="1" NCoef="0" IVar="7" Cut="4.1724801063537598e-01" cType="1" res="3.6978270858526230e-02" rms="4.6053773164749146e-01" purity="6.0176533460617065e-01" nType="0">
          <Node pos="l" depth="2" NCoef="0" IVar="3" Cut="4.2939880490303040e-01" cType="1" res="-1.3232772238552570e-02" rms="4.7276318073272705e-01" purity="5.3760427236557007e-01" nType="0">
            <Node pos="l" depth="3" NCoef="0" IVar="-1" Cut="0.0000000000000000e+00" cType="1" res="-1.8672177568078041e-02" rms="4.7581470012664795e-01" purity="3.8535684347152710e-01" nType="-99"/>
            <Node pos="r" depth="3" NCoef="0" IVar="-1" Cut="0.0000000000000000e+00" cType="1" res="1.7712704837322235e-02" rms="4.5697581768035889e-01" purity="6.5086263418197632e-01" nType="-99"/>
          </Node>
          <Node pos="r" depth="2" NCoef="0" IVar="7" Cut="4.2579281330108643e-01" cType="1" res="1.9998618960380554e-01" rms="3.7456169724464417e-01" purity="8.1006133556365967e-01" nType="0">
            <Node pos="l" depth="3" NCoef="0" IVar="-1" Cut="0.0000000000000000e+00" cType="1" res="5.0277840346097946e-02" rms="3.9763578772544861e-01" purity="7.7432715892791748e-01" nType="-99"/>
            <Node pos="r" depth="3" NCoef="0" IVar="-1" Cut="0.0000000000000000e+00" cType="1" res="1.2146205455064774e-01" rms="3.1544786691665649e-01" purity="8.7847965955734253e-01" nType="-99"/>
          </Node>
        </Node>
      </Node>
    </BinaryTree>
    <BinaryTree type="DecisionTree" boostWeight="1.0000000000000000e+00" itree="5">
      <Node pos="s" depth="0" NCoef="0" IVar="6" Cut="5.7083320617675781e-01" cType="1" res="-3.6294233053922653e-02" rms="4.6186181902885437e-01" purity="5.0000000000000000e-01" nType="0">
        <Node pos="l" depth="1" NCoef="0" IVar="0" Cut="5.1414283752441406e+01" cType="1" res="-1.9815762341022491e-01" rms="4.2977184057235718e-01" purity="2.5944700837135315e-01" nType="0">
          <Node pos="l" depth="2" NCoef="0" IVar="-1" Cut="0.0000000000000000e+00" cType="1" res="-2.0783690735697746e-02" rms="3.8196721673011780e-01" purity="1.8074496090412140e-01" nType="-99"/>
          <Node pos="r" depth="2" NCoef="0" IVar="3" Cut="5.2506458759307861e-01" cType="1" res="-1.2288926541805267e-01" rms="4.6426925063133240e-01" purity="3.4416392445564270e-01" nType="0">
            <Node pos="l" depth="3" NCoef="0" IVar="-1" Cut="0.0000000000000000e+00" cType="1" res="-2.9049906879663467e-02" rms="4.2148220539093018e-01" purity="2.3779554665088654e-01" nType="-99"/>
            <Node pos="r" depth="3" NCoef="0" IVar="-1" Cut="0.0000000000000000e+00" cType="1" res="-7.2238375432789326e-03" rms="4.9537384510040283e-01" purity="4.7195059061050415e-01" nType="-99"/>
          </Node>
        </Node>
        <Node pos="r" depth="1" NCoef="0" IVar="7" Cut="4.0728867053985596e-01" cType="1" res="1.9168833270668983e-02" rms="4.5942017436027527e-01" purity="5.8242636919021606e-01" nType="0">
          <Node pos="l" depth="2" NCoef="0" IVar="3" Cut="5.7191598415374756e-01" cType="1" res="-5.5681988596916199e-02" rms="4.7440949082374573e-01" purity="4.7194781899452209e-01" nType="0">
            <Node pos="l" depth="3" NCoef="0" IVar="-1" Cut="0.0000000000000000e+00" cType="1" res="-2.2132944315671921e-02" rms="4.6917217969894409e-01" purity="3.6866346001625061e-01" nType="-99"/>
            <Node pos="r" depth="3" NCoef="0" IVar="-1" Cut="0.0000000000000000e+00" cType="1" res="1.3855953700840473e-02" rms="4.6407517790794373e-01" purity="6.2711107730865479e-01" nType="-99"/>
          </Node>
          <Node pos="r" depth="2" NCoef="0" IVar="3" Cut="2.8976005315780640e-01" cType="1" res="1.0402506589889526e-01" rms="4.2619979381561279e-01" purity="7.0767265558242798e-01" nType="0">
            <Node pos="l" depth="3" NCoef="0" IVar="-1" Cut="0.0000000000000000e+00" cType="1" res="-2.4854305665940046e-03" rms="4.8011317849159241e-01" purity="5.2064532041549683e-01" nType="-99"/>
            <Node pos="r" depth="3" NCoef="0" IVar="-1" Cut="0.0000000000000000e+00" cType="1" res="4.2977835983037949e-02" rms="3.9980733394622803e-01" purity="7.6815837621688843e-01" nType="-99"/>
          </Node>
        </Node>
      </Node>
    </BinaryTree>
    <BinaryTree type="DecisionTree" boostWeight="1.0000000000000000e+00" itree="6">
      <Node pos="s" depth="0" NCoef="0" IVar="6" Cut="7.4370676279067993e-01" cType="1" res="-3.7204992026090622e-02" rms="4.5844373106956482e-01" purity="5.0000000000000000e-01" nType="0">
        <Node pos="l" depth="1" NCoef="0" IVar="0" Cut="5.6601131439208984e+01" cType="1" res="-1.0591865330934525e-01" rms="4.6154564619064331e-01" purity="3.8607427477836609e-01" nType="0">
          <Node pos="l" depth="2" NCoef="0" IVar="5" Cut="5.3623568266630173e-02" cType="1" res="-1.6882249712944031e-01" rms="4.4207671284675598e-01" purity="3.1211471557617188e-01" nType="0">
            <Node pos="l" depth="3" NCoef="0" IVar="-1" Cut="0.0000000000000000e+00" cType="1" res="-2.3883968591690063e-02" rms="4.1054597496986389e-01" purity="2.3168615996837616e-01" nType="-99"/>
            <Node pos="r" depth="3" NCoef="0" IVar="-1" Cut="0.0000000000000000e+00" cType="1" res="-8.7920194491744041e-03" rms="4.7163343429565430e-01" purity="4.3033784627914429e-01" nType="-99"/>
          </Node>
          <Node pos="r" depth="2" NCoef="0" IVar="6" Cut="5.3624808788299561e-01" cType="1" res="1.3189570745453238e-03" rms="4.7409957647323608e-01" purity="5.1215946674346924e-01" nType="0">
            <Node pos="l" depth="3" NCoef="0" IVar="-1" Cut="0.0000000000000000e+00" cType="1" res="-2.6774790138006210e-02" rms="4.6265199780464172e-01" purity="3.4063681960105896e-01" nType="-99"/>
            <Node pos="r" depth="3" NCoef="0" IVar="-1" Cut="0.0000000000000000e+00" cType="1" res="2.2098852321505547e-02" rms="4.6966660022735596e-01" purity="5.7744258642196655e-01" nType="-99"/>
          </Node>
        </Node>
        <Node pos="r" depth="1" NCoef="0" IVar="1" Cut="9.9676216125488281e+01" cType="1" res="8.2948237657546997e-02" rms="4.2718568444252014e-01" purity="6.9921147823333740e-01" nType="0">
          <Node pos="l" depth="2" NCoef="0" IVar="8" Cut="-7.0354655385017395e-02" cType="1" res="9.1669093817472458e-03" rms="4.4856831431388855e-01" purity="6.1517149209976196e-01" nType="0">
            <Node pos="l" depth="3" NCoef="0" IVar="-1" Cut="0.0000000000000000e+00" cType="1" res="-1.3500030152499676e-02" rms="4.6945208311080933e-01" purity="5.0946074724197388e-01" nType="-99"/>
            <Node pos="r" depth="3" NCoef="0" IVar="-1" Cut="0.0000000000000000e+00" cType="1" res="2.8916416689753532e-02" rms="4.0177854895591736e-01" purity="7.4531841278076172e-01" nType="-99"/>
          </Node>
          <Node pos="r" depth="2" NCoef="0" IVar="12" Cut="2.2408020019531250e+01" cType="1" res="1.6735848784446716e-01" rms="3.8433194160461426e-01" purity="7.9535812139511108e-01" nType="0">
            <Node pos="l" depth="3" NCoef="0" IVar="-1" Cut="0.0000000000000000e+00" cType="1" res="1.1963490396738052e-01" rms="3.4980309009552002e-01" purity="8.3918273448944092e-01" nType="-99"/>
            <Node pos="r" depth="3" NCoef="0" IVar="-1" Cut="0.0000000000000000e+00" cType="1" res="8.5864469408988953e-02" rms="4.3572941422462463e-01" purity="7.1418118476867676e-01" nType="-99"/>
          </Node>
        </Node>
      </Node>
    </BinaryTree>
    <BinaryTree type="DecisionTree" boostWeight="1.0000000000000000e+00" itree="7">
      <Node pos="s" depth="0" NCoef="0" IVar="6" Cut="6.3998258113861084e-01" cType="1" res="-4.3107338249683380e-02" rms="4.5320200920104980e-01" purity="5.0000000000000000e-01" nType="0">
        <Node pos="l" depth="1" NCoef="0" IVar="0" Cut="5.6601131439208984e+01" cType="1" res="-1.4092700183391571e-01" rms="4.4746518135070801e-01" purity="3.0992555618286133e-01" nType="0">
          <Node pos="l" depth="2" NCoef="0" IVar="3" Cut="5.2577090263366699e-01" cType="1" res="-1.9744892418384552e-01" rms="4.1905719041824341e-01" purity="2.3966501653194427e-01" nType="0">
            <Node pos="l" depth="3" NCoef="0" IVar="-1" Cut="0.0000000000000000e+00" cType="1" res="-2.2041384130716324e-02" rms="3.6703053116798401e-01" purity="1.6482159495353699e-01" nType="-99"/>
            <Node pos="r" depth="3" NCoef="0" IVar="-1" Cut="0.0000000000000000e+00" cType="1" res="-1.2032660655677319e-02" rms="4.6591565012931824e-01" purity="3.3374342322349548e-01" nType="-99"/>
          </Node>
          <Node pos="r" depth="2" NCoef="0" IVar="3" Cut="5.2442091703414917e-01" cType="1" res="-3.7815116345882416e-02" rms="4.7819635272026062e-01" purity="4.3810051679611206e-01" nType="0">
            <Node pos="l" depth="3" NCoef="0" IVar="-1" Cut="0.0000000000000000e+00" cType="1" res="-2.5488007813692093e-02" rms="4.5766285061836243e-01" purity="3.2618680596351624e-01" nType="-99"/>
            <Node pos="r" depth="3" NCoef="0" IVar="-1" Cut="0.0000000000000000e+00" cType="1" res="1.5772709622979164e-02" rms="4.8828077316284180e-01" purity="5.6412351131439209e-01" nType="-99"/>
          </Node>
        </Node>
        <Node pos="r" depth="1" NCoef="0" IVar="2" Cut="6.6753131151199341e-01" cType="1" res="2.1912928670644760e-02" rms="4.4523996114730835e-01" purity="6.2634158134460449e-01" nType="0">
          <Node pos="l" depth="2" NCoef="0" IVar="0" Cut="5.2523227691650391e+01" cType="1" res="-1.0757827013731003e-01" rms="4.6194639801979065e-01" purity="4.4726338982582092e-01" nType="0">
            <Node pos="l" depth="3" NCoef="0" IVar="-1" Cut="0.0000000000000000e+00" cType="1" res="-2.7308264747262001e-02" rms="4.4085428118705750e-01" purity="3.3208933472633362e-01" nType="-99"/>
            <Node pos="r" depth="3" NCoef="0" IVar="-1" Cut="0.0000000000000000e+00" cType="1" res="-1.0417862795293331e-02" rms="4.6577644348144531e-01" purity="5.5002075433731079e-01" nType="-99"/>
          </Node>
          <Node pos="r" depth="2" NCoef="0" IVar="0" Cut="5.6890594482421875e+01" cType="1" res="5.9075303375720978e-02" rms="4.3323877453804016e-01" purity="6.7773485183715820e-01" nType="0">
            <Node pos="l" depth="3" NCoef="0" IVar="-1" Cut="0.0000000000000000e+00" cType="1" res="2.4979496374726295e-03" rms="4.5115622878074646e-01" purity="6.1746889352798462e-01" nType="-99"/>
            <Node pos="r" depth="3" NCoef="0" IVar="-1" Cut="0.0000000000000000e+00" cType="1" res="9.1068558394908905e-02" rms="3.9363038539886475e-01" purity="7.6940244436264038e-01" nType="-99"/>
          </Node>
        </Node>
      </Node>
    </BinaryTree>
    <BinaryTree type="DecisionTree" boostWeight="1.0000000000000000e+00" itree="8">
      <Node pos="s" depth="0" NCoef="0" IVar="5" Cut="6.5131716430187225e-02" cType="1" res="-4.6914942562580109e-02" rms="4.4948145747184753e-01" purity="5.0000000000000000e-01" nType="0">
        <Node pos="l" depth="1" NCoef="0" IVar="0" Cut="5.4519920349121094e+01" cType="1" res="-1.1419886350631714e-01" rms="4.4992494583129883e-01" purity="3.8497596979141235e-01" nType="0">
          <Node pos="l" depth="2" NCoef="0" IVar="3" Cut="7.1501326560974121e-01" cType="1" res="-1.7663431167602539e-01" rms="4.2786702513694763e-01" purity="3.0009779334068298e-01" nType="0">
            <Node pos="l" depth="3" NCoef="0" IVar="-1" Cut="0.0000000000000000e+00" cType="1" res="-2.3519022390246391e-02" rms="4.0782031416893005e-01" purity="2.4160833656787872e-01" nType="-99"/>
            <Node pos="r" depth="3" NCoef="0" IVar="-1" Cut="0.0000000000000000e+00" cType="1" res="-9.0639824047684669e-03" rms="4.6360543370246887e-01" purity="4.6939045190811157e-01" nType="-99"/>
          </Node>
          <Node pos="r" depth="2" NCoef="0" IVar="3" Cut="5.2506458759307861e-01" cType="1" res="-2.6472831144928932e-02" rms="4.6525767445564270e-01" purity="5.0423556566238403e-01" nType="0">
            <Node pos="l" depth="3" NCoef="0" IVar="-1" Cut="0.0000000000000000e+00" cType="1" res="-2.5437463074922562e-02" rms="4.6244931221008301e-01" purity="3.7803927063941956e-01" nType="-99"/>
            <Node pos="r" depth="3" NCoef="0" IVar="-1" Cut="0.0000000000000000e+00" cType="1" res="2.5310900062322617e-02" rms="4.5590016245841980e-01" purity="6.4234745502471924e-01" nType="-99"/>
          </Node>
        </Node>
        <Node pos="r" depth="1" NCoef="0" IVar="7" Cut="4.1684910655021667e-01" cType="1" res="3.8314834237098694e-02" rms="4.3419992923736572e-01" purity="6.4570307731628418e-01" nType="0">
          <Node pos="l" depth="2" NCoef="0" IVar="12" Cut="2.2409187316894531e+01" cType="1" res="-1.1668670922517776e-02" rms="4.5545524358749390e-01" purity="5.6616955995559692e-01" nType="0">
            <Node pos="l" depth="3" NCoef="0" IVar="-1" Cut="0.0000000000000000e+00" cType="1" res="9.4747086986899376e-03" rms="4.4110473990440369e-01" purity="6.4748185873031616e-01" nType="-99"/>
            <Node pos="r" depth="3" NCoef="0" IVar="-1" Cut="0.0000000000000000e+00" cType="1" res="-1.8932597711682320e-02" rms="4.6134904026985168e-01" purity="4.5736697316169739e-01" nType="-99"/>
          </Node>
          <Node pos="r" depth="2" NCoef="0" IVar="6" Cut="7.8144967555999756e-01" cType="1" res="1.2203554064035416e-01" rms="3.8165736198425293e-01" purity="7.7891904115676880e-01" nType="0">
            <Node pos="l" depth="3" NCoef="0" IVar="-1" Cut="0.0000000000000000e+00" cType="1" res="1.8017059192061424e-02" rms="4.3204912543296814e-01" purity="6.9996869564056396e-01" nType="-99"/>
            <Node pos="r" depth="3" NCoef="0" IVar="-1" Cut="0.0000000000000000e+00" cType="1" res="1.3073414564132690e-01" rms="2.6754128932952881e-01" purity="9.1215211153030396e-01" nType="-99"/>
          </Node>
        </Node>
      </Node>
    </BinaryTree>
    <BinaryTree type="DecisionTree" boostWeight="1.0000000000000000e+00" itree="9">
      <Node pos="s" depth="0" NCoef="0" IVar="5" Cut="4.3492734432220459e-02" cType="1" res="-4.6917933970689774e-02" rms="4.4631272554397583e-01" purity="5.0000000000000000e-01" nType="0">
        <Node pos="l" depth="1" NCoef="0" IVar="0" Cut="5.4261608123779297e+01" cType="1" res="-1.3672642409801483e-01" rms="4.4061487913131714e-01" purity="3.4079325199127197e-01" nType="0">
          <Node pos="l" depth="2" NCoef="0" IVar="1" Cut="9.1712631225585938e+01" cType="1" res="-1.9192644953727722e-01" rms="4.1353008151054382e-01" purity="2.6230120658874512e-01" nType="0">
            <Node pos="l" depth="3" NCoef="0" IVar="-1" Cut="0.0000000000000000e+00" cType="1" res="-2.4749407544732094e-02" rms="3.7830010056495667e-01" purity="1.9959990680217743e-01" nType="-99"/>
            <Node pos="r" depth="3" NCoef="0" IVar="-1" Cut="0.0000000000000000e+00" cType="1" res="-1.8881138414144516e-02" rms="4.4610443711280823e-01" purity="3.4510886669158936e-01" nType="-99"/>
          </Node>
          <Node pos="r" depth="2" NCoef="0" IVar="3" Cut="6.6800129413604736e-01" cType="1" res="-5.6826211512088776e-02" rms="4.6565341949462891e-01" purity="4.5440790057182312e-01" nType="0">
            <Node pos="l" depth="3" NCoef="0" IVar="-1" Cut="0.0000000000000000e+00" cType="1" res="-2.9394183307886124e-02" rms="4.6026372909545898e-01" purity="3.6979407072067261e-01" nType="-99"/>
            <Node pos="r" depth="3" NCoef="0" IVar="-1" Cut="0.0000000000000000e+00" cType="1" res="1.7406126484274864e-02" rms="4.6263185143470764e-01" purity="6.2965518236160278e-01" nType="-99"/>
          </Node>
        </Node>
        <Node pos="r" depth="1" NCoef="0" IVar="3" Cut="3.8189309835433960e-01" cType="1" res="8.7705599144101143e-03" rms="4.4071096181869507e-01" purity="5.9872102737426758e-01" nType="0">
          <Node pos="l" depth="2" NCoef="0" IVar="0" Cut="5.3966438293457031e+01" cType="1" res="-7.8888326883316040e-02" rms="4.5953270792961121e-01" purity="4.3710270524024963e-01" nType="0">
            <Node pos="l" depth="3" NCoef="0" IVar="-1" Cut="0.0000000000000000e+00" cType="1" res="-1.4115773141384125e-02" rms="4.4416499137878418e-01" purity="3.4120398759841919e-01" nType="-99"/>
            <Node pos="r" depth="3" NCoef="0" IVar="-1" Cut="0.0000000000000000e+00" cType="1" res="8.8405067799612880e-04" rms="4.6413385868072510e-01" purity="5.5104672908782959e-01" nType="-99"/>
          </Node>
          <Node pos="r" depth="2" NCoef="0" IVar="12" Cut="2.2298755645751953e+01" cType="1" res="5.8393429964780807e-02" rms="4.2168936133384705e-01" purity="6.9021159410476685e-01" nType="0">
            <Node pos="l" depth="3" NCoef="0" IVar="-1" Cut="0.0000000000000000e+00" cType="1" res="2.5464421138167381e-02" rms="3.9336445927619934e-01" purity="7.5895595550537109e-01" nType="-99"/>
            <Node pos="r" depth="3" NCoef="0" IVar="-1" Cut="0.0000000000000000e+00" cType="1" res="-3.0146117787808180e-03" rms="4.5549669861793518e-01" purity="5.7846570014953613e-01" nType="-99"/>
          </Node>
        </Node>
      </Node>
    </BinaryTree>
    <BinaryTree type="DecisionTree" boostWeight="1.0000000000000000e+00" itree="10">
      <Node pos="s" depth="0" NCoef="0" IVar="6" Cut="5.7083320617675781e-01" cType="1" res="-4.5013658702373505e-02" rms="4.4430926442146301e-01" purity="5.0000000000000000e-01" nType="0">
        <Node pos="l" depth="1" NCoef="0" IVar="0" Cut="5.1414283752441406e+01" cType="1" res="-1.6177800297737122e-01" rms="4.2367571592330933e-01" purity="2.5944700837135315e-01" nType="0">
          <Node pos="l" depth="2" NCoef="0" IVar="-1" Cut="0.0000000000000000e+00" cType="1" res="-1.7866555601358414e-02" rms="3.7924090027809143e-01" purity="1.8074496090412140e-01" nType="-99"/>
          <Node pos="r" depth="2" NCoef="0" IVar="3" Cut="4.3017995357513428e-01" cType="1" res="-9.4567693769931793e-02" rms="4.5737454295158386e-01" purity="3.4416392445564270e-01" nType="0">
            <Node pos="l" depth="3" NCoef="0" IVar="-1" Cut="0.0000000000000000e+00" cType="1" res="-2.2965513169765472e-02" rms="4.0681150555610657e-01" purity="2.1547588706016541e-01" nType="-99"/>
            <Node pos="r" depth="3" NCoef="0" IVar="-1" Cut="0.0000000000000000e+00" cType="1" res="-9.1271512210369110e-03" rms="4.8767405748367310e-01" purity="4.4937333464622498e-01" nType="-99"/>
          </Node>
        </Node>
        <Node pos="r" depth="1" NCoef="0" IVar="3" Cut="3.8189309835433960e-01" cType="1" res="-5.0039426423609257e-03" rms="4.4415655732154846e-01" purity="5.8242636919021606e-01" nType="0">
          <Node pos="l" depth="2" NCoef="0" IVar="0" Cut="5.3958148956298828e+01" cType="1" res="-8.4317833185195923e-02" rms="4.5948880910873413e-01" purity="4.2121556401252747e-01" nType="0">
            <Node pos="l" depth="3" NCoef="0" IVar="-1" Cut="0.0000000000000000e+00" cType="1" res="-1.8174227327108383e-02" rms="4.4317603111267090e-01" purity="3.3186715841293335e-01" nType="-99"/>
            <Node pos="r" depth="3" NCoef="0" IVar="-1" Cut="0.0000000000000000e+00" cType="1" res="-4.5389956794679165e-03" rms="4.6812728047370911e-01" purity="5.2610045671463013e-01" nType="-99"/>
          </Node>
          <Node pos="r" depth="2" NCoef="0" IVar="12" Cut="2.3310327529907227e+01" cType="1" res="4.0542162954807281e-02" rms="4.2852297425270081e-01" purity="6.7500185966491699e-01" nType="0">
            <Node pos="l" depth="3" NCoef="0" IVar="-1" Cut="0.0000000000000000e+00" cType="1" res="2.3208567872643471e-02" rms="4.0250188112258911e-01" purity="7.4268823862075806e-01" nType="-99"/>
            <Node pos="r" depth="3" NCoef="0" IVar="-1" Cut="0.0000000000000000e+00" cType="1" res="-9.0244468301534653e-03" rms="4.6052858233451843e-01" purity="5.6240761280059814e-01" nType="-99"/>
          </Node>
        </Node>
      </Node>
    </BinaryTree>
    <BinaryTree type="DecisionTree" boostWeight="1.0000000000000000e+00" itree="11">
      <Node pos="s" depth="0" NCoef="0" IVar="6" Cut="5.7083320617675781e-01" cType="1" res="-4.3539412319660187e-02" rms="4.4274938106536865e-01" purity="5.0000000000000000e-01" nType="0">
        <Node pos="l" depth="1" NCoef="0" IVar="0" Cut="5.1414283752441406e+01" cType="1" res="-1.5382462739944458e-01" rms="4.2338860034942627e-01" purity="2.5944700837135315e-01" nType="0">
          <Node pos="l" depth="2" NCoef="0" IVar="-1" Cut="0.0000000000000000e+00" cType="1" res="-1.7305579036474228e-02" rms="3.7927013635635376e-01" purity="1.8074496090412140e-01" nType="-99"/>
          <Node pos="r" depth="2" NCoef="0" IVar="3" Cut="4.3017995357513428e-01" cType="1" res="-8.7265431880950928e-02" rms="4.5697990059852600e-01" purity="3.4416392445564270e-01" nType="0">
            <Node pos="l" depth="3" NCoef="0" IVar="-1" Cut="0.0000000000000000e+00" cType="1" res="-2.1707167848944664e-02" rms="4.0684688091278076e-01" purity="2.1547588706016541e-01" nType="-99"/>
            <Node pos="r" depth="3" NCoef="0" IVar="-1" Cut="0.0000000000000000e+00" cType="1" res="-8.0553460866212845e-03" rms="4.8767888545989990e-01" purity="4.4937333464622498e-01" nType="-99"/>
          </Node>
        </Node>
        <Node pos="r" depth="1" NCoef="0" IVar="2" Cut="6.8909317255020142e-01" cType="1" res="-5.7497904635965824e-03" rms="4.4291907548904419e-01" purity="5.8242636919021606e-01" nType="0">
          <Node pos="l" depth="2" NCoef="0" IVar="0" Cut="5.6605178833007812e+01" cType="1" res="-1.0656628012657166e-01" rms="4.5002794265747070e-01" purity="4.2727318406105042e-01" nType="0">
            <Node pos="l" depth="3" NCoef="0" IVar="-1" Cut="0.0000000000000000e+00" cType="1" res="-2.5899747386574745e-02" rms="4.3111032247543335e-01" purity="3.3433914184570312e-01" nType="-99"/>
            <Node pos="r" depth="3" NCoef="0" IVar="-1" Cut="0.0000000000000000e+00" cType="1" res="-9.6632596105337143e-03" rms="4.6066012978553772e-01" purity="5.5495941638946533e-01" nType="-99"/>
          </Node>
          <Node pos="r" depth="2" NCoef="0" IVar="6" Cut="8.0791813135147095e-01" cType="1" res="2.5663116946816444e-02" rms="4.3594232201576233e-01" purity="6.3076967000961304e-01" nType="0">
            <Node pos="l" depth="3" NCoef="0" IVar="-1" Cut="0.0000000000000000e+00" cType="1" res="-1.7744418000802398e-03" rms="4.5729315280914307e-01" purity="5.5828070640563965e-01" nType="-99"/>
            <Node pos="r" depth="3" NCoef="0" IVar="-1" Cut="0.0000000000000000e+00" cType="1" res="5.9535942971706390e-02" rms="3.6505284905433655e-01" purity="8.0844807624816895e-01" nType="-99"/>
          </Node>
        </Node>
      </Node>
    </BinaryTree>
    <BinaryTree type="DecisionTree" boostWeight="1.0000000000000000e+00" itree="12">
      <Node pos="s" depth="0" NCoef="0" IVar="5" Cut="4.3492734432220459e-02" cType="1" res="-4.3529693037271500e-02" rms="4.4074159860610962e-01" purity="5.0000000000000000e-01" nType="0">
        <Node pos="l" depth="1" NCoef="0" IVar="0" Cut="6.8522499084472656e+01" cType="1" res="-1.2055887281894684e-01" rms="4.3679863214492798e-01" purity="3.4079325199127197e-01" nType="0">
          <Node pos="l" depth="2" NCoef="0" IVar="3" Cut="8.1006693840026855e-01" cType="1" res="-1.4828328788280487e-01" rms="4.2528003454208374e-01" purity="3.0307078361511230e-01" nType="0">
            <Node pos="l" depth="3" NCoef="0" IVar="-1" Cut="0.0000000000000000e+00" cType="1" res="-2.3653581738471985e-02" rms="4.1250091791152954e-01" purity="2.6102387905120850e-01" nType="-99"/>
            <Node pos="r" depth="3" NCoef="0" IVar="-1" Cut="0.0000000000000000e+00" cType="1" res="-4.1520902886986732e-03" rms="4.6357655525207520e-01" purity="5.1270955801010132e-01" nType="-99"/>
          </Node>
          <Node pos="r" depth="2" NCoef="0" IVar="-1" Cut="0.0000000000000000e+00" cType="1" res="1.7557635903358459e-02" rms="4.6662089228630066e-01" purity="5.3992807865142822e-01" nType="-99"/>
        </Node>
        <Node pos="r" depth="1" NCoef="0" IVar="7" Cut="4.1768121719360352e-01" cType="1" res="4.2346008121967316e-03" rms="4.3639206886291504e-01" purity="5.9872102737426758e-01" nType="0">
          <Node pos="l" depth="2" NCoef="0" IVar="3" Cut="5.7191598415374756e-01" cType="1" res="-3.2538514584302902e-02" rms="4.5133215188980103e-01" purity="5.3061532974243164e-01" nType="0">
            <Node pos="l" depth="3" NCoef="0" IVar="-1" Cut="0.0000000000000000e+00" cType="1" res="-1.2399205006659031e-02" rms="4.5862501859664917e-01" purity="4.2276728153228760e-01" nType="-99"/>
            <Node pos="r" depth="3" NCoef="0" IVar="-1" Cut="0.0000000000000000e+00" cType="1" res="1.0024793446063995e-02" rms="4.3129450082778931e-01" purity="6.7979943752288818e-01" nType="-99"/>
          </Node>
          <Node pos="r" depth="2" NCoef="0" IVar="1" Cut="7.3440574645996094e+01" cType="1" res="9.2417471110820770e-02" rms="3.8420671224594116e-01" purity="7.6204001903533936e-01" nType="0">
            <Node pos="l" depth="3" NCoef="0" IVar="-1" Cut="0.0000000000000000e+00" cType="1" res="5.0629442557692528e-03" rms="4.2085450887680054e-01" purity="6.6590398550033569e-01" nType="-99"/>
            <Node pos="r" depth="3" NCoef="0" IVar="-1" Cut="0.0000000000000000e+00" cType="1" res="4.8524342477321625e-02" rms="3.5571539402008057e-01" purity="8.1848901510238647e-01" nType="-99"/>
          </Node>
        </Node>
      </Node>
    </BinaryTree>
    <BinaryTree type="DecisionTree" boostWeight="1.0000000000000000e+00" itree="13">
      <Node pos="s" depth="0" NCoef="0" IVar="6" Cut="5.7083320617675781e-01" cType="1" res="-4.2505800724029541e-02" rms="4.3875905871391296e-01" purity="5.0000000000000000e-01" nType="0">
        <Node pos="l" depth="1" NCoef="0" IVar="0" Cut="5.1414283752441406e+01" cType="1" res="-1.4265426993370056e-01" rms="4.2120969295501709e-01" purity="2.5944700837135315e-01" nType="0">
          <Node pos="l" depth="2" NCoef="0" IVar="-1" Cut="0.0000000000000000e+00" cType="1" res="-1.6382984817028046e-02" rms="3.7800115346908569e-01" purity="1.8074496090412140e-01" nType="-99"/>
          <Node pos="r" depth="2" NCoef="0" IVar="3" Cut="4.3017995357513428e-01" cType="1" res="-7.9675503075122833e-02" rms="4.5490488409996033e-01" purity="3.4416392445564270e-01" nType="0">
            <Node pos="l" depth="3" NCoef="0" IVar="-1" Cut="0.0000000000000000e+00" cType="1" res="-2.0247707143425941e-02" rms="4.0543019771575928e-01" purity="2.1547588706016541e-01" nType="-99"/>
            <Node pos="r" depth="3" NCoef="0" IVar="-1" Cut="0.0000000000000000e+00" cType="1" res="-7.3281195946037769e-03" rms="4.8614788055419922e-01" purity="4.4937333464622498e-01" nType="-99"/>
          </Node>
        </Node>
        <Node pos="r" depth="1" NCoef="0" IVar="3" Cut="1.9187019765377045e-01" cType="1" res="-8.1895701587200165e-03" rms="4.3939334154129028e-01" purity="5.8242636919021606e-01" nType="0">
          <Node pos="l" depth="2" NCoef="0" IVar="1" Cut="9.0640937805175781e+01" cType="1" res="-1.2071631103754044e-01" rms="4.4674849510192871e-01" purity="3.6872088909149170e-01" nType="0">
            <Node pos="l" depth="3" NCoef="0" IVar="-1" Cut="0.0000000000000000e+00" cType="1" res="-2.4062991142272949e-02" rms="4.1666102409362793e-01" purity="2.7629032731056213e-01" nType="-99"/>
            <Node pos="r" depth="3" NCoef="0" IVar="-1" Cut="0.0000000000000000e+00" cType="1" res="-1.2962037697434425e-02" rms="4.6824768185615540e-01" purity="4.6849405765533447e-01" nType="-99"/>
          </Node>
          <Node pos="r" depth="2" NCoef="0" IVar="8" Cut="-7.3096051812171936e-02" cType="1" res="1.6507286578416824e-02" rms="4.3387442827224731e-01" purity="6.2932938337326050e-01" nType="0">
            <Node pos="l" depth="3" NCoef="0" IVar="-1" Cut="0.0000000000000000e+00" cType="1" res="-9.2038465663790703e-03" rms="4.5284169912338257e-01" purity="5.3733283281326294e-01" nType="-99"/>
            <Node pos="r" depth="3" NCoef="0" IVar="-1" Cut="0.0000000000000000e+00" cType="1" res="1.7559761181473732e-02" rms="4.1136351227760315e-01" purity="7.0848321914672852e-01" nType="-99"/>
          </Node>
        </Node>
      </Node>
    </BinaryTree>
    <BinaryTree type="DecisionTree" boostWeight="1.0000000000000000e+00" itree="14">
      <Node pos="s" depth="0" NCoef="0" IVar="6" Cut="7.4370676279067993e-01" cType="1" res="-4.0758233517408371e-02" rms="4.3753764033317566e-01" purity="5.0000000000000000e-01" nType="0">
        <Node pos="l" depth="1" NCoef="0" IVar="7" Cut="4.1930046677589417e-01" cType="1" res="-8.3484172821044922e-02" rms="4.4696119427680969e-01" purity="3.8607427477836609e-01" nType="0">
          <Node pos="l" depth="2" NCoef="0" IVar="0" Cut="5.3767238616943359e+01" cType="1" res="-1.0990396887063980e-01" rms="4.4232493638992310e-01" purity="3.3710107207298279e-01" nType="0">
            <Node pos="l" depth="3" NCoef="0" IVar="-1" Cut="0.0000000000000000e+00" cType="1" res="-1.6333408653736115e-02" rms="4.1782733798027039e-01" purity="2.6635906100273132e-01" nType="-99"/>
            <Node pos="r" depth="3" NCoef="0" IVar="-1" Cut="0.0000000000000000e+00" cType="1" res="-1.3365503400564194e-02" rms="4.6711099147796631e-01" purity="4.3609970808029175e-01" nType="-99"/>
          </Node>
          <Node pos="r" depth="2" NCoef="0" IVar="-1" Cut="0.0000000000000000e+00" cType="1" res="1.0220738127827644e-02" rms="4.4525057077407837e-01" purity="6.4650923013687134e-01" nType="-99"/>
        </Node>
        <Node pos="r" depth="1" NCoef="0" IVar="3" Cut="1.9288477301597595e-01" cType="1" res="3.3952672034502029e-02" rms="4.0998840332031250e-01" purity="6.9921147823333740e-01" nType="0">
          <Node pos="l" depth="2" NCoef="0" IVar="-1" Cut="0.0000000000000000e+00" cType="1" res="-1.3825245201587677e-02" rms="4.6094262599945068e-01" purity="4.6507218480110168e-01" nType="-99"/>
          <Node pos="r" depth="2" NCoef="0" IVar="6" Cut="8.3590698242187500e-01" cType="1" res="5.6685060262680054e-02" rms="3.9469033479690552e-01" purity="7.4847531318664551e-01" nType="0">
            <Node pos="l" depth="3" NCoef="0" IVar="-1" Cut="0.0000000000000000e+00" cType="1" res="6.1950776726007462e-03" rms="4.1547942161560059e-01" purity="6.9614887237548828e-01" nType="-99"/>
            <Node pos="r" depth="3" NCoef="0" IVar="-1" Cut="0.0000000000000000e+00" cType="1" res="6.2678404152393341e-02" rms="3.6203598976135254e-01" purity="8.1271064281463623e-01" nType="-99"/>
          </Node>
        </Node>
      </Node>
    </BinaryTree>
    <BinaryTree type="DecisionTree" boostWeight="1.0000000000000000e+00" itree="15">
      <Node pos="s" depth="0" NCoef="0" IVar="6" Cut="5.3625845909118652e-01" cType="1" res="-4.0575753897428513e-02" rms="4.3583753705024719e-01" purity="5.0000000000000000e-01" nType="0">
        <Node pos="l" depth="1" NCoef="0" IVar="6" Cut="4.7038260102272034e-01" cType="1" res="-1.5134158730506897e-01" rms="4.0946817398071289e-01" purity="2.3525929450988770e-01" nType="0">
          <Node pos="l" depth="2" NCoef="0" IVar="-1" Cut="0.0000000000000000e+00" cType="1" res="-1.9134720787405968e-02" rms="3.7826901674270630e-01" purity="1.8650430440902710e-01" nType="-99"/>
          <Node pos="r" depth="2" NCoef="0" IVar="-1" Cut="0.0000000000000000e+00" cType="1" res="-1.4316752552986145e-02" rms="4.3383461236953735e-01" purity="2.8447580337524414e-01" nType="-99"/>
        </Node>
        <Node pos="r" depth="1" NCoef="0" IVar="3" Cut="6.6692745685577393e-01" cType="1" res="-1.4933137223124504e-02" rms="4.3774050474166870e-01" purity="5.6128823757171631e-01" nType="0">
          <Node pos="l" depth="2" NCoef="0" IVar="0" Cut="5.6890300750732422e+01" cType="1" res="-5.1616460084915161e-02" rms="4.4929927587509155e-01" purity="4.7743275761604309e-01" nType="0">
            <Node pos="l" depth="3" NCoef="0" IVar="-1" Cut="0.0000000000000000e+00" cType="1" res="-1.3093232177197933e-02" rms="4.4457846879959106e-01" purity="4.0447169542312622e-01" nType="-99"/>
            <Node pos="r" depth="3" NCoef="0" IVar="-1" Cut="0.0000000000000000e+00" cType="1" res="8.0300578847527504e-03" rms="4.4851502776145935e-01" purity="5.9732526540756226e-01" nType="-99"/>
          </Node>
          <Node pos="r" depth="2" NCoef="0" IVar="12" Cut="2.6209371566772461e+01" cType="1" res="5.7062406092882156e-02" rms="4.0456074476242065e-01" purity="7.2586494684219360e-01" nType="0">
            <Node pos="l" depth="3" NCoef="0" IVar="-1" Cut="0.0000000000000000e+00" cType="1" res="3.5208899527788162e-02" rms="3.7297070026397705e-01" purity="7.9293167591094971e-01" nType="-99"/>
            <Node pos="r" depth="3" NCoef="0" IVar="-1" Cut="0.0000000000000000e+00" cType="1" res="-3.4097610041499138e-03" rms="4.5282909274101257e-01" purity="5.9256285429000854e-01" nType="-99"/>
          </Node>
        </Node>
      </Node>
    </BinaryTree>
    <BinaryTree type="DecisionTree" boostWeight="1.0000000000000000e+00" itree="16">
      <Node pos="s" depth="0" NCoef="0" IVar="7" Cut="4.0711319446563721e-01" cType="1" res="-4.0097974240779877e-02" rms="4.3446144461631775e-01" purity="5.0000000000000000e-01" nType="0">
        <Node pos="l" depth="1" NCoef="0" IVar="3" Cut="8.5696774721145630e-01" cType="1" res="-8.4915325045585632e-02" rms="4.3962964415550232e-01" purity="3.9262288808822632e-01" nType="0">
          <Node pos="l" depth="2" NCoef="0" IVar="6" Cut="8.1285619735717773e-01" cType="1" res="-1.0558786243200302e-01" rms="4.3612226843833923e-01" purity="3.5413479804992676e-01" nType="0">
            <Node pos="l" depth="3" NCoef="0" IVar="-1" Cut="0.0000000000000000e+00" cType="1" res="-1.9635144621133804e-02" rms="4.2964428663253784e-01" purity="2.9928407073020935e-01" nType="-99"/>
            <Node pos="r" depth="3" NCoef="0" IVar="-1" Cut="0.0000000000000000e+00" cType="1" res="3.0349963344633579e-03" rms="4.4816613197326660e-01" purity="6.1261612176895142e-01" nType="-99"/>
          </Node>
          <Node pos="r" depth="2" NCoef="0" IVar="-1" Cut="0.0000000000000000e+00" cType="1" res="1.6927490010857582e-02" rms="4.3834826350212097e-01" purity="6.4614927768707275e-01" nType="-99"/>
        </Node>
        <Node pos="r" depth="1" NCoef="0" IVar="7" Cut="4.2568439245223999e-01" cType="1" res="1.7718305811285973e-02" rms="4.2070782184600830e-01" purity="6.3852101564407349e-01" nType="0">
          <Node pos="l" depth="2" NCoef="0" IVar="2" Cut="6.7294555902481079e-01" cType="1" res="-4.3252860195934772e-03" rms="4.3030408024787903e-01" purity="6.0093569755554199e-01" nType="0">
            <Node pos="l" depth="3" NCoef="0" IVar="-1" Cut="0.0000000000000000e+00" cType="1" res="-1.5063450671732426e-02" rms="4.4492653012275696e-01" purity="4.4633510708808899e-01" nType="-99"/>
            <Node pos="r" depth="3" NCoef="0" IVar="-1" Cut="0.0000000000000000e+00" cType="1" res="3.7268796004354954e-03" rms="4.2321771383285522e-01" purity="6.4031839370727539e-01" nType="-99"/>
          </Node>
          <Node pos="r" depth="2" NCoef="0" IVar="-1" Cut="0.0000000000000000e+00" cType="1" res="5.5473487824201584e-02" rms="3.4778907895088196e-01" purity="8.2819026708602905e-01" nType="-99"/>
        </Node>
      </Node>
    </BinaryTree>
    <BinaryTree type="DecisionTree" boostWeight="1.0000000000000000e+00" itree="17">
      <Node pos="s" depth="0" NCoef="0" IVar="6" Cut="5.3625845909118652e-01" cType="1" res="-3.8497053086757660e-02" rms="4.3296098709106445e-01" purity="5.0000000000000000e-01" nType="0">
        <Node pos="l" depth="1" NCoef="0" IVar="6" Cut="4.7038260102272034e-01" cType="1" res="-1.3997767865657806e-01" rms="4.0811955928802490e-01" purity="2.3525929450988770e-01" nType="0">
          <Node pos="l" depth="2" NCoef="0" IVar="-1" Cut="0.0000000000000000e+00" cType="1" res="-1.8166361376643181e-02" rms="3.7753435969352722e-01" purity="1.8650430440902710e-01" nType="-99"/>
          <Node pos="r" depth="2" NCoef="0" IVar="-1" Cut="0.0000000000000000e+00" cType="1" res="-1.3169979676604271e-02" rms="4.3226081132888794e-01" purity="2.8447580337524414e-01" nType="-99"/>
        </Node>
        <Node pos="r" depth="1" NCoef="0" IVar="2" Cut="6.8909317255020142e-01" cType="1" res="-1.5003987587988377e-02" rms="4.3515071272850037e-01" purity="5.6128823757171631e-01" nType="0">
          <Node pos="l" depth="2" NCoef="0" IVar="1" Cut="6.9352737426757812e+01" cType="1" res="-1.0038211941719055e-01" rms="4.3791496753692627e-01" purity="4.1045573353767395e-01" nType="0">
            <Node pos="l" depth="3" NCoef="0" IVar="-1" Cut="0.0000000000000000e+00" cType="1" res="-2.2382810711860657e-02" rms="4.2546236515045166e-01" purity="3.5471391677856445e-01" nType="-99"/>
            <Node pos="r" depth="3" NCoef="0" IVar="-1" Cut="0.0000000000000000e+00" cType="1" res="-4.1028303094208241e-03" rms="4.4883772730827332e-01" purity="5.2856451272964478e-01" nType="-99"/>
          </Node>
          <Node pos="r" depth="2" NCoef="0" IVar="3" Cut="3.8189309835433960e-01" cType="1" res="1.1486664414405823e-02" rms="4.3086406588554382e-01" purity="6.0808771848678589e-01" nType="0">
            <Node pos="l" depth="3" NCoef="0" IVar="-1" Cut="0.0000000000000000e+00" cType="1" res="-8.4181549027562141e-03" rms="4.5370864868164062e-01" purity="4.4569259881973267e-01" nType="-99"/>
            <Node pos="r" depth="3" NCoef="0" IVar="-1" Cut="0.0000000000000000e+00" cType="1" res="1.3116046786308289e-02" rms="4.1373887658119202e-01" purity="6.9815295934677124e-01" nType="-99"/>
          </Node>
        </Node>
      </Node>
    </BinaryTree>
    <BinaryTree type="DecisionTree" boostWeight="1.0000000000000000e+00" itree="18">
      <Node pos="s" depth="0" NCoef="0" IVar="0" Cut="5.6889678955078125e+01" cType="1" res="-3.6940339952707291e-02" rms="4.3193641304969788e-01" purity="5.0000000000000000e-01" nType="0">
        <Node pos="l" depth="1" NCoef="0" IVar="12" Cut="2.3645557403564453e+01" cType="1" res="-7.4580095708370209e-02" rms="4.3003696203231812e-01" purity="4.2665752768516541e-01" nType="0">
          <Node pos="l" depth="2" NCoef="0" IVar="2" Cut="8.4679853916168213e-01" cType="1" res="-2.7409484609961510e-02" rms="4.3408393859863281e-01" purity="5.1457029581069946e-01" nType="0">
            <Node pos="l" depth="3" NCoef="0" IVar="-1" Cut="0.0000000000000000e+00" cType="1" res="-1.2796821072697639e-02" rms="4.2806291580200195e-01" purity="3.9219236373901367e-01" nType="-99"/>
            <Node pos="r" depth="3" NCoef="0" IVar="-1" Cut="0.0000000000000000e+00" cType="1" res="1.9034891156479716e-03" rms="4.3152567744255066e-01" purity="5.7522648572921753e-01" nType="-99"/>
          </Node>
          <Node pos="r" depth="2" NCoef="0" IVar="0" Cut="4.8847087860107422e+01" cType="1" res="-1.5510630607604980e-01" rms="4.1070535778999329e-01" purity="2.7657926082611084e-01" nType="0">
            <Node pos="l" depth="3" NCoef="0" IVar="-1" Cut="0.0000000000000000e+00" cType="1" res="-2.3774567991495132e-02" rms="3.8925629854202271e-01" purity="2.2854553163051605e-01" nType="-99"/>
            <Node pos="r" depth="3" NCoef="0" IVar="-1" Cut="0.0000000000000000e+00" cType="1" res="-1.7754634842276573e-02" rms="4.3426620960235596e-01" purity="3.4571129083633423e-01" nType="-99"/>
          </Node>
        </Node>
        <Node pos="r" depth="1" NCoef="0" IVar="7" Cut="4.0772330760955811e-01" cType="1" res="2.4424478411674500e-02" rms="4.2797544598579407e-01" purity="6.1957168579101562e-01" nType="0">
          <Node pos="l" depth="2" NCoef="0" IVar="12" Cut="2.9892976760864258e+01" cType="1" res="-1.5817841514945030e-02" rms="4.5504060387611389e-01" purity="5.0094997882843018e-01" nType="0">
            <Node pos="l" depth="3" NCoef="0" IVar="-1" Cut="0.0000000000000000e+00" cType="1" res="1.2768961489200592e-02" rms="4.4323113560676575e-01" purity="5.7961779832839966e-01" nType="-99"/>
            <Node pos="r" depth="3" NCoef="0" IVar="-1" Cut="0.0000000000000000e+00" cType="1" res="-2.4449972435832024e-02" rms="4.6129143238067627e-01" purity="4.2967876791954041e-01" nType="-99"/>
          </Node>
          <Node pos="r" depth="2" NCoef="0" IVar="7" Cut="4.2147982120513916e-01" cType="1" res="6.3162609934806824e-02" rms="3.9635556936264038e-01" purity="7.3375952243804932e-01" nType="0">
            <Node pos="l" depth="3" NCoef="0" IVar="-1" Cut="0.0000000000000000e+00" cType="1" res="1.5772609040141106e-02" rms="4.2188337445259094e-01" purity="6.7326319217681885e-01" nType="-99"/>
            <Node pos="r" depth="3" NCoef="0" IVar="-1" Cut="0.0000000000000000e+00" cType="1" res="9.5410726964473724e-02" rms="3.4531706571578979e-01" purity="8.3434247970581055e-01" nType="-99"/>
          </Node>
        </Node>
      </Node>
    </BinaryTree>
    <BinaryTree type="DecisionTree" boostWeight="1.0000000000000000e+00" itree="19">
      <Node pos="s" depth="0" NCoef="0" IVar="6" Cut="7.4370676279067993e-01" cType="1" res="-3.6733917891979218e-02" rms="4.3022561073303223e-01" purity="5.0000000000000000e-01" nType="0">
        <Node pos="l" depth="1" NCoef="0" IVar="0" Cut="5.6601131439208984e+01" cType="1" res="-7.1253240108489990e-02" rms="4.4031554460525513e-01" purity="3.8607427477836609e-01" nType="0">
          <Node pos="l" depth="2" NCoef="0" IVar="9" Cut="2.3094607543945312e+02" cType="1" res="-1.0859525948762894e-01" rms="4.2676675319671631e-01" purity="3.1211471557617188e-01" nType="0">
            <Node pos="l" depth="3" NCoef="0" IVar="-1" Cut="0.0000000000000000e+00" cType="1" res="-6.8843681365251541e-03" rms="4.4290673732757568e-01" purity="3.7175709009170532e-01" nType="-99"/>
            <Node pos="r" depth="3" NCoef="0" IVar="-1" Cut="0.0000000000000000e+00" cType="1" res="-2.0168008282780647e-02" rms="3.9637270569801331e-01" purity="2.3265694081783295e-01" nType="-99"/>
          </Node>
          <Node pos="r" depth="2" NCoef="0" IVar="2" Cut="6.8794661760330200e-01" cType="1" res="-7.5930748134851456e-03" rms="4.5549491047859192e-01" purity="5.1215946674346924e-01" nType="0">
            <Node pos="l" depth="3" NCoef="0" IVar="-1" Cut="0.0000000000000000e+00" cType="1" res="-3.9154749363660812e-02" rms="4.5046499371528625e-01" purity="3.9264291524887085e-01" nType="-99"/>
            <Node pos="r" depth="3" NCoef="0" IVar="-1" Cut="0.0000000000000000e+00" cType="1" res="6.3409460708498955e-03" rms="4.5401343703269958e-01" purity="5.4947835206985474e-01" nType="-99"/>
          </Node>
        </Node>
        <Node pos="r" depth="1" NCoef="0" IVar="2" Cut="6.5426546335220337e-01" cType="1" res="2.3626830428838730e-02" rms="4.0497872233390808e-01" purity="6.9921147823333740e-01" nType="0">
          <Node pos="l" depth="2" NCoef="0" IVar="-1" Cut="0.0000000000000000e+00" cType="1" res="-1.1377799324691296e-02" rms="4.4658878445625305e-01" purity="4.9426504969596863e-01" nType="-99"/>
          <Node pos="r" depth="2" NCoef="0" IVar="12" Cut="2.2408020019531250e+01" cType="1" res="4.6327322721481323e-02" rms="3.8954263925552368e-01" purity="7.5650501251220703e-01" nType="0">
            <Node pos="l" depth="3" NCoef="0" IVar="-1" Cut="0.0000000000000000e+00" cType="1" res="3.4541867673397064e-02" rms="3.5913246870040894e-01" purity="8.1118327379226685e-01" nType="-99"/>
            <Node pos="r" depth="3" NCoef="0" IVar="-1" Cut="0.0000000000000000e+00" cType="1" res="-3.6877233069390059e-03" rms="4.3969520926475525e-01" purity="6.4578157663345337e-01" nType="-99"/>
          </Node>
        </Node>
      </Node>
    </BinaryTree>
    <BinaryTree type="DecisionTree" boostWeight="1.0000000000000000e+00" itree="20">
      <Node pos="s" depth="0" NCoef="0" IVar="6" Cut="5.0168377161026001e-01" cType="1" res="-3.5657826811075211e-02" rms="4.2901819944381714e-01" purity="5.0000000000000000e-01" nType="0">
        <Node pos="l" depth="1" NCoef="0" IVar="-1" Cut="0.0000000000000000e+00" cType="1" res="-1.6326107084751129e-02" rms="3.9213013648986816e-01" purity="2.1193943917751312e-01" nType="-99"/>
        <Node pos="r" depth="1" NCoef="0" IVar="3" Cut="4.7690454125404358e-01" cType="1" res="-1.8526753410696983e-02" rms="4.3191456794738770e-01" purity="5.4455047845840454e-01" nType="0">
          <Node pos="l" depth="2" NCoef="0" IVar="6" Cut="7.3178505897521973e-01" cType="1" res="-6.5886080265045166e-02" rms="4.4022682309150696e-01" purity="4.0710338950157166e-01" nType="0">
            <Node pos="l" depth="3" NCoef="0" IVar="-1" Cut="0.0000000000000000e+00" cType="1" res="-1.4451622031629086e-02" rms="4.2878782749176025e-01" purity="2.9797565937042236e-01" nType="-99"/>
            <Node pos="r" depth="3" NCoef="0" IVar="-1" Cut="0.0000000000000000e+00" cType="1" res="-2.4500994477421045e-03" rms="4.4985783100128174e-01" purity="5.6013911962509155e-01" nType="-99"/>
          </Node>
          <Node pos="r" depth="2" NCoef="0" IVar="2" Cut="6.8909317255020142e-01" cType="1" res="2.3287227377295494e-02" rms="4.2002484202384949e-01" purity="6.6590374708175659e-01" nType="0">
            <Node pos="l" depth="3" NCoef="0" IVar="-1" Cut="0.0000000000000000e+00" cType="1" res="-1.3240906409919262e-02" rms="4.4792354106903076e-01" purity="5.2038913965225220e-01" nType="-99"/>
            <Node pos="r" depth="3" NCoef="0" IVar="-1" Cut="0.0000000000000000e+00" cType="1" res="1.3245968148112297e-02" rms="4.0962785482406616e-01" purity="7.0617902278900146e-01" nType="-99"/>
          </Node>
        </Node>
      </Node>
    </BinaryTree>
    <BinaryTree type="DecisionTree" boostWeight="1.0000000000000000e+00" itree="21">
      <Node pos="s" depth="0" NCoef="0" IVar="3" Cut="8.5696774721145630e-01" cType="1" res="-3.4209147095680237e-02" rms="4.2822360992431641e-01" purity="5.0000000000000000e-01" nType="0">
        <Node pos="l" depth="1" NCoef="0" IVar="0" Cut="5.6889678955078125e+01" cType="1" res="-5.1857020705938339e-02" rms="4.3162158131599426e-01" purity="4.6030831336975098e-01" nType="0">
          <Node pos="l" depth="2" NCoef="0" IVar="12" Cut="2.3645557403564453e+01" cType="1" res="-8.5338510572910309e-02" rms="4.2586997151374817e-01" purity="3.8824191689491272e-01" nType="0">
            <Node pos="l" depth="3" NCoef="0" IVar="-1" Cut="0.0000000000000000e+00" cType="1" res="-5.8436319231987000e-03" rms="4.3593689799308777e-01" purity="4.7176727652549744e-01" nType="-99"/>
            <Node pos="r" depth="3" NCoef="0" IVar="-1" Cut="0.0000000000000000e+00" cType="1" res="-2.1556129679083824e-02" rms="3.9947515726089478e-01" purity="2.4850273132324219e-01" nType="-99"/>
          </Node>
          <Node pos="r" depth="2" NCoef="0" IVar="8" Cut="-8.3481259644031525e-02" cType="1" res="5.0086393021047115e-03" rms="4.3535745143890381e-01" purity="5.8270740509033203e-01" nType="0">
            <Node pos="l" depth="3" NCoef="0" IVar="-1" Cut="0.0000000000000000e+00" cType="1" res="-2.6176651939749718e-02" rms="4.5546784996986389e-01" purity="4.4055524468421936e-01" nType="-99"/>
            <Node pos="r" depth="3" NCoef="0" IVar="-1" Cut="0.0000000000000000e+00" cType="1" res="1.0883867740631104e-02" rms="4.2654913663864136e-01" purity="6.3042443990707397e-01" nType="-99"/>
          </Node>
        </Node>
        <Node pos="r" depth="1" NCoef="0" IVar="3" Cut="9.3842107057571411e-01" cType="1" res="6.6979490220546722e-02" rms="3.9318963885307312e-01" purity="7.2758257389068604e-01" nType="0">
          <Node pos="l" depth="2" NCoef="0" IVar="-1" Cut="0.0000000000000000e+00" cType="1" res="7.9122483730316162e-03" rms="4.1008552908897400e-01" purity="6.8430334329605103e-01" nType="-99"/>
          <Node pos="r" depth="2" NCoef="0" IVar="-1" Cut="0.0000000000000000e+00" cType="1" res="5.9493761509656906e-02" rms="3.6319130659103394e-01" purity="7.8623569011688232e-01" nType="-99"/>
        </Node>
      </Node>
    </BinaryTree>
    <BinaryTree type="DecisionTree" boostWeight="1.0000000000000000e+00" itree="22">
      <Node pos="s" depth="0" NCoef="0" IVar="6" Cut="5.3625845909118652e-01" cType="1" res="-3.3205810934305191e-02" rms="4.2703127861022949e-01" purity="5.0000000000000000e-01" nType="0">
        <Node pos="l" depth="1" NCoef="0" IVar="6" Cut="4.7038260102272034e-01" cType="1" res="-1.1830451339483261e-01" rms="4.0401288866996765e-01" purity="2.3525929450988770e-01" nType="0">
          <Node pos="l" depth="2" NCoef="0" IVar="-1" Cut="0.0000000000000000e+00" cType="1" res="-1.6307739540934563e-02" rms="3.7508994340896606e-01" purity="1.8650430440902710e-01" nType="-99"/>
          <Node pos="r" depth="2" NCoef="0" IVar="-1" Cut="0.0000000000000000e+00" cType="1" res="-1.1128797195851803e-02" rms="4.2742103338241577e-01" purity="2.8447580337524414e-01" nType="-99"/>
        </Node>
        <Node pos="r" depth="1" NCoef="0" IVar="8" Cut="-8.3528064191341400e-02" cType="1" res="-1.3505209237337112e-02" rms="4.2979016900062561e-01" purity="5.6128823757171631e-01" nType="0">
          <Node pos="l" depth="2" NCoef="0" IVar="6" Cut="8.3591073751449585e-01" cType="1" res="-7.4172735214233398e-02" rms="4.4003865122795105e-01" purity="4.2203974723815918e-01" nType="0">
            <Node pos="l" depth="3" NCoef="0" IVar="-1" Cut="0.0000000000000000e+00" cType="1" res="-2.0105803385376930e-02" rms="4.3729540705680847e-01" purity="3.4904426336288452e-01" nType="-99"/>
            <Node pos="r" depth="3" NCoef="0" IVar="-1" Cut="0.0000000000000000e+00" cType="1" res="1.8842326477169991e-02" rms="4.3201112747192383e-01" purity="6.5810662508010864e-01" nType="-99"/>
          </Node>
          <Node pos="r" depth="2" NCoef="0" IVar="3" Cut="1.4435106515884399e-01" cType="1" res="1.0574797168374062e-02" rms="4.2325004935264587e-01" purity="6.1655843257904053e-01" nType="0">
            <Node pos="l" depth="3" NCoef="0" IVar="-1" Cut="0.0000000000000000e+00" cType="1" res="-1.3707169331610203e-02" rms="4.3826305866241455e-01" purity="3.6749163269996643e-01" nType="-99"/>
            <Node pos="r" depth="3" NCoef="0" IVar="-1" Cut="0.0000000000000000e+00" cType="1" res="6.5026064403355122e-03" rms="4.1883808374404907e-01" purity="6.5183138847351074e-01" nType="-99"/>
          </Node>
        </Node>
      </Node>
    </BinaryTree>
    <BinaryTree type="DecisionTree" boostWeight="1.0000000000000000e+00" itree="23">
      <Node pos="s" depth="0" NCoef="0" IVar="5" Cut="2.1853752434253693e-02" cType="1" res="-3.1762812286615372e-02" rms="4.2625769972801208e-01" purity="5.0000000000000000e-01" nType="0">
        <Node pos="l" depth="1" NCoef="0" IVar="0" Cut="5.0951038360595703e+01" cType="1" res="-1.2035837769508362e-01" rms="4.0699848532676697e-01" purity="2.6973798871040344e-01" nType="0">
          <Node pos="l" depth="2" NCoef="0" IVar="-1" Cut="0.0000000000000000e+00" cType="1" res="-2.1869460120797157e-02" rms="3.6398315429687500e-01" purity="1.9083127379417419e-01" nType="-99"/>
          <Node pos="r" depth="2" NCoef="0" IVar="-1" Cut="0.0000000000000000e+00" cType="1" res="-2.2176682949066162e-02" rms="4.4548746943473816e-01" purity="3.6188334226608276e-01" nType="-99"/>
        </Node>
        <Node pos="r" depth="1" NCoef="0" IVar="3" Cut="4.2939880490303040e-01" cType="1" res="-1.4147097244858742e-02" rms="4.2780306935310364e-01" purity="5.4578363895416260e-01" nType="0">
          <Node pos="l" depth="2" NCoef="0" IVar="6" Cut="6.6247820854187012e-01" cType="1" res="-5.8423966169357300e-02" rms="4.3693393468856812e-01" purity="3.9853534102439880e-01" nType="0">
            <Node pos="l" depth="3" NCoef="0" IVar="-1" Cut="0.0000000000000000e+00" cType="1" res="-1.2257900089025497e-02" rms="4.0715366601943970e-01" purity="2.4473929405212402e-01" nType="-99"/>
            <Node pos="r" depth="3" NCoef="0" IVar="-1" Cut="0.0000000000000000e+00" cType="1" res="-4.4662384316325188e-03" rms="4.5385220646858215e-01" purity="5.1063066720962524e-01" nType="-99"/>
          </Node>
          <Node pos="r" depth="2" NCoef="0" IVar="9" Cut="2.5437541198730469e+02" cType="1" res="1.7180971801280975e-02" rms="4.1840204596519470e-01" purity="6.4996916055679321e-01" nType="0">
            <Node pos="l" depth="3" NCoef="0" IVar="-1" Cut="0.0000000000000000e+00" cType="1" res="1.1600651778280735e-02" rms="4.0777203440666199e-01" purity="6.9718641042709351e-01" nType="-99"/>
            <Node pos="r" depth="3" NCoef="0" IVar="-1" Cut="0.0000000000000000e+00" cType="1" res="-1.1382863856852055e-02" rms="4.3344202637672424e-01" purity="5.5074876546859741e-01" nType="-99"/>
          </Node>
        </Node>
      </Node>
    </BinaryTree>
    <BinaryTree type="DecisionTree" boostWeight="1.0000000000000000e+00" itree="24">
      <Node pos="s" depth="0" NCoef="0" IVar="0" Cut="5.6889678955078125e+01" cType="1" res="-2.9722914099693298e-02" rms="4.2554640769958496e-01" purity="5.0000000000000000e-01" nType="0">
        <Node pos="l" depth="1" NCoef="0" IVar="12" Cut="2.3645557403564453e+01" cType="1" res="-6.0432255268096924e-02" rms="4.2421445250511169e-01" purity="4.2665752768516541e-01" nType="0">
          <Node pos="l" depth="2" NCoef="0" IVar="12" Cut="9.0077495574951172e+00" cType="1" res="-2.2284794598817825e-02" rms="4.2909601330757141e-01" purity="5.1457029581069946e-01" nType="0">
            <Node pos="l" depth="3" NCoef="0" IVar="-1" Cut="0.0000000000000000e+00" cType="1" res="4.4743716716766357e-03" rms="4.1601857542991638e-01" purity="5.9925979375839233e-01" nType="-99"/>
            <Node pos="r" depth="3" NCoef="0" IVar="-1" Cut="0.0000000000000000e+00" cType="1" res="-9.6946004778146744e-03" rms="4.3567711114883423e-01" purity="4.3205922842025757e-01" nType="-99"/>
          </Node>
          <Node pos="r" depth="2" NCoef="0" IVar="0" Cut="4.8042930603027344e+01" cType="1" res="-1.2555480003356934e-01" rms="4.0758031606674194e-01" purity="2.7657926082611084e-01" nType="0">
            <Node pos="l" depth="3" NCoef="0" IVar="-1" Cut="0.0000000000000000e+00" cType="1" res="-2.0833317190408707e-02" rms="3.8452377915382385e-01" purity="2.2456693649291992e-01" nType="-99"/>
            <Node pos="r" depth="3" NCoef="0" IVar="-1" Cut="0.0000000000000000e+00" cType="1" res="-1.4435639604926109e-02" rms="4.2854362726211548e-01" purity="3.3744704723358154e-01" nType="-99"/>
          </Node>
        </Node>
        <Node pos="r" depth="1" NCoef="0" IVar="3" Cut="1.9187407195568085e-01" cType="1" res="2.0343109965324402e-02" rms="4.2295491695404053e-01" purity="6.1957168579101562e-01" nType="0">
          <Node pos="l" depth="2" NCoef="0" IVar="-1" Cut="0.0000000000000000e+00" cType="1" res="-1.6021762043237686e-02" rms="4.4884121417999268e-01" purity="4.1799917817115784e-01" nType="-99"/>
          <Node pos="r" depth="2" NCoef="0" IVar="11" Cut="7.9674438476562500e+02" cType="1" res="3.5423323512077332e-02" rms="4.1571152210235596e-01" purity="6.6219395399093628e-01" nType="0">
            <Node pos="l" depth="3" NCoef="0" IVar="-1" Cut="0.0000000000000000e+00" cType="1" res="3.2576072961091995e-02" rms="3.9219355583190918e-01" purity="7.3231053352355957e-01" nType="-99"/>
            <Node pos="r" depth="3" NCoef="0" IVar="-1" Cut="0.0000000000000000e+00" cType="1" res="-4.2740269564092159e-03" rms="4.4770365953445435e-01" purity="5.4915410280227661e-01" nType="-99"/>
          </Node>
        </Node>
      </Node>
    </BinaryTree>
    <BinaryTree type="DecisionTree" boostWeight="1.0000000000000000e+00" itree="25">
      <Node pos="s" depth="0" NCoef="0" IVar="2" Cut="5.3939467668533325e-01" cType="1" res="-2.9097519814968109e-02" rms="4.2453691363334656e-01" purity="5.0000000000000000e-01" nType="0">
        <Node pos="l" depth="1" NCoef="0" IVar="-1" Cut="0.0000000000000000e+00" cType="1" res="-2.5361767038702965e-02" rms="4.0226903557777405e-01" purity="2.9984387755393982e-01" nType="-99"/>
        <Node pos="r" depth="1" NCoef="0" IVar="2" Cut="2.1076827049255371e+00" cType="1" res="-1.6716226935386658e-02" rms="4.2512398958206177e-01" purity="5.2214944362640381e-01" nType="0">
          <Node pos="l" depth="2" NCoef="0" IVar="1" Cut="9.0452873229980469e+01" cType="1" res="-5.4763252846896648e-03" rms="4.2568698525428772e-01" purity="5.4184770584106445e-01" nType="0">
            <Node pos="l" depth="3" NCoef="0" IVar="-1" Cut="0.0000000000000000e+00" cType="1" res="-9.0214377269148827e-03" rms="4.2259663343429565e-01" purity="4.4786477088928223e-01" nType="-99"/>
            <Node pos="r" depth="3" NCoef="0" IVar="-1" Cut="0.0000000000000000e+00" cType="1" res="1.2584676034748554e-02" rms="4.2291259765625000e-01" purity="6.2460511922836304e-01" nType="-99"/>
          </Node>
          <Node pos="r" depth="2" NCoef="0" IVar="-1" Cut="0.0000000000000000e+00" cType="1" res="-1.9157189875841141e-02" rms="3.9606925845146179e-01" purity="2.9455363750457764e-01" nType="-99"/>
        </Node>
      </Node>
    </BinaryTree>
    <BinaryTree type="DecisionTree" boostWeight="1.0000000000000000e+00" itree="26">
      <Node pos="s" depth="0" NCoef="0" IVar="6" Cut="4.6710902452468872e-01" cType="1" res="-2.8145480901002884e-02" rms="4.2362856864929199e-01" purity="5.0000000000000000e-01" nType="0">
        <Node pos="l" depth="1" NCoef="0" IVar="-1" Cut="0.0000000000000000e+00" cType="1" res="-1.5181710943579674e-02" rms="3.6987400054931641e-01" purity="1.8240877985954285e-01" nType="-99"/>
        <Node pos="r" depth="1" NCoef="0" IVar="3" Cut="8.5695034265518188e-01" cType="1" res="-1.6495920717716217e-02" rms="4.2690151929855347e-01" purity="5.3182202577590942e-01" nType="0">
          <Node pos="l" depth="2" NCoef="0" IVar="2" Cut="5.3939467668533325e-01" cType="1" res="-3.1480085104703903e-02" rms="4.3288436532020569e-01" purity="4.9107655882835388e-01" nType="0">
            <Node pos="l" depth="3" NCoef="0" IVar="-1" Cut="0.0000000000000000e+00" cType="1" res="-2.3393316194415092e-02" rms="4.0577343106269836e-01" purity="2.8676062822341919e-01" nType="-99"/>
            <Node pos="r" depth="3" NCoef="0" IVar="-1" Cut="0.0000000000000000e+00" cType="1" res="-3.9649656973779202e-03" rms="4.3433374166488647e-01" purity="5.1502895355224609e-01" nType="-99"/>
          </Node>
          <Node pos="r" depth="2" NCoef="0" IVar="3" Cut="9.3838942050933838e-01" cType="1" res="6.7876592278480530e-02" rms="3.8065400719642639e-01" purity="7.6125121116638184e-01" nType="0">
            <Node pos="l" depth="3" NCoef="0" IVar="-1" Cut="0.0000000000000000e+00" cType="1" res="1.3077724725008011e-02" rms="3.9962524175643921e-01" purity="7.2199380397796631e-01" nType="-99"/>
            <Node pos="r" depth="3" NCoef="0" IVar="-1" Cut="0.0000000000000000e+00" cType="1" res="6.3260853290557861e-02" rms="3.5106196999549866e-01" purity="8.1318372488021851e-01" nType="-99"/>
          </Node>
        </Node>
      </Node>
    </BinaryTree>
    <BinaryTree type="DecisionTree" boostWeight="1.0000000000000000e+00" itree="27">
      <Node pos="s" depth="0" NCoef="0" IVar="6" Cut="7.7828145027160645e-01" cType="1" res="-2.7260690927505493e-02" rms="4.2287251353263855e-01" purity="5.0000000000000000e-01" nType="0">
        <Node pos="l" depth="1" NCoef="0" IVar="0" Cut="5.6601131439208984e+01" cType="1" res="-4.9839463084936142e-02" rms="4.3313205242156982e-01" purity="4.1032034158706665e-01" nType="0">
          <Node pos="l" depth="2" NCoef="0" IVar="2" Cut="8.4498894214630127e-01" cType="1" res="-7.9348839819431305e-02" rms="4.2293077707290649e-01" purity="3.3610680699348450e-01" nType="0">
            <Node pos="l" depth="3" NCoef="0" IVar="-1" Cut="0.0000000000000000e+00" cType="1" res="-1.7616165801882744e-02" rms="3.8639706373214722e-01" purity="2.3559315502643585e-01" nType="-99"/>
            <Node pos="r" depth="3" NCoef="0" IVar="-1" Cut="0.0000000000000000e+00" cType="1" res="-5.8098509907722473e-03" rms="4.3667894601821899e-01" purity="3.8662248849868774e-01" nType="-99"/>
          </Node>
          <Node pos="r" depth="2" NCoef="0" IVar="8" Cut="-6.6706165671348572e-02" cType="1" res="-1.5245600661728531e-04" rms="4.4539034366607666e-01" purity="5.3527885675430298e-01" nType="0">
            <Node pos="l" depth="3" NCoef="0" IVar="-1" Cut="0.0000000000000000e+00" cType="1" res="-1.4506882987916470e-02" rms="4.5406541228294373e-01" purity="4.4988834857940674e-01" nType="-99"/>
            <Node pos="r" depth="3" NCoef="0" IVar="-1" Cut="0.0000000000000000e+00" cType="1" res="1.4647617936134338e-02" rms="4.3302550911903381e-01" purity="6.2420433759689331e-01" nType="-99"/>
          </Node>
        </Node>
        <Node pos="r" depth="1" NCoef="0" IVar="3" Cut="2.4033081531524658e-01" cType="1" res="2.9322331771254539e-02" rms="3.9029923081398010e-01" purity="7.2473973035812378e-01" nType="0">
          <Node pos="l" depth="2" NCoef="0" IVar="-1" Cut="0.0000000000000000e+00" cType="1" res="-6.5380260348320007e-03" rms="4.5336365699768066e-01" purity="5.0446897745132446e-01" nType="-99"/>
          <Node pos="r" depth="2" NCoef="0" IVar="6" Cut="8.8694864511489868e-01" cType="1" res="4.6219408512115479e-02" rms="3.6937692761421204e-01" purity="7.8504252433776855e-01" nType="0">
            <Node pos="l" depth="3" NCoef="0" IVar="-1" Cut="0.0000000000000000e+00" cType="1" res="1.3437717221677303e-02" rms="3.8034307956695557e-01" purity="7.6184618473052979e-01" nType="-99"/>
            <Node pos="r" depth="3" NCoef="0" IVar="-1" Cut="0.0000000000000000e+00" cType="1" res="1.1460069566965103e-01" rms="3.2592949271202087e-01" purity="8.5773414373397827e-01" nType="-99"/>
          </Node>
        </Node>
      </Node>
    </BinaryTree>
    <BinaryTree type="DecisionTree" boostWeight="1.0000000000000000e+00" itree="28">
      <Node pos="s" depth="0" NCoef="0" IVar="6" Cut="4.6710902452468872e-01" cType="1" res="-2.7847597375512123e-02" rms="4.2179983854293823e-01" purity="5.0000000000000000e-01" nType="0">
        <Node pos="l" depth="1" NCoef="0" IVar="-1" Cut="0.0000000000000000e+00" cType="1" res="-1.4433844015002251e-02" rms="3.6959126591682434e-01" purity="1.8240877985954285e-01" nType="-99"/>
        <Node pos="r" depth="1" NCoef="0" IVar="3" Cut="9.6858754754066467e-02" cType="1" res="-1.7116077244281769e-02" rms="4.2519465088844299e-01" purity="5.3182202577590942e-01" nType="0">
          <Node pos="l" depth="2" NCoef="0" IVar="-1" Cut="0.0000000000000000e+00" cType="1" res="-1.8166514113545418e-02" rms="4.0702080726623535e-01" purity="2.7380996942520142e-01" nType="-99"/>
          <Node pos="r" depth="2" NCoef="0" IVar="12" Cut="2.6209371566772461e+01" cType="1" res="-7.1202637627720833e-03" rms="4.2534732818603516e-01" purity="5.5484414100646973e-01" nType="0">
            <Node pos="l" depth="3" NCoef="0" IVar="-1" Cut="0.0000000000000000e+00" cType="1" res="4.1120736859738827e-03" rms="4.1601949930191040e-01" purity="6.2286359071731567e-01" nType="-99"/>
            <Node pos="r" depth="3" NCoef="0" IVar="-1" Cut="0.0000000000000000e+00" cType="1" res="-1.3501600362360477e-02" rms="4.3712472915649414e-01" purity="4.3964555859565735e-01" nType="-99"/>
          </Node>
        </Node>
      </Node>
    </BinaryTree>
    <BinaryTree type="DecisionTree" boostWeight="1.0000000000000000e+00" itree="29">
      <Node pos="s" depth="0" NCoef="0" IVar="0" Cut="5.6889678955078125e+01" cType="1" res="-2.5725450366735458e-02" rms="4.2134571075439453e-01" purity="5.0000000000000000e-01" nType="0">
        <Node pos="l" depth="1" NCoef="0" IVar="9" Cut="2.3094607543945312e+02" cType="1" res="-5.1880389451980591e-02" rms="4.2029178142547607e-01" purity="4.2665752768516541e-01" nType="0">
          <Node pos="l" depth="2" NCoef="0" IVar="1" Cut="6.5192848205566406e+01" cType="1" res="-1.8404526636004448e-02" rms="4.2544269561767578e-01" purity="4.9411386251449585e-01" nType="0">
            <Node pos="l" depth="3" NCoef="0" IVar="-1" Cut="0.0000000000000000e+00" cType="1" res="-1.0138583369553089e-02" rms="4.1459283232688904e-01" purity="3.6763224005699158e-01" nType="-99"/>
            <Node pos="r" depth="3" NCoef="0" IVar="-1" Cut="0.0000000000000000e+00" cType="1" res="4.6807737089693546e-03" rms="4.2573031783103943e-01" purity="5.7099002599716187e-01" nType="-99"/>
          </Node>
          <Node pos="r" depth="2" NCoef="0" IVar="0" Cut="4.4825839996337891e+01" cType="1" res="-1.1030375957489014e-01" rms="4.0456563234329224e-01" purity="3.0893000960350037e-01" nType="0">
            <Node pos="l" depth="3" NCoef="0" IVar="-1" Cut="0.0000000000000000e+00" cType="1" res="-2.0040668547153473e-02" rms="3.7109908461570740e-01" purity="2.2686813771724701e-01" nType="-99"/>
            <Node pos="r" depth="3" NCoef="0" IVar="-1" Cut="0.0000000000000000e+00" cType="1" res="-1.4812657609581947e-02" rms="4.1696783900260925e-01" purity="3.4840726852416992e-01" nType="-99"/>
          </Node>
        </Node>
        <Node pos="r" depth="1" NCoef="0" IVar="0" Cut="7.2975013732910156e+01" cType="1" res="1.6915448009967804e-02" rms="4.1957691311836243e-01" purity="6.1957168579101562e-01" nType="0">
          <Node pos="l" depth="2" NCoef="0" IVar="12" Cut="2.9858345031738281e+01" cType="1" res="-5.4728710092604160e-03" rms="4.1912367939949036e-01" purity="5.8988159894943237e-01" nType="0">
            <Node pos="l" depth="3" NCoef="0" IVar="-1" Cut="0.0000000000000000e+00" cType="1" res="1.0266189463436604e-02" rms="4.0239408612251282e-01" purity="6.7538589239120483e-01" nType="-99"/>
            <Node pos="r" depth="3" NCoef="0" IVar="-1" Cut="0.0000000000000000e+00" cType="1" res="-1.9424987956881523e-02" rms="4.4156235456466675e-01" purity="4.4301262497901917e-01" nType="-99"/>
          </Node>
          <Node pos="r" depth="2" NCoef="0" IVar="9" Cut="2.6592257690429688e+02" cType="1" res="5.5284846574068069e-02" rms="4.1757035255432129e-01" purity="6.7045491933822632e-01" nType="0">
            <Node pos="l" depth="3" NCoef="0" IVar="-1" Cut="0.0000000000000000e+00" cType="1" res="8.4632508456707001e-02" rms="3.8552778959274292e-01" purity="7.4099642038345337e-01" nType="-99"/>
            <Node pos="r" depth="3" NCoef="0" IVar="-1" Cut="0.0000000000000000e+00" cType="1" res="2.1845044568181038e-02" rms="4.3964594602584839e-01" purity="6.1251586675643921e-01" nType="-99"/>
          </Node>
        </Node>
      </Node>
    </BinaryTree>
    <BinaryTree type="DecisionTree" boostWeight="1.0000000000000000e+00" itree="30">
      <Node pos="s" depth="0" NCoef="0" IVar="5" Cut="6.5131716430187225e-02" cType="1" res="-2.6491744443774223e-02" rms="4.2018008232116699e-01" purity="5.0000000000000000e-01" nType="0">
        <Node pos="l" depth="1" NCoef="0" IVar="0" Cut="5.4519920349121094e+01" cType="1" res="-5.5033862590789795e-02" rms="4.2481756210327148e-01" purity="3.8497596979141235e-01" nType="0">
          <Node pos="l" depth="2" NCoef="0" IVar="1" Cut="9.1712631225585938e+01" cType="1" res="-9.0883441269397736e-02" rms="4.0673869848251343e-01" purity="3.0009779334068298e-01" nType="0">
            <Node pos="l" depth="3" NCoef="0" IVar="-1" Cut="0.0000000000000000e+00" cType="1" res="-1.4959461987018585e-02" rms="3.8201826810836792e-01" purity="2.3829329013824463e-01" nType="-99"/>
            <Node pos="r" depth="3" NCoef="0" IVar="-1" Cut="0.0000000000000000e+00" cType="1" res="-6.7507680505514145e-03" rms="4.3152111768722534e-01" purity="3.7941169738769531e-01" nType="-99"/>
          </Node>
          <Node pos="r" depth="2" NCoef="0" IVar="0" Cut="6.8347831726074219e+01" cType="1" res="-4.6627731062471867e-03" rms="4.4412851333618164e-01" purity="5.0423556566238403e-01" nType="0">
            <Node pos="l" depth="3" NCoef="0" IVar="-1" Cut="0.0000000000000000e+00" cType="1" res="-8.5054431110620499e-03" rms="4.4164288043975830e-01" purity="4.5331239700317383e-01" nType="-99"/>
            <Node pos="r" depth="3" NCoef="0" IVar="-1" Cut="0.0000000000000000e+00" cType="1" res="2.2084711119532585e-02" rms="4.4508528709411621e-01" purity="5.7685065269470215e-01" nType="-99"/>
          </Node>
        </Node>
        <Node pos="r" depth="1" NCoef="0" IVar="8" Cut="-5.8462731540203094e-02" cType="1" res="9.6630789339542389e-03" rms="4.1139805316925049e-01" purity="6.4570307731628418e-01" nType="0">
          <Node pos="l" depth="2" NCoef="0" IVar="6" Cut="7.6259690523147583e-01" cType="1" res="-1.2361283414065838e-02" rms="4.1763058304786682e-01" purity="6.1155819892883301e-01" nType="0">
            <Node pos="l" depth="3" NCoef="0" IVar="-1" Cut="0.0000000000000000e+00" cType="1" res="-7.3845502920448780e-03" rms="4.4535049796104431e-01" purity="4.7100216150283813e-01" nType="-99"/>
            <Node pos="r" depth="3" NCoef="0" IVar="-1" Cut="0.0000000000000000e+00" cType="1" res="9.3267345800995827e-03" rms="3.8693472743034363e-01" purity="7.4202263355255127e-01" nType="-99"/>
          </Node>
          <Node pos="r" depth="2" NCoef="0" IVar="5" Cut="1.1700931936502457e-01" cType="1" res="5.8075509965419769e-02" rms="3.9304032921791077e-01" purity="7.2075784206390381e-01" nType="0">
            <Node pos="l" depth="3" NCoef="0" IVar="-1" Cut="0.0000000000000000e+00" cType="1" res="6.1503816395998001e-03" rms="4.2661976814270020e-01" purity="6.3969475030899048e-01" nType="-99"/>
            <Node pos="r" depth="3" NCoef="0" IVar="-1" Cut="0.0000000000000000e+00" cType="1" res="4.9007091671228409e-02" rms="3.4382683038711548e-01" purity="8.2157081365585327e-01" nType="-99"/>
          </Node>
        </Node>
      </Node>
    </BinaryTree>
    <BinaryTree type="DecisionTree" boostWeight="1.0000000000000000e+00" itree="31">
      <Node pos="s" depth="0" NCoef="0" IVar="6" Cut="4.6710902452468872e-01" cType="1" res="-2.6551861315965652e-02" rms="4.1941645741462708e-01" purity="5.0000000000000000e-01" nType="0">
        <Node pos="l" depth="1" NCoef="0" IVar="-1" Cut="0.0000000000000000e+00" cType="1" res="-1.3748318888247013e-02" rms="3.6809900403022766e-01" purity="1.8240877985954285e-01" nType="-99"/>
        <Node pos="r" depth="1" NCoef="0" IVar="2" Cut="5.3939467668533325e-01" cType="1" res="-1.6676722094416618e-02" rms="4.2295241355895996e-01" purity="5.3182202577590942e-01" nType="0">
          <Node pos="l" depth="2" NCoef="0" IVar="-1" Cut="0.0000000000000000e+00" cType="1" res="-2.1952223032712936e-02" rms="4.0702086687088013e-01" purity="3.2018634676933289e-01" nType="-99"/>
          <Node pos="r" depth="2" NCoef="0" IVar="3" Cut="9.6858754754066467e-02" cType="1" res="-6.0981707647442818e-03" rms="4.2337420582771301e-01" purity="5.5540215969085693e-01" nType="0">
            <Node pos="l" depth="3" NCoef="0" IVar="-1" Cut="0.0000000000000000e+00" cType="1" res="-1.6430426388978958e-02" rms="4.1191089153289795e-01" purity="2.8927206993103027e-01" nType="-99"/>
            <Node pos="r" depth="3" NCoef="0" IVar="-1" Cut="0.0000000000000000e+00" cType="1" res="8.8458956452086568e-04" rms="4.2295378446578979e-01" purity="5.7875937223434448e-01" nType="-99"/>
          </Node>
        </Node>
      </Node>
    </BinaryTree>
    <BinaryTree type="DecisionTree" boostWeight="1.0000000000000000e+00" itree="32">
      <Node pos="s" depth="0" NCoef="0" IVar="2" Cut="2.0363800525665283e+00" cType="1" res="-2.4968968704342842e-02" rms="4.1902223229408264e-01" purity="5.0000000000000000e-01" nType="0">
        <Node pos="l" depth="1" NCoef="0" IVar="1" Cut="8.6918197631835938e+01" cType="1" res="-1.5517611987888813e-02" rms="4.1986447572708130e-01" purity="5.1772677898406982e-01" nType="0">
          <Node pos="l" depth="2" NCoef="0" IVar="7" Cut="4.1695228219032288e-01" cType="1" res="-6.7306809127330780e-02" rms="4.1253587603569031e-01" purity="4.0938380360603333e-01" nType="0">
            <Node pos="l" depth="3" NCoef="0" IVar="-1" Cut="0.0000000000000000e+00" cType="1" res="-1.3815321959555149e-02" rms="4.1335752606391907e-01" purity="3.3749356865882874e-01" nType="-99"/>
            <Node pos="r" depth="3" NCoef="0" IVar="-1" Cut="0.0000000000000000e+00" cType="1" res="2.2654770873486996e-03" rms="3.9974787831306458e-01" purity="6.5438801050186157e-01" nType="-99"/>
          </Node>
          <Node pos="r" depth="2" NCoef="0" IVar="1" Cut="1.5398869323730469e+02" cType="1" res="3.4476790577173233e-02" rms="4.2081645131111145e-01" purity="6.2231504917144775e-01" nType="0">
            <Node pos="l" depth="3" NCoef="0" IVar="-1" Cut="0.0000000000000000e+00" cType="1" res="1.6404293477535248e-02" rms="4.1400626301765442e-01" purity="6.4817321300506592e-01" nType="-99"/>
            <Node pos="r" depth="3" NCoef="0" IVar="-1" Cut="0.0000000000000000e+00" cType="1" res="-1.4962971210479736e-02" rms="4.3439650535583496e-01" purity="5.4237824678421021e-01" nType="-99"/>
          </Node>
        </Node>
        <Node pos="r" depth="1" NCoef="0" IVar="-1" Cut="0.0000000000000000e+00" cType="1" res="-1.6132978722453117e-02" rms="3.9694505929946899e-01" purity="3.1513801217079163e-01" nType="-99"/>
      </Node>
    </BinaryTree>
    <BinaryTree type="DecisionTree" boostWeight="1.0000000000000000e+00" itree="33">
      <Node pos="s" depth="0" NCoef="0" IVar="6" Cut="4.6710902452468872e-01" cType="1" res="-2.4003164842724800e-02" rms="4.1813793778419495e-01" purity="5.0000000000000000e-01" nType="0">
        <Node pos="l" depth="1" NCoef="0" IVar="-1" Cut="0.0000000000000000e+00" cType="1" res="-1.3140933588147163e-02" rms="3.6753025650978088e-01" purity="1.8240877985954285e-01" nType="-99"/>
        <Node pos="r" depth="1" NCoef="0" IVar="3" Cut="5.2441024780273438e-01" cType="1" res="-1.4625592157244682e-02" rms="4.2173179984092712e-01" purity="5.3182202577590942e-01" nType="0">
          <Node pos="l" depth="2" NCoef="0" IVar="5" Cut="1.2859867513179779e-01" cType="1" res="-4.3020393699407578e-02" rms="4.2990395426750183e-01" purity="4.1125443577766418e-01" nType="0">
            <Node pos="l" depth="3" NCoef="0" IVar="-1" Cut="0.0000000000000000e+00" cType="1" res="-9.7174691036343575e-03" rms="4.3068084120750427e-01" purity="3.6514174938201904e-01" nType="-99"/>
            <Node pos="r" depth="3" NCoef="0" IVar="-1" Cut="0.0000000000000000e+00" cType="1" res="8.8974693790078163e-03" rms="4.1806188225746155e-01" purity="6.5821248292922974e-01" nType="-99"/>
          </Node>
          <Node pos="r" depth="2" NCoef="0" IVar="12" Cut="5.2418548583984375e+01" cType="1" res="1.6316954046487808e-02" rms="4.1041138768196106e-01" purity="6.6320776939392090e-01" nType="0">
            <Node pos="l" depth="3" NCoef="0" IVar="-1" Cut="0.0000000000000000e+00" cType="1" res="8.1200348213315010e-03" rms="4.0293425321578979e-01" purity="6.9141137599945068e-01" nType="-99"/>
            <Node pos="r" depth="3" NCoef="0" IVar="-1" Cut="0.0000000000000000e+00" cType="1" res="-2.5354396551847458e-02" rms="4.4753301143646240e-01" purity="4.8031815886497498e-01" nType="-99"/>
          </Node>
        </Node>
      </Node>
    </BinaryTree>
    <BinaryTree type="DecisionTree" boostWeight="1.0000000000000000e+00" itree="34">
      <Node pos="s" depth="0" NCoef="0" IVar="8" Cut="-8.3974301815032959e-02" cType="1" res="-2.2601857781410217e-02" rms="4.1771057248115540e-01" purity="5.0000000000000000e-01" nType="0">
        <Node pos="l" depth="1" NCoef="0" IVar="6" Cut="8.1285619735717773e-01" cType="1" res="-6.8035051226615906e-02" rms="4.1682833433151245e-01" purity="3.6561667919158936e-01" nType="0">
          <Node pos="l" depth="2" NCoef="0" IVar="0" Cut="5.4261608123779297e+01" cType="1" res="-8.6688160896301270e-02" rms="4.1106584668159485e-01" purity="2.8808069229125977e-01" nType="0">
            <Node pos="l" depth="3" NCoef="0" IVar="-1" Cut="0.0000000000000000e+00" cType="1" res="-1.6974518075585365e-02" rms="3.8379293680191040e-01" purity="2.2870516777038574e-01" nType="-99"/>
            <Node pos="r" depth="3" NCoef="0" IVar="-1" Cut="0.0000000000000000e+00" cType="1" res="-1.5795035287737846e-02" rms="4.5004817843437195e-01" purity="3.9138090610504150e-01" nType="-99"/>
          </Node>
          <Node pos="r" depth="2" NCoef="0" IVar="-1" Cut="0.0000000000000000e+00" cType="1" res="-2.9463772661983967e-03" rms="4.2962533235549927e-01" purity="6.2243211269378662e-01" nType="-99"/>
        </Node>
        <Node pos="r" depth="1" NCoef="0" IVar="6" Cut="5.4196387529373169e-01" cType="1" res="-4.2758490890264511e-03" rms="4.1666609048843384e-01" purity="5.5420506000518799e-01" nType="0">
          <Node pos="l" depth="2" NCoef="0" IVar="-1" Cut="0.0000000000000000e+00" cType="1" res="-7.4006384238600731e-03" rms="4.1364046931266785e-01" purity="2.7068859338760376e-01" nType="-99"/>
          <Node pos="r" depth="2" NCoef="0" IVar="3" Cut="1.4435106515884399e-01" cType="1" res="9.8892897367477417e-03" rms="4.1607400774955750e-01" purity="6.1951261758804321e-01" nType="0">
            <Node pos="l" depth="3" NCoef="0" IVar="-1" Cut="0.0000000000000000e+00" cType="1" res="-9.7485305741429329e-03" rms="4.3391212821006775e-01" purity="3.6975795030593872e-01" nType="-99"/>
            <Node pos="r" depth="3" NCoef="0" IVar="-1" Cut="0.0000000000000000e+00" cType="1" res="5.4091205820441246e-03" rms="4.1237717866897583e-01" purity="6.5499198436737061e-01" nType="-99"/>
          </Node>
        </Node>
      </Node>
    </BinaryTree>
    <BinaryTree type="DecisionTree" boostWeight="1.0000000000000000e+00" itree="35">
      <Node pos="s" depth="0" NCoef="0" IVar="2" Cut="2.0363800525665283e+00" cType="1" res="-2.1298158913850784e-02" rms="4.1734516620635986e-01" purity="5.0000000000000000e-01" nType="0">
        <Node pos="l" depth="1" NCoef="0" IVar="1" Cut="8.6918197631835938e+01" cType="1" res="-1.2564609758555889e-02" rms="4.1829177737236023e-01" purity="5.1772677898406982e-01" nType="0">
          <Node pos="l" depth="2" NCoef="0" IVar="1" Cut="5.6737648010253906e+01" cType="1" res="-6.0154624283313751e-02" rms="4.1132465004920959e-01" purity="4.0938380360603333e-01" nType="0">
            <Node pos="l" depth="3" NCoef="0" IVar="-1" Cut="0.0000000000000000e+00" cType="1" res="-1.3496394269168377e-02" rms="3.9868554472923279e-01" purity="3.3280098438262939e-01" nType="-99"/>
            <Node pos="r" depth="3" NCoef="0" IVar="-1" Cut="0.0000000000000000e+00" cType="1" res="-4.4642188586294651e-03" rms="4.1871258616447449e-01" purity="4.7887864708900452e-01" nType="-99"/>
          </Node>
          <Node pos="r" depth="2" NCoef="0" IVar="9" Cut="1.7882604980468750e+02" cType="1" res="3.3376134932041168e-02" rms="4.1982242465019226e-01" purity="6.2231504917144775e-01" nType="0">
            <Node pos="l" depth="3" NCoef="0" IVar="-1" Cut="0.0000000000000000e+00" cType="1" res="3.3936221152544022e-02" rms="3.8930183649063110e-01" purity="7.3412889242172241e-01" nType="-99"/>
            <Node pos="r" depth="3" NCoef="0" IVar="-1" Cut="0.0000000000000000e+00" cType="1" res="4.6108453534543514e-03" rms="4.2728638648986816e-01" purity="5.8719938993453979e-01" nType="-99"/>
          </Node>
        </Node>
        <Node pos="r" depth="1" NCoef="0" IVar="-1" Cut="0.0000000000000000e+00" cType="1" res="-1.4987969771027565e-02" rms="3.9602720737457275e-01" purity="3.1513801217079163e-01" nType="-99"/>
      </Node>
    </BinaryTree>
    <BinaryTree type="DecisionTree" boostWeight="1.0000000000000000e+00" itree="36">
      <Node pos="s" depth="0" NCoef="0" IVar="7" Cut="4.1930046677589417e-01" cType="1" res="-2.1181834861636162e-02" rms="4.1656434535980225e-01" purity="5.0000000000000000e-01" nType="0">
        <Node pos="l" depth="1" NCoef="0" IVar="6" Cut="8.1285619735717773e-01" cType="1" res="-3.3598814159631729e-02" rms="4.2381536960601807e-01" purity="4.4887381792068481e-01" nType="0">
          <Node pos="l" depth="2" NCoef="0" IVar="0" Cut="5.4261608123779297e+01" cType="1" res="-4.8154421150684357e-02" rms="4.2920219898223877e-01" purity="3.8081946969032288e-01" nType="0">
            <Node pos="l" depth="3" NCoef="0" IVar="-1" Cut="0.0000000000000000e+00" cType="1" res="-9.7478702664375305e-03" rms="4.1235569119453430e-01" purity="3.1167945265769958e-01" nType="-99"/>
            <Node pos="r" depth="3" NCoef="0" IVar="-1" Cut="0.0000000000000000e+00" cType="1" res="-2.7410560287535191e-03" rms="4.4986242055892944e-01" purity="4.8293426632881165e-01" nType="-99"/>
          </Node>
          <Node pos="r" depth="2" NCoef="0" IVar="1" Cut="8.2306861877441406e+01" cType="1" res="2.1414833143353462e-02" rms="3.9802625775337219e-01" purity="7.0608860254287720e-01" nType="0">
            <Node pos="l" depth="3" NCoef="0" IVar="-1" Cut="0.0000000000000000e+00" cType="1" res="-4.7957003116607666e-03" rms="4.3111962080001831e-01" purity="5.7268804311752319e-01" nType="-99"/>
